{"cost": "CrossEntropyCost", "biases": [[[-0.5450902878206326], [-0.7970192569845552], [0.907391541322105], [-0.5911193027421062], [0.3512208185445236], [-0.00893104668607518], [-1.2179638636748529], [-2.1112034992059487], [-0.5635112885296387], [-0.9417324913332262], [0.5058655025300651], [-0.9716989943437546], [-3.134256326376559], [0.2616952859689129], [-0.07958392787943289], [-1.698917175465749], [1.3042525244153218], [-0.7054903581503197], [-0.3693997482522568], [-1.039993366559055], [-0.24123028623719583], [-1.291286651605208], [-0.46836839223774274], [-1.1550582596423937], [1.617412346704142], [1.187588174351956], [2.0099414053330746], [-1.5609803017316068], [0.3489056405670827], [0.6380850020703607]], [[-1.769312057999566], [0.7841264299420275], [-1.7188152956292375], [-1.5661377857937748], [-2.629795405993437], [-1.5582616763588395], [-4.0891974760021474], [-0.5249186054571622], [-2.4017181631809335], [-2.978909065290583]]], "weights": [[[0.007716131844137286, 0.000283521676400693, -0.0035223475146130543, -0.0029790306767041677, -0.019603233353831333, -0.004253954619982984, -0.005277620612381115, 0.007923379242092094, -0.004920357006385556, -0.00802285550865629, 0.010075343473196031, -5.231410455492905e-05, 0.009190743486446369, -0.010088882119126211, 0.009724058790892104, -0.0004058867558369427, -0.00815214093175676, -0.009000365739410607, -0.01084898491238038, -0.0068790117950835354, -0.016559649795986404, 0.001235350024776263, 0.0030414253706930886, -0.0021888779515745515, -0.005921935638146499, -0.01658625960148205, 0.015778657746082496, -0.005378273771417629, -0.0047216134107007516, 0.0015795284143467173, 0.007387029770041942, -0.002315730755034067, 0.015765375459817425, -0.0007237529467207508, -0.00738502011154791, 0.005952131019450124, 0.013160766641327622, -0.004105005396015393, 0.0360026477426468, 0.02144286485053785, 0.00401882435339591, 0.024882808460874165, 0.02708340583987002, 0.03467749348054558, 0.027252627224916993, 0.012722325306588213, 0.016818116579612442, 0.013926805296013204, -0.010300789371367153, 0.005702822328991536, 0.0012812929674761362, 0.00800044792195708, 0.004712404725419136, 0.005040576530294651, -0.0063548304878821614, 0.007003704436404282, -0.0013889429297124169, -0.005089299650177599, 0.002196156655883819, 0.0056008242329341745, -0.0058634719125514176, -0.011398171181051948, 0.009924332086838614, 0.02821430413013588, 0.024512089441730268, -0.005868740162091306, 0.04266541106739125, 0.02911451411345134, 0.050505060533810923, 0.034118313078668625, 0.08677181584456606, 0.12402866838171438, 0.08966508183410422, 0.03200671187260927, 0.0336511843339621, 0.15587724824786392, 0.03979929294313378, 0.012802679698893009, 0.014580460154826634, -0.011116484097250506, -0.006371401177407001, 0.0012105944964047753, 0.0005358733234448588, -0.008151856606020531, -0.0015877406096880388, 0.0033841292272148936, -0.004920774454806585, 0.005320788763462077, 0.008344168528187227, 0.015802989884427656, 0.01821594598368525, 0.044284757800163485, 0.02984038273402183, -0.04913517229167918, 0.025030333930857893, 0.05870672364347787, 0.16193349477460567, 0.12486850907665517, 0.0833587236383096, 0.10919034786064066, 0.03180981256356313, 0.008251314602050428, 0.03097427168376345, 0.06370468627364485, 0.08252692656053841, -0.023206361326312628, -0.07136624121393995, -0.05854342675153773, -0.015317654352548112, 0.014174771304503576, 0.008357819431118544, -0.008388129441743853, -0.007635897129305808, 0.00482771318893286, -0.010453401519126012, -0.01703766382045468, 0.007012848193490129, 0.029753747852289847, 0.032713749676300814, 0.10366191257686254, 0.08808913068479393, -0.008461387984339399, 0.056744122318852466, 0.017953361177984087, -0.019902055810220424, 0.13130710612688495, -0.026344703998737656, 0.23936213915137877, -0.020456055109774707, -0.1659608201645065, 0.11921430767740755, -0.15610963171079462, -0.20613641868405805, -0.05813239498642999, 0.0034401746520558094, 0.046233524285111835, -0.06386602489640919, -0.02842151737440238, -0.003360267166614961, -0.00047503901090653795, 0.008208936323877116, -0.0032269865807075847, 0.003518652426576763, 0.0020811986384787194, 0.024925181836254147, 0.08594083368168078, 0.11498452727574465, 0.16563577412089667, 0.024542191268364846, -0.16313298917606947, -0.0052515908009504566, -0.11444970301197843, -0.29330319052863635, 0.015350236216137098, -0.19103112492402713, 0.12799807148260417, -0.08497355104640394, -0.23030235588439854, 0.10788113812654465, -0.04407604232599665, 0.11054425125260006, -0.02426404597101719, 0.10760165448306479, 0.21812371274528503, 0.07002429244172564, -0.008609399228384404, -0.007498537456898481, -0.003319174474475023, 0.013934515905618774, -0.0023411699052166353, 0.0033710181951096658, 0.02673661992190912, 0.09400888239982089, 0.1327892505836589, 0.1751302338517644, 0.17010549234521602, 0.097169773579848, 0.10425936686394029, 0.3025802668980781, 0.04596420743605847, -0.05982863835954096, 0.026785863102133874, 0.2980979950200635, 0.021294938901829073, -0.16665391278650432, -0.47020455349530876, 0.2645377816182789, 0.06073610971659555, 0.06733428851795106, 0.1109895302746272, 0.06833684002255329, 0.17160713134419006, 0.23923008942411558, 0.10250781745100146, 0.03209417613135314, 0.0035326660779324754, -0.008503498299999144, 0.005749656030957315, -0.014700631348621526, 0.03739788456923274, 0.07811645243534902, 0.16947863207820343, 0.2720797657704704, 0.24965900403614388, 0.07451212759953192, -0.11501773161486871, 0.13727376848157657, 0.43667393494705153, 0.3134775609774018, 0.12488292326899125, 0.24507440606184244, -0.08961697386822798, -0.15839462817098104, -0.3464532642155762, -0.08201263647773688, 0.05036429641604911, 0.04264553308544034, -0.08326203367893893, 0.15219391467566803, 0.13340384805800495, 0.2852970301856696, 0.19325304605262386, -0.038357648956940396, 0.003578202185568826, 0.009260483222606846, 0.0023866555643895183, 0.01998648157322338, 0.011153669668103577, 0.011325389537078179, 0.11516606001700568, -0.03846534096057412, -0.20585327825645208, -0.24207671802869227, -0.05397531005110024, 0.024117993667800573, 0.016325739610309968, 0.13703666231606235, 0.3961883368458639, 0.2133200965095375, -0.24680860171016972, -0.17499788728643062, -0.1825582940528299, 0.21372469293994756, -0.01414565271544097, 0.037711599094151615, 0.11815712795262451, 0.0554944521833241, -0.0947800734105596, 0.1586455585326192, 0.2857667925374925, -0.05709841375009493, -0.01202032687744716, 0.004159991902889463, -0.009605312139925395, -0.01751725139633272, -0.08358608232405106, -0.12156170855006805, -0.13195495546538613, 0.0071427183870041815, 0.11988123588351934, 0.21674102984100937, -0.004561794597442498, 0.10975713332583603, 0.04636490722152179, 0.2398928666940824, 0.3140509989198719, 0.3816349007535478, 0.07736270826462423, -0.1364766776976794, -0.1884956717438853, 0.3020043799493613, 0.06773231106007054, 0.09490161431308118, -0.05526572816966048, 0.05440931066597737, 0.09776004892092346, 0.21593266812996376, 0.22363860127100174, -0.042316142916359684, 0.010651268858423605, -0.012849700647002237, -0.007208867164887809, -0.004143639929403585, -0.02191299154998709, -0.15271396185027958, -0.2509047916491119, -0.18954461304709894, -0.00040663019663413817, 0.09320437344117602, -0.18860861843009294, -0.19393095796069354, 0.139243754611376, 0.0872097438662147, 0.32976288609530263, 0.005467138475592592, -0.18701796681096597, -0.441270273860495, 0.09918991988156296, 0.026990282733209338, -0.03627212972596227, 0.0025682615011244025, -0.09840255282817889, 0.13849137120610946, 0.03168098108432318, 0.07816921803631682, 0.22858389494484432, 0.06282170456696726, 0.01513422362377689, 0.015347000489198464, -0.0007350804098529713, -0.006774395443808019, -0.08920454873894573, -0.13534311993307047, -0.2453114766744985, -0.3263696130734843, -0.40616385451781395, -0.1399854221464355, -0.3375021772479032, 0.018239385741106215, 0.13770127934106838, -0.09511266149387924, -0.20505118995190744, -0.6255388508623362, -0.5422826328008464, -0.08741858004764051, 0.33930515000439465, 0.031268615627110974, -0.14537469615539925, 0.05138708247582032, -0.2020926705386209, -0.2541422734315242, -0.13544334716738868, -0.07875103466828216, 0.03930851018718782, 0.006767239860338181, -0.01352211300978739, 0.00783180073424838, -0.0069098542480260945, -0.01886926120914326, -0.1279086452948194, -0.0009465809052876882, -0.2659175719947833, -0.10698917636818095, -0.35965823732875557, -0.09108698654246447, -0.12188253477339127, 0.42734402571967517, 0.2695066470977269, -0.1904065926452457, -0.43035026897187173, -0.4981719652428278, -0.41501621628048946, -0.12404058263281455, 0.11197221082085979, 0.19904658190733834, -0.04430730196665989, 0.19176579533376623, -0.18629158913916433, -0.012520920262277522, 0.02935010849068966, -0.05334193724289189, -0.045180008032172175, 0.016995052538978095, 0.0016173286358911142, 0.003497991500178679, -0.003636005353937763, -0.046595675905721876, -0.08282916329524959, 0.11662900843588056, -0.08509528565849767, 0.04410034065584619, 0.09331077219024833, 0.34839961951058074, 0.35279446012856425, 0.2520317797107928, -0.13463736746222266, -0.41359489140582884, -0.4120234820813404, -0.15493456853898335, -0.4954338732290732, -0.1909096086728874, 0.5482981981063134, 0.3806567350340548, 0.2592996721293058, -0.12989305511367172, 0.1132222263115319, 0.2675018070093539, -0.00452933535125507, -0.09143360763283521, -0.11478696369526706, -0.0290737553527473, -0.02580940933058172, -0.0023996177321190843, -0.005220159548961764, -0.020498934686233195, 0.02120615449170603, 0.20998098208339927, 0.19829972316739103, 0.2899657312179047, 0.27101402386856793, 0.3731450015283024, 0.2339711899876044, -0.1581225885383492, -0.33122994888297463, -0.3125435159059387, -0.3290914962127533, -0.2407822406994128, -0.25094980294144764, -0.3059593091221789, 0.25057342185127685, 0.2211358165609753, -0.2656700084969931, 0.07428901488693763, 0.015413309894909027, 0.0961143105093227, -0.05851762605745904, -0.03085486336751072, -0.1168348145586851, -0.05579276204195881, -0.007613539872188476, -0.004802795550786045, 0.017027499908802486, 0.001943770174839834, 0.026988271684987766, 0.3098691076167243, 0.3796204069719927, 0.238486219354203, 0.11752782263085974, -0.03680754100534267, -0.2920047823121712, -0.13850117825081287, -0.2928778337204905, -0.3543113060929944, -0.4834952564957968, -0.45499605935299403, -0.08297756327820495, -0.018205311179570638, 0.28206083120451875, 0.0639490090268859, -0.3426641838624059, 0.10042218326638684, 0.08982343435541724, -0.11860823847788972, -0.04433527707016506, -0.07676213901409241, -0.16469143657236268, -0.09682364386261262, -0.009304076323828602, -0.008103198775592794, 0.003548036766625022, 0.02065993718452596, 0.05895524281729928, 0.25357413779764165, 0.317340356937013, -0.060100627852836264, -0.10877828703550016, -0.02987180365177923, -0.3279506684360204, 0.0036173189108078055, -0.35519967240650474, -0.4704476715013567, -0.4469099313825559, -0.027433801685556355, -0.09874955165505876, 0.1400260803782476, 0.24869451306419346, 0.14530451930719296, -0.017788331625048656, 0.12355668738889686, 0.030757256224281933, -0.13217797745565882, -0.20599764375941, -0.021846776689611904, -0.11290530683753126, -0.057323431531006566, 0.014714575158485628, 0.0017318568752613512, -0.008923111139015621, 0.007330836806575484, 0.11140923000570015, 0.24362043147638196, 0.17347336650605727, -0.1881358895454219, 0.005328563449183872, 0.1833107101575831, 0.016475438615802442, -0.11455925529512104, -0.09966819110632238, -0.438374887645578, -0.40855233020069925, 0.07966157016983927, 0.2040471832969902, 0.27320560264031624, 0.15921731163779543, 0.08639974364750468, 0.16895922335448693, 0.14129031960074379, 0.10601370171797297, -0.21645488157614015, -0.17154282806228618, -0.04554473934862023, 0.0443679074646315, -0.0019387022704904435, 0.002180501643717499, 0.006233378078097636, -0.0037957651207401032, 0.026626672574967133, 0.1435065100227527, 0.17905434670015336, 0.080376396103506, -0.07701589320672154, 0.05937751502571949, 0.141731895249805, -0.052304353157351824, -0.05490225475977108, -0.14143389057856218, -0.6718621951477283, -0.3844619908261902, 0.5154454496535867, 0.7566284394876039, 0.20549722775632215, 0.13363751582813369, 0.2750446351397812, 0.27770106924075083, 0.1683139457109224, -0.012120778354777621, -0.04689741111540047, 0.0652994815974218, -0.06894577922981618, -0.0214545484709124, -0.023101922582840464, -0.004032309460999551, 0.0018848880996310486, 0.005385152910330376, 0.029159253310586785, 0.11067066862930537, 0.13597005203491316, 0.11755028992710295, 0.08465725308082908, 0.11397844067940184, 0.06784483742560019, -0.21199319577959777, -0.30644156505047104, -0.17913519760910535, -0.22817825411398462, 0.33111475959871883, 0.9452087923333365, 0.33820068847818957, 0.1318582178235198, 0.1943245744863757, 0.38272176788211054, 0.14121772351688505, 0.08357742338248905, 0.10825058503361716, -0.02767516226589109, -0.011133659726612684, 0.08482791611026828, 0.002691734695585124, -0.03077381105564697, -0.010910850588040168, 0.0031768825179372944, 0.006118425764043454, 0.013716378553646024, 0.08841674963952667, 0.057713412783392, 0.06212390824200501, -0.01129164721913726, 0.08784639407776208, 0.018108873467146267, -0.07796423366487203, -0.25124930034664167, -0.15562335923473208, 0.023853093969093304, 0.5697236821541005, 0.5651808811388294, -0.014938269764794844, 0.387969548676581, 0.22535526717997287, 0.20943391046933646, 0.05535606134639355, 0.03703702879868785, 0.06246628888392529, 0.16996656209846214, -0.0296156218519052, 0.11099663782175262, 0.039621549837548335, -0.004789989289335021, -0.004842538855683095, -0.0009696548442125313, -0.008917709443081559, 0.023470413235222552, 0.10801436122950082, -0.004760564083315353, -0.16385147105109632, -0.19327896942447756, -0.12022141904362925, -0.021491805864423123, -0.22105482401889193, -0.3074631282622021, 0.23786338477306457, 0.22423867146241014, 0.24550704448061023, 0.18995733531548045, 0.05974872557737246, 0.3426165341447504, 0.11499009929150934, 0.4279382471012103, 0.16764407568950102, 0.10412055057287788, 0.08687948233511086, 1.865387588896237e-05, 0.02848818423499847, 9.514431682241853e-05, -0.02270972330809219, 0.013018981036112163, -0.00015721474680852767, -0.00827657338526902, -0.006318262703305017, 0.020440953971636474, 0.0718369258154378, -0.028727234741148737, -0.14073268456019697, -0.34856924721227883, -0.3321555334531265, -0.0866585089155515, 0.02228487413454694, -0.18603317183113896, 0.17144903962750868, -0.044282499670750014, 0.1605120750735794, 0.13804027810198516, 0.32159177705906816, 0.2711799595490252, 0.19674636086988365, 0.4085656552762035, 0.19192428868016836, 0.11290717528225443, -0.04011646245694388, 0.1264141526181795, 0.19900492043041698, 0.08654689264577646, 0.025472476784654995, -0.006280646117489933, 0.008644957929794727, 0.012711173550640314, -0.008108644953911327, 0.012132561037453827, 0.04845746354412001, 0.05612563020691253, -0.05816119638566453, -0.06373232395902073, -0.0968019511255414, -0.00804348929143002, -0.05106166425604949, 0.023228793707444274, 0.05170942084101148, -0.035165725305271935, 0.08642826606724185, 0.3404578141975254, 0.49668288362106006, 0.23410343111490933, 0.3208672798139525, 0.24485852694596286, 0.2279400243165774, 0.15621281660067846, -0.0026136360331083974, 0.1808616678196312, 0.16745715797137128, 0.10028871657918588, 0.008608284840910493, -2.9806254725571397e-06, 0.0028816553181491966, -0.004257280809156048, 0.01222268822878349, 0.01187157608807936, 0.06270198842340637, 0.07755602285762916, 0.04300571047336662, 0.024455512221440188, 0.04064534460277666, 0.15815867215470003, 0.26870388541156776, 0.3675935847452581, 0.3254080913154756, 0.05733618523657832, -0.06059939368715355, -0.061566581337585684, -0.025411494726125607, 0.04407854718838865, 0.6604593552963236, 0.33851359119274316, 0.14316248107648166, 0.16144423455037155, 0.1888526188996141, 0.19712973707316456, 0.2232265951615288, 0.06773704726607663, -0.006844175261442522, 0.004051545776739758, 0.0036458542547706083, 0.026083543437791255, 0.0029143400476485865, -0.0043631985409671005, 0.00992929712000451, -0.012059337732544688, -0.008328588975315894, 0.05564091072738247, 0.15599343353150757, 0.15403222820093387, 0.16888318830965576, 0.12718992033964885, 0.3044750361364828, 0.25295608496766403, 0.1873003503660491, 0.21862027836922648, -0.02450039696524135, 0.2639937342962855, 0.22769958609968807, 0.19667396354911432, 0.20060348739683148, 0.12772402791524634, 0.09155700225797177, 0.05065439579773781, 0.13428417807052836, 0.025511353609924303, -0.0030867893901346207, -0.009543873102964262, -0.005124953751955641, -0.00604930321787944, -0.00048672845895411204, -0.012714161811092502, 0.011824242956704522, 0.0009248092902404281, 0.007889073117280059, 0.01424994992630718, 0.024994898780001537, 0.009085082954408462, 0.05376953553225689, 0.1193997701231152, 0.07447161379190617, 0.0548632457416356, 0.13712239293515768, 0.25900842697561527, 0.21815728515369837, 0.2411649883577914, 0.13774534635590316, 0.09658504705229973, 0.09959230540533967, 0.11087291026543124, 0.010758408482319955, -0.0317571510476867, 0.024969815413140625, 0.0059221101563641226, 0.010790110255067367, -0.0009636649102431111, 0.0007584491095703803, -0.004357236547171393, -0.006624408743372198, -0.009588819287143238, 0.012450935713001076, 0.003163177568257748, -0.009684213146518279, -0.00270305315982871, 0.015524821944935008, 0.021357423150848983, 0.008584259625464552, -0.005077846085296795, 0.0027304661623272163, -1.0789807004948011e-05, -0.021144902682818243, 0.004245570073038588, 0.008992156021280163, -0.003728556839387206, -0.02401841517845703, 0.006571817084961154, -0.004641546483075569, -0.010195195665894661, -0.03609816548339228, -0.04243667445549791, -0.005596013734391125, -0.013659947260793955, 0.0030592256443283637, -0.013100884995515772, -0.0028605347711229937], [-0.02337693343317135, 0.011313516617567961, 0.016007500980737426, 0.006583141308774391, -0.0017247002455686785, 0.007090592722694889, 0.006183714617575475, -0.0014170387881470743, 0.008836776908733765, 0.00625182577601308, 0.009328801070201908, 0.004571870011848157, -0.0013565137291385288, 0.005103084330335855, 0.0006485456050550728, 0.007420161818370101, 0.006243262518071356, -0.004784711517691716, -0.008349167343625442, 0.0026262573077775416, 0.005256371121371745, 0.0035036269069159687, 0.0011091546724054475, 0.009250298291850426, -0.01589419153734964, -0.0006090677529880363, -0.0015602870311384742, -0.012080644232886519, 9.356236410944879e-05, -9.83536241726843e-05, -0.009467153498619518, -0.006533724629370106, -0.009591828918564426, -0.0031076687684178255, -0.01077650893517901, -0.008156203211585224, -0.004470669404153221, 0.010198148404512372, 0.0033069934801353913, 0.004620242436456059, 0.00030876404118929335, 0.010841760602407234, -0.01508032427316872, -0.03427131764841171, -0.012498511374410388, -0.004544380077111814, -0.003884571189092344, -0.0006144088207274597, 0.016280309885565208, 0.003411970871817404, -0.00015243420704653138, 0.0047023724852013225, -0.004378245604417563, -0.000884080658180446, -0.009810461915112659, -0.006727287449878082, -0.0034460146378208537, 0.01104651386338884, -0.0049439076860647, 0.01098292990775517, 0.005319651702559507, -0.002423598779043621, 0.0022686494843348146, 0.00607147820584196, -0.0011036086637814264, 0.009104038282438304, 0.02844394632793178, 0.03448486614607389, -0.0012274957300539358, -0.024296310900420816, -0.012791361083846443, -0.0075999079238534845, 0.0049149171130270725, 0.03967854162486679, 0.06831321205833868, 0.06417915679186437, 0.026790925469721512, 0.025237624038511354, -0.0003655504257163544, -0.006550122718559923, -0.0029190606475496803, 0.0014619845689139207, -0.00974153483375683, 0.0006861849806353395, -0.0017829654723505275, 0.00811148222639643, -0.006983289251233865, 0.005160946760642812, -0.006851223264359, -0.0014167463133299193, -0.013914536257562794, -0.009724555385708525, 0.04243694860289577, 0.13898451611940718, 0.2591902558607855, 0.2066041376558271, 0.09919767718826143, 0.05797066853711195, 0.11785070599500226, 0.0392610070206766, 0.10128568245965865, 0.21580773427478872, 0.23563357617743697, 0.156364805136249, 0.19040607926781672, 0.10633837902656726, -0.00041363529557108684, -0.026598288301171294, -0.04052618651759586, 0.01754445324829299, -0.011520797959182125, -0.009539651788833274, 0.009219830975418779, -0.0023155337233792656, -0.004260380922381166, -0.003891371740896217, 0.03311774399272787, 0.024604368705046, 0.0536385985641899, 0.07761906326020993, 0.07944960137401966, 0.10195231459244286, 0.22803287329564761, 0.3510206705851389, 0.2843356676107283, 0.17133438324169153, 0.24041380837035142, 0.2031302460583817, 0.23684636142638993, 0.2073300668908724, 0.2253890417754047, 0.01601050200062212, -0.04275891264471895, 0.08957257260758611, 0.07469186199690273, 0.0991733512471912, 0.12110333084108145, 0.04333666216664464, 0.003063747792282089, -0.00460627556142847, 0.0007699103566195524, -0.00788371754987244, -0.004112945545576387, 0.022717869299120192, 0.051591336675954995, 0.00040645228580794737, 0.01300552509410389, -0.02294434915014672, -0.1499106553176275, -0.06309103169801195, 0.07833392670722562, 0.17625610874489536, 0.1807859194400998, -0.1819133292132709, 0.07761775103477261, -0.018170065908805957, 0.3675358143424197, 0.41097758488112957, 0.20546590510067278, 0.4184340375281851, 0.1217364454312559, -0.05877514489099755, 0.09538404649092751, 0.15861613351532666, 0.18632747459299612, 0.07499200170458242, 0.008524617234842794, 0.013574426935568257, 0.0018932075065105282, -0.0005639578208736743, 0.02000338840785972, 0.07345562351462964, 0.168410890626033, 0.29654589987688074, 0.0851249505182704, -0.22610189660308727, -0.23075845321842214, -0.017611427072985287, -0.03924284509286561, 0.027745910691727545, 0.13519481095049396, 0.008467042704199451, 0.011447184320169269, 0.26660949031297376, -0.10343430316244882, 0.034990833255676666, 0.045434018251025755, 0.33341002330009767, 0.10652754905484242, -0.13055206032425534, 0.2238192872154871, 0.380492161630982, 0.35734276909881846, 0.12387637524752265, 0.05359129648668007, 0.014565448906634611, 0.008334331595108347, 0.013928382874957061, 0.020452512941031106, 0.06274673462420499, 0.17792781785430659, 0.32363805659827927, 0.02059766776726182, -0.11904219918229418, -0.18262077990260261, -0.02340655838001698, 0.14348392975686755, -0.09918056981358958, -0.07170669809305309, 0.11687773721663704, 0.08681299750450859, 0.1488691265103483, -0.17265261346688485, 0.07007068845355792, -0.05401581162642431, 0.14356440152199393, -0.10281794693127347, -0.11966890243119446, 0.11584525962380743, 0.2967727123289864, 0.2652446370824169, 0.10101334239790224, 0.07068910769540623, -0.01610888880485642, 0.006290346307077375, -0.014098518725252219, -0.016699475789294312, 0.04643193413755597, 0.05022249068582908, 0.1337670156493909, -0.2540334105829276, -0.07024042887341597, -0.10408541656971308, 0.13941079289350405, 0.017887388883463303, -0.359032495885381, -0.28475326188028705, 0.16230214472507404, -0.13965736112395677, 0.01015780673909574, 0.09464866811851413, 0.1510713655300857, 0.24717656849403252, 0.15427886099831228, 0.1998717477529095, 0.10905378185070803, 0.21744451970871845, 0.1279359563441965, 0.24457432673174395, 0.14163043110401471, 0.06687546863047056, 0.017311650524208338, 0.0016936130233296388, -0.02332314050479458, 0.00437219996053071, -0.045959492736686244, 0.06044031093631496, -0.07473737343130024, -0.07413345783752572, 0.008413788310954101, 0.04272258851399353, 0.20389611897301946, -0.24621100886832548, -0.40377771414201746, -0.14535054734663186, -0.007129016132265456, 0.10238280840328179, 0.05250979704336778, 0.014049329814635627, 0.01029257731453019, 0.04311919809795492, 0.4280182026731409, 0.5273755020417144, 0.4354644071616852, 0.3174613184415132, 0.2881795245179, 0.16505130527530132, 0.18186813578107258, 0.07398701474415312, -0.026444284905852367, -0.005230742204438421, -0.02155100183179799, -0.059038057504740525, 0.050888943628482806, 0.05412197906486256, -0.14553581144775565, -0.0351688729070058, -0.01693399892951092, -0.04060734629381884, -0.0017648432427864924, -0.15295654392647973, -0.37968623510445615, -0.35636318833056696, -0.38886041277887945, -0.47017951973307415, -0.22485541529719041, -0.11807162187531721, -0.02360036551058458, 0.016247356004686138, 0.21807404580895173, 0.7581099914024659, 0.3858723126745566, 0.46558388918549953, 0.3346325716858791, 0.19430958891882533, 0.24481701382925383, 0.09137484934719686, -0.009802180775189379, 0.0017922665373097206, -0.009347376668553217, -0.05550979293959532, -0.015938197254031686, -0.03944211899064642, -0.017156600923147147, -0.09802994479863086, -0.302770449671425, 0.06206133135253116, 0.007651639340163054, -0.0017676814451589107, 0.0790163920017791, -0.1720461068791999, -0.37900781525710553, -0.16821690374181025, -0.2813712834748238, 0.032170910655256305, -0.15835808735992746, -0.2833757463606467, -0.1538509339658687, 0.12263976466913497, 0.33597860192912105, 0.406316276918555, 0.42347561940243084, 0.3079950117833624, 0.20802664251684105, 0.06622962027473636, 0.003743667502596908, 0.0042226884118869495, -0.017858523470418906, -0.05390336657974464, -0.1176635484005708, -0.23457100849271117, -0.04566597286623776, -0.08270970583139974, -0.04944821647403444, -0.08577384003243481, -0.025406352885742667, 0.24962128302777242, 0.2241335560120339, 0.22742290254366648, 0.015742963853361328, 0.09600565668265128, -0.21429671114724355, -0.11270680467286204, -0.2673942642350316, -0.27462967348169076, -0.20192840143139926, 0.39718049092735996, 0.3378173937580615, 0.05869164471888492, 0.17310825668313323, 0.027932618986722238, -0.015154633593953862, 0.01170946558430595, -0.03096745182463888, -0.0017842950366808014, -0.019376983370275352, -0.030211273201755866, -0.11857959654709445, -0.22467154125262906, -0.026342372058437886, 0.12326000622038505, 0.20395158469980423, 0.38037065859077324, 0.16260257541409887, 0.19821809723592151, 0.251559713057908, 0.39179456186549166, 0.14450787381150532, -0.05196818865555544, -0.06282686866016186, -0.16400269657470967, -0.26680002376450085, -0.1681561019327963, -0.10929445680088053, 0.5042887114300173, 0.26404908392487286, 0.1052644928962363, -0.09554340491819806, -0.24510192474359063, -0.143607676202914, -0.10101657551118683, -0.05025777612403587, -0.004856962931796738, -0.019717279105368836, -0.01786229487488647, -0.058030916457890803, 0.048262196033045913, 0.13402666672891375, 0.03571228630319603, 0.25710936306541904, 0.23096785903195027, 0.1966965559841885, 0.08231829543404254, -0.11280061691603324, 0.17225124808729278, 0.06714037240168826, 0.03690527377603779, 0.01707729040684196, -0.2206782899775986, -0.19623793574197096, -0.274678761377714, 0.10585650372055698, 0.3600162267329696, 0.24745056585692948, -0.10472608846847602, -0.27495367584156094, -0.2510258703826271, -0.26542496139631555, -0.14182555301280014, -0.009164101137909386, 0.017063417876752963, 0.008824551776134953, -0.0044275704846176, -0.012886728895645832, 0.10263423277999716, 0.2970338949104147, 0.15788200997037777, 0.14514282180236376, 0.11113543149582053, 0.05606920365480508, -0.11116549342487404, 0.04149033137207276, 0.28730707744800743, -0.013648205449965495, 0.03827781021644768, 0.013061169351438296, -0.20327592890572085, -0.14985804897281235, -0.01641798632822914, 0.3238521840240184, 0.2741757658315011, 0.25650462368438787, 0.06665452927240693, -0.11233193960697882, -0.2849252253212989, -0.29323520811069637, -0.14017852896882543, 0.004054384633133696, -0.009916664061628146, 0.011877461535878302, 0.010852454195846014, 0.010771612873867967, 0.03146572323413126, 0.256945967682307, 0.15538649534394314, -0.004875381077202222, 0.09822545078162714, 0.2911097856428108, -0.2484611515209093, -0.19612770789092066, 0.2636889335112753, 0.16781961249790794, -0.30774569633138077, -0.03662526913658128, -0.29773271485335867, -0.14010093117681077, 0.21813905885913829, 0.46879272115355913, 0.2103688232653191, 0.07089611857546115, 0.06283099858871721, -0.1099495348876393, -0.23573957986720837, -0.22891041240417434, -0.14170359125123183, 0.0006132466648328389, -0.0033825069166229437, -0.006078042854434627, 0.005817617304890364, 0.06415988183326722, 0.12692441054606696, 0.2010843353116915, 0.21509668624374786, 0.3650384445639447, 0.5119360821004029, 0.3389708684529569, -0.24599871333000312, 0.10085263051384184, -0.22531612615704075, 0.17103411978867838, -0.06293402380164992, -0.5297392176096392, -0.039481919557216034, 0.049325833868431236, 0.26603326518288034, 0.2284038430494344, -0.0384170616385148, 0.11877487512439773, 0.1311089943976419, -0.009691371682168307, -0.21419263362107907, -0.15320170192313431, -0.08812524274850773, -0.01302688927147122, 0.0020768653330216474, -0.0006037371176232418, 0.015569125945188408, 0.09387071492323361, 0.16797668769924304, 0.27950007378159447, 0.32120885071148614, 0.44332331209191483, 0.5936432979568704, 0.29783049775015336, -0.15826697822102048, -0.33954115766812676, -0.26534580289207355, -0.008741923555090833, -0.011910242185326983, -0.24468931905097396, 0.24568066909702252, 0.28573758617950024, 0.24472611073217873, 0.028725004570723862, 0.02467288100399911, 0.20609963749760768, 0.2677303046476536, 0.045651431060469774, -0.2510041689747287, -0.12332701255435247, -0.042198275208980576, -0.0058386173122858, -0.0004501563058962966, -0.014163131330332422, 0.0317243077610711, 0.10205847968037227, 0.138370650202728, 0.34782886840933486, 0.4144498733017605, 0.4304297649989514, 0.5134958384737628, 0.3854269220889453, 0.12493381525583551, -0.3600612681773553, -0.24069417847892996, 0.024619493363288277, 0.24262886522152333, 0.07799897965859597, 0.22077780923548923, 0.3491748553290812, 0.3160144767052007, -0.005503947685218761, 0.10777834525374215, 0.15319071104904078, 0.2127093288445561, -0.06689415079118706, -0.15152276238010906, -0.0938481507567325, -0.044828910273584294, -0.009465878390237386, 0.007645330332063825, -0.0019068378058520262, 0.040267080340010974, 0.12702578241077284, 0.22823878058050576, 0.5148955460498625, 0.635534546393725, 0.4064569965153217, 0.06677138287750611, 0.34460540913732174, 0.09624119415009956, -0.44863209322889985, -0.37156847889250216, -0.17493801120600935, -0.07298233910988823, 0.3482993922635821, 0.3906995484531287, 0.1586488380862533, 0.25652443858769974, 0.12002457567956425, 0.20502473859644427, 0.13720394920425125, 0.3258259209769091, 0.11243336757279751, -0.10646353150172112, -0.0707546587138721, -0.007655756444438012, 0.009835286572666743, 0.0003472147253229866, -0.0013686233708516992, 0.03294065598050656, 0.10311909299897527, 0.2499083547284238, 0.47907867217137895, 0.4903945022021319, 0.2919848256074892, -0.19561570743471143, -0.2241721951722454, -0.24394888078126792, -0.14517953388030577, -0.37585000115816075, -0.15142711737954, -0.07907262995399583, 0.33782626842510866, -0.00044461709496879375, 0.240412113768864, 0.2349622502500851, 0.21019636556213803, -0.0679215013386274, 0.0556300302763345, 0.25367410372711463, -0.003208082321372666, -0.0736282110648575, -0.09971088645586232, -0.015186794585057587, 0.00932304487769145, 0.002503239882258527, 0.006042154244070305, 0.020947835193443474, 0.05978515146646922, 0.18932911690280543, 0.27791387325939726, 0.2905483906921114, 0.18315918258622207, -0.24447991842347175, -0.15287111731773995, -0.009461162984303093, 0.256045754421643, -0.018124849041237057, 0.0024392636595524896, -0.07051706483014604, 0.01754896356956598, -0.12053354287833674, 0.06613523370952193, 0.005055712261206113, 0.24079381220535181, 0.008797120188596068, 0.10729124380040496, 0.19891144410372602, -0.03889234902694686, 0.004562141514788528, -0.023401242538099266, -0.0238464033772783, -0.006843967854555159, 0.0019278633067271362, 0.0007954679896767491, 0.03924270670318848, 0.13752183833230197, 0.23004461339459456, 0.21760500549453773, 0.026138313117146414, -0.09271906965013144, 0.10303336988223695, 0.009260949854485891, 0.08860604312230776, 0.25662603635179515, -0.24764087615770705, 0.15197132593600426, 0.048686121174331, -0.035498075486217064, -0.07989869481056407, 0.0023610811061751174, 0.1937778509918187, 0.0022578725356292803, 0.10674881796204642, 0.09187642728017832, 0.05747506582351724, 0.00968362286925592, 0.038295879721214024, 0.003823114931159457, -0.002764425357849188, -0.0019003138655599202, -0.003510050751505002, -0.004264205873391229, 0.009843184203881208, 0.10422950752477085, 0.08901420042518682, 0.012683208869418485, 0.004410900232696598, 0.12745921410681763, 0.23926730831668108, 0.2641781148873593, 0.30170649824426854, 0.3310336320374705, 0.3513917025053725, 0.4316887771861906, 0.3814839107935617, 0.04426812127906533, 0.22662999330970265, 0.22167586293387417, -0.0007067887437346819, -0.05000205383827778, 0.13149618541009228, 0.040458945351860766, 0.07209167924914658, 0.047130388727204285, 0.01264696105938482, -0.011550044384200849, -0.011456805526611472, -0.004068271920020669, 0.004743028698668876, 0.003132718302739437, 0.02439892726827001, -0.0141462540368838, -0.0730270992745618, -0.07008339778121807, 0.0014447602197397592, 0.06291180449296503, 0.12139864616005608, 0.17525644696807113, 0.3081408612019082, 0.13525792707894835, 0.1800806954329361, 0.49756565574282, 0.1844939020483762, 0.24455494525039936, 0.16816069717560334, 0.013821057308548943, 0.04492230133029851, 0.14042138784509578, 0.10233255315717349, 0.03834843137677503, 0.08286840587412378, 0.11704100751587415, 0.044016146942779916, 0.006928325068831036, -0.005940660957652719, 0.012943987109314214, -0.008963017858436766, -0.005239845224282666, -0.006836542983354537, 0.005240350616852274, 0.002923344954281016, -0.003380813195413636, -0.0967538805228109, -0.11242115776560103, -0.13985287717650108, -0.16231301713219576, -0.21462922445976398, -0.07655270671205831, -0.055165163223211654, 0.04807111959157175, -0.06957156404826478, -0.05674590938081714, -0.07212954420367, -0.05891533961171364, -0.16225715617218298, -0.11210020701440584, -0.055994009205056566, -0.09393546204064894, -0.0211625688229095, 0.0052894559327238974, -0.0015893326784651048, 0.011495696266850519, 0.001684687956240243, -0.005850639425349202, -0.0019168816756441013, 0.017949779816372396, -6.778145179898038e-05, 0.003614972118588054, -0.007008220786903761, -0.009109787054241241, 0.000436414962494669, -0.012380969355399899, 0.008573775996041824, -0.008350854150106609, -0.01867564661283413, -0.01837291540716662, -0.040852449245764366, -0.03164524192536556, -0.052809973386824714, -0.030488355809743694, -0.050842775479768954, -0.04192420820243982, -0.05088260196387434, -0.03255320637150836, -0.026010035771635593, -0.0747462783313416, -0.04506229254659134, -0.005902451887263694, -0.0012798284358797303, 0.002988149120714972, -0.012001002473952653, 0.005348591330206045], [-0.0005498155995910327, -0.008376444022122918, -0.004105487996803327, -0.0036976547546891747, -0.005725901413182354, -0.007424542186654615, -0.012867611268845244, 0.009440396294189893, -0.0035188613010105085, 0.004692879718114961, -0.0019117659551182217, -0.004794974466935746, 0.012529693057214004, -0.02527159896050208, 0.017489778265252543, -0.00679784745800994, -0.004527112074972222, -0.0022974214745462565, -0.002006128732677367, -0.011696575424043293, -0.007787349030533992, -0.004522195282860352, 0.012247008410233046, 0.011081169123121773, 0.019675313105970708, -0.007324841855101645, 0.008440514845952955, 0.000636182582435831, 0.003736739001354693, 0.005251034101698784, -0.0021003685251042284, -0.008941001079359695, -0.00812499311315038, -0.005742160072229237, -0.007087736454427949, -0.018356270354448093, -0.05011631757872854, -0.02888917353250151, -0.04148468452101526, -0.05353869732455916, -0.052007634803064244, -0.03510750069804622, -0.006143598569242128, -0.008210809863493672, -0.042267110481157395, -0.041437510132801364, -0.04527143209170157, -0.0433419885451952, -0.01847842031673876, -0.039930790593330615, -0.021379651339950338, 0.006584714802620827, -0.005327160735167173, 0.005472553747541439, 0.003917937954790776, 0.00804656268011992, 0.003417811768405044, -0.004208427972268568, 0.004382078895413019, -0.0034592637054869663, 0.0029149778866271537, 0.007575341104607852, -0.01366661076083703, -0.07021354484315591, -0.11292325090656676, -0.08531402319737627, -0.16378908241986054, -0.09242776516842316, -0.16935808876932062, -0.22856172080169676, -0.11578558001924141, -0.0369305243902943, 0.02124192702267997, 0.05176606180843538, 0.016099185169911226, -0.12194659181061152, -0.1000968009140376, -0.13244423681010783, -0.09126676052041159, -0.03360567498775301, 0.003712497911936058, 0.004775290063539959, -0.008753929057487049, -0.00817542187207035, -0.016905232250624312, -0.004679681091290255, 0.011069778465262803, 0.014297511117455764, -0.007052005238363464, -0.0396904598355561, -0.06861063676032228, -0.11682350135133694, -0.12015895267209638, 0.030548604449912517, 0.04382913017501487, -0.05696032147861314, -0.0717250802978994, -0.16524434906032887, -0.2588136267747444, 0.0918258015363068, -0.040253819625868534, -0.16758645697585156, 0.00974312896483871, 0.09253177242692318, -0.11963918613492376, 0.05374493385094754, 0.01619725741404507, -0.029205541130088757, -0.03792016104777801, 0.03342584186705493, 0.00020290378755598385, 0.005915771417379125, 0.0030253257764697294, 0.005126726715201704, -0.0013964418881090464, 0.007973614489280714, -0.0449522472843531, -0.07928187489556557, 0.014804498331324975, 0.1481681551212491, -0.03696774466169041, 0.17808446750437296, 0.11562857883417041, 0.16022986014703666, -0.028398070586504433, -0.269858414882999, 0.12940511550199021, -0.03190948779470975, 0.08677215365036721, -0.09535524835735804, 0.12240485625530359, 0.11200588522341884, -0.0506830155067452, 0.03211390735452849, -0.08630545725280203, 0.07169370028605687, 0.16250573290097758, 0.09270810475916684, 0.026459428502423016, -0.0007259337314869439, 0.0032356526281141548, 0.0075901182578831895, -0.010220221766818553, -0.01082419201035843, -0.12311683966877421, -0.004021235991196913, -0.06034274081173727, 0.01951792357523571, 0.09702321557051874, 0.15722698983125027, 0.07859994430853529, 0.2669986109346055, 0.027691715665225474, -0.07657239290724602, -0.2541003945083003, -0.28450319100873694, 0.0029263859257568155, 0.09545333589122182, 0.004127430101658179, -0.03474212542212228, 0.17704476521509382, 0.19591645907923858, 0.08705525861868846, 0.09581556770031363, 0.12251371872635194, 0.11935446611716444, 0.019170691484830738, 0.005318790165289636, 0.0032331614334829757, -0.0015502765582193197, 0.00171754083608181, -0.062356208890313215, -0.09719728805174667, 0.04906190041696525, -0.11962732933679952, -0.008746919418555436, -0.10345526475781487, -0.09533322409666661, -0.05704806096075049, 0.14032560249234485, -0.025390191643184852, -0.24530654518598005, 0.13615598213641417, 0.1717175071049641, 0.02159150208508631, 0.360356426093466, -0.0837328599254465, 0.24515795585448988, 0.1535617110735118, 0.02035877693182204, 0.13878295394709844, 0.1946940206236373, 0.2907316467272784, 0.2798074905166359, 0.0716312910092853, 0.007696863766238218, -0.010553974334614871, -0.0025986692400825654, 0.01989598074148958, 0.01181030946235148, -0.04086794718580759, 0.07943887920131339, 0.06067111650686597, 0.038146707517972236, 0.3529461963082505, 0.14267345064333192, 0.15593779032420976, 0.18356589788888059, -0.060480154251897705, 0.028966224920038842, 0.05689040610804247, 0.08454638211358213, 0.4155660228543298, 0.08811777247198385, 0.04181747954203401, 0.30922133738216573, 0.2845353085580468, 0.16215823833434734, 0.17318534401818536, 0.0892559165734607, 0.19091570850645276, 0.3331622292329145, 0.06621905039199119, 0.00013691357487476445, -0.007683806117421743, -0.0078089339125838, 0.008837973109178344, 0.04869614498850121, -0.1289665720153245, -0.02466364008543148, 0.06653093881416718, 0.1792735682568169, 0.2174390396981165, 0.2285291980020876, 0.00966250889829217, 0.3256082013017237, -0.08211251112592745, -0.2512843561429645, -0.12702002224788148, -0.41166663121270625, -0.21883318750392897, -0.10535998611705728, 0.27068253842865897, 0.4622972874210792, 0.10213755599803273, -0.12317455760564341, 0.08552828515717958, 0.20427867248929749, 0.3995221428841213, 0.25797007072799, 0.06689713655041184, 0.00012993987628456645, -0.0037971993127122994, 0.00045461969239824195, 0.006509956000200165, -0.03537123061696108, -0.1654948815611525, 0.05065600630109559, -0.0070453978406808905, 0.09062915822303863, 0.2816476548439522, 0.19632450611307237, 0.15501858228316046, 0.32735969557145295, -0.14315248437153968, -0.30262579750158414, -0.5673914571639592, -0.5118340488576204, -0.1675239234892349, 0.4713284364791161, 0.2934856592454777, 0.16013754310232103, -0.06162747090390052, 0.09737694307672774, 0.2776003823063788, -0.03968369307899959, 0.2887481607062345, 0.3387252586639165, 0.1065253384459921, -0.016434244890990022, -0.009505357216383847, -0.015121556197022561, -0.004667218092764627, -0.04863697646396307, 0.08085714771838699, 0.20445874547834578, 0.23132418094983495, 0.13935995033174461, 0.15294039985837013, 0.031025626828674064, 0.08557886471778499, -0.0038617301907748793, -0.1065944316997622, -0.6764478202522771, -0.573709720818345, 0.2169364004676933, 0.3730746843165622, 0.41317811655647907, 0.18732039477812695, 0.19750173499232246, -0.06254922076453732, 0.19656243871223866, 0.15104377268459582, -0.08331489632484325, 0.15838088302216277, 0.36238473393649595, 0.15808526934403408, 0.011174244534611103, -0.008189647257810686, -0.011193840199921423, -0.018185961356527044, -0.10996103679078935, 0.1015141922590024, 0.28326336465837804, 0.23068784136441345, -0.07469517031325844, -0.36414918659675655, -0.4069870158305097, -0.3650149892731777, -0.29171874956529636, -0.2992627735646513, -0.34975540756375345, 0.1343426848040118, 0.5362955014360998, 0.5988434773773118, 0.43636342324345223, -0.018772041604430082, 0.01476573303233315, -0.3131848241185672, -0.14373486040566907, -0.04902560201964676, -0.1767013298653765, 0.15068658494613213, 0.337408774091678, 0.1470047814357116, 0.019032187812049132, -0.009026500147067639, 0.01432009137886843, -0.012724451025056645, -0.0628885510744015, -0.049817266118726354, 0.004253374318036299, -0.10934665705380908, -0.2910992265014757, -0.13459961934331927, -0.30678455490910544, -0.1645558486588999, -0.2191605020400019, -0.08454568278010931, 0.18346785964701645, 0.3794505289908382, 0.44672222130912015, -0.06632608849396032, -0.059244808757369476, 0.06696798082275776, 0.2674161201160898, 0.06692792090827587, -0.27818124443671743, -0.23249253531035782, -0.4405987412568263, -0.15502374015296097, 0.2583393454254941, 0.22589681803960962, 0.0034137585274702253, 0.0032328197726355736, 0.018046842904954518, -0.004231239046605583, -0.07225382412793634, -0.16286924163274713, -0.20520417192203957, -0.4775674713495639, -0.22155842795338543, 0.21013588587589996, -0.11531232964637823, -0.20130149795414123, 0.20410061856969983, 0.05325491628356841, 0.49848743670204776, 0.3955857279191745, 0.06113481099958408, 0.036993665164756336, 0.2731981320027403, 0.23906509688087368, 0.0827909624771508, 0.13578508973831074, -0.05072388614933009, -0.03707612572289938, -0.3617097468217554, -0.17377007839349692, 0.1800546630024622, 0.2154218740874555, 0.0876780291401901, -0.004121012179238099, -0.019857851100552982, 0.010925248319466755, -0.048777206466850014, 0.04749291546486627, -0.4995316720775543, -0.5816786992168849, -0.04766971509317459, -0.20809878533625356, -0.3556893430952996, -0.14302706169728915, -0.14611533964589465, 0.15083571845387841, 0.4925400726262141, 0.22934698928627473, 0.20275375576433938, 0.1874981391885425, 0.14627624051171215, 0.3199605804669425, 0.1095294328879957, 0.07883274342396883, 0.009405236650881135, 0.2255129321475881, -0.0015809149178183583, 0.07804984600091484, 0.08076579252415779, 0.14382611742266724, 0.017231704657307178, 0.021090036642357354, 0.00568279851881617, -0.017960127510656232, 0.07351090177080813, 0.09805622417068315, -0.38920730899159367, -0.5223993271921009, -0.7805320284435767, -0.34332668913650594, 0.0673984739887151, 0.05636536386020131, -0.02168656804457154, 0.3171517707194674, 0.6221695623520729, 0.257330613177365, 0.42078291314195915, 0.05892976134043779, -0.04399922600617691, 0.12013658091461728, 0.0810436122387175, -0.15771441776247103, -0.133989054912626, -0.023301020471830754, 0.027011591201206688, 0.10797672966246924, 0.07900198963496978, 0.1364135300015272, -0.0016278707575136362, -0.009206193455551943, 0.0021063165130125808, 0.009426760342598964, 0.12444869245834204, 0.16656066893953855, -0.3155735899170999, -0.5326230664807506, -0.6734674968851152, -0.5370968002796803, -0.3007953411329542, -0.11535589818930125, -0.29242770153104136, 0.4450758078750566, 0.3079288775518107, 0.5028511015112731, 0.4329080322568785, 0.334084454197931, 0.4975896244768886, 0.2520141440339293, -0.03061167736483329, -0.14998271067176222, -0.0253734019916711, 0.12389387952156379, 0.04608794252480515, 0.07034842272347434, 0.26003528927566366, 0.13787875761806745, 0.023600074341649697, -0.00414772750797056, -0.00874398873446431, -0.012503178449268725, 0.13217019275300268, 0.1621629871205291, -0.16043924189626116, 0.15899008217379398, -0.4164004203942611, -0.2742425337018268, -0.458637581213549, -0.5903911387854189, -0.2873569948909328, -0.06359227112753649, 0.05496635343442976, 0.4310560321341238, 0.7635239090890823, 0.29705046360418624, 0.03460617247917775, 0.083443842866862, -0.1968550653485445, -0.1383288033406504, 0.04446232504945972, -0.22132499576136072, -0.24123328952305614, 0.1553606742751261, 0.2865006751129658, 0.09919810699755416, -0.00460668167195282, -0.0048955935698262185, -0.00454562609305202, -0.0038211954835077025, 0.10830990230852598, 0.1794321497068317, -0.01761430858461323, 0.23515848594649447, -0.20273765404396743, -0.18648959069756338, -0.35905982725277236, -0.29690997972676925, -0.4794796732395864, -0.7259338180939511, -0.3665866136581102, 0.1208768361805245, 0.24847614761273695, 0.0553166300343074, 0.03313439419942759, -0.11814523401254419, -0.02404786187740575, 0.0639854520645922, 0.006553789071949625, -0.019346931570015387, 0.16407888667746678, 0.2976913985628278, 0.1907269084851054, 0.0315438910725726, 0.016797127023181452, 0.007567710362160021, -0.006790078698915863, 0.041774718936377304, 0.12384837756434047, 0.16738025577889726, -0.13764566755749547, 0.21157168985622013, 0.07940638148472393, -0.047120030938338595, 0.09083965175262304, -0.060531890052064656, -0.29371781317739004, -0.9048475158319556, -0.635923127450237, -0.5970771502553011, -0.23232542921944344, -0.0157961923735336, 0.0661109434257199, -0.08090555723981034, 0.09817127641591812, 0.005464455819926811, -0.050715814857207275, 0.12646029969866499, 0.2469687313420934, 0.11414432441043698, 0.17600461591549735, 0.053139517810702856, 0.0013141212019622782, 0.011879190724078227, -0.028955751971419124, 0.03708237737892218, 0.17512509132949744, 0.16682764351924081, 0.19850614831518554, 0.4591128943799025, 0.24227861752773888, 0.3357170869782276, -0.04693802617909883, 0.14571191234488115, 0.2789832267697237, -0.14143058257385802, -0.32115330459905855, -0.5409686261265847, -0.15904614612547052, 0.1656827326279762, 0.26761684454402174, 0.0019654434072655896, 0.2062140520261395, -0.10754799100440189, 0.08454285274648272, 0.20178460787269634, 0.24368414787950984, 0.10860120319691807, 0.06166323067151534, 0.01665413262557351, -0.00818757124321809, 0.0014647544580957627, 0.0034261594821016162, 0.03214955961716395, 0.06793596433636512, 0.27318588061551385, 0.28658209481873026, 0.2996320401197216, 0.09075863177912548, 0.11998567942818453, 0.23161418817448085, 0.1500708216744165, 0.13739385064732001, -0.08535613701043582, -0.07895648598407169, -0.2405888321192956, -0.46171823623993713, -0.10090789178522105, 0.14725481869044693, 0.04845653413358967, 0.08667161199087924, 0.0960907030042866, 0.17561784071937286, -0.022298339958092425, 0.2635175347479002, 0.17029439674453475, 0.05237788261749523, -0.036626246029499904, 0.015084931659905544, -0.01238923530343499, -0.0044408792946069985, 0.0043785804157280665, 0.04396012069620243, 0.30382206863248895, 0.3230064179664408, 0.22285341175975432, -0.038721278116643464, 0.05765864518544732, 0.08511856114468694, -0.04499808454887211, -0.15681818181908758, -0.1999163943036614, -0.3078528796409462, -0.28496132314002537, -0.5313644431562689, -0.19846610134188866, 0.01119502716391599, 0.2192387370352832, 0.23612743975799325, 0.034687786520826734, -0.23289601287675862, 0.01728118960994714, 0.10389346007251238, 0.11758137524516007, 0.04885295160884563, -0.011195041496628767, -0.00043123156440378425, 0.0004910355540124501, -0.007044705114196011, 0.005376864602583375, 0.02122342834745588, 0.17603393038747805, 0.17630620765108418, 0.1663733212360342, 0.19182340194673442, 0.2760104367049834, -0.0067977556818085046, -0.009387603144877481, -0.34918256487719307, -0.17048413375529223, -0.3390625817358372, -0.3951542168895706, -0.21402824319495578, 0.05373243487389771, -0.08201813516013103, -0.013707908038437073, 0.16439384344791586, 0.06585387307207438, 0.016981283070524253, 0.05751810058003872, 0.14216511047656374, 0.009962174295423898, 0.04824935578345468, -0.009056110541902888, 0.0056801037503004725, 0.004192627407764183, -0.003342318997423506, 0.006697965199196522, -0.005221130839542544, 0.0012282838218087492, -0.02608909260357587, -0.13058638989060933, -0.15509660182802334, 0.08722777509888152, 0.08041328606906847, -0.10975768517434284, -0.10444426062795692, -0.13534720737381997, -0.27008784896457483, -0.45590322506071534, -0.41425637766098605, -0.15365748135181756, 0.07943382001433083, 0.2274913881642232, 0.25628806466207565, 0.14961167269766343, 0.09271242311529372, 0.06570897223259527, 0.09028854381341204, 0.06095564452118033, 0.0008888973447668769, 0.015893537840356894, 0.010045910033467994, 0.005190758258015468, 0.00020322728703841544, 0.0106582252856121, 0.009300947582930723, 0.005114972476031282, -0.067801335817695, -0.10267756009110446, -0.18014479965921926, -0.09536073508876652, -0.011013493078677536, 0.038862309422950755, 0.10186522513307089, 0.09681590483627103, 0.000555479337768753, -0.07728473415324182, 0.13730248504563014, 0.17876217518980603, 0.19490214788117166, 0.1769160558867331, 0.10540138855650179, 0.02039530191659539, -0.06900011466071318, -0.0348816692741703, 0.050495672583022795, 0.0015474234692477275, 3.81836996080839e-05, -0.014844716142684114, 0.009725304689515728, 0.008918013434886223, -0.004972704246726504, 0.0020802692009202393, 0.0031043171316772144, -0.00660751869882267, -0.004111447239405208, -0.031263087078994736, -0.021669897216634974, 0.032168746919394496, 0.09445999997877882, 0.02768427383106511, 0.07319165335659483, 0.18068229723393364, 0.22148987590438568, 0.21012951777922442, 0.08326345565253508, 0.01624424270908479, -0.004391969180493913, -0.001480880811506585, 0.008927220189534396, 0.028391400142651166, -0.03402232621155866, -0.018590128239564338, 0.01259659781130477, 0.006308602547894059, 0.010116734941161382, 0.011243953479769081, 0.007228255762504884, 0.00712681226601843, -0.012360387339076332, 0.005008848869607869, 0.002674477701840838, -0.0027278807209933434, -0.008376947827279116, 0.011626518240277219, -0.01011791720272678, 0.0014985163939010937, 0.014907228106638453, 0.008788233988322418, 0.019015998628849697, 0.012894383962333946, 0.003847429257482573, 0.01764445030645538, 0.012635701729753816, -0.0005131411500424267, -0.008688090153847583, -0.01091039520094178, -0.014007083878293048, -0.006285001852635631, -0.035433409363542445, 0.001644544007293207, -0.0005148883270352752, -0.007841903255597492, -0.012932542619870927, 0.002463573923295037, 0.010360956281303482], [-0.008792464083109951, 0.003040334232973817, -0.009001725827489324, 0.004835911579127875, -0.0020141353105436006, -0.00793332796353424, -0.00022936522087407493, -0.012183267033082196, 0.00751818990919243, -0.010390514129983652, 0.004979729292814375, 0.007286324170970645, 0.002038672861773795, 0.005038540298694234, 0.0037636375869749875, -0.006173804086295361, 0.0029084886985661826, 0.004061800323288579, 0.00022371765946225608, -0.012707379257446907, -0.005138542895034767, 0.009060188271738061, -0.005987289738059003, -0.008936334624612302, 0.00041349602420682346, 0.0019162420763111606, -0.01009855535621414, -0.0015435856373454588, 0.0005995303439314881, 0.0009230452512457239, 0.005447569563330233, 0.0013148144273333856, 0.000986685417064275, -0.010035060775695978, -0.009746436188831505, -0.007979473479984893, 0.009500322882721075, -0.006117054011408367, -0.0026613208668956516, -0.002578152993556701, -0.007711954670313646, -0.011461218096674889, -0.03120524033767613, -0.06579509426601084, -0.019113721065373467, 0.013507683874260646, 0.009104481759927091, 0.0017889802798613384, -0.008606990548251295, -0.010498054729585642, -0.008842688853697961, -0.008394668499799564, 0.012787862849914657, 0.001397938233034212, 0.0008098289894636794, -0.00033156126521051286, 0.00904190947668564, -0.023498225401153844, -0.003103030849078303, -0.0018689513827562464, -0.009533786939442353, -0.0026300294737027076, 0.007550084836152149, 0.000623695328658579, 0.021030628371562433, 0.09473437128953774, 0.06345917843251055, 0.049486712091341215, 0.03062275880679238, 0.1536692865025948, 0.19333273108411866, -0.03085742021371749, -0.10935924821337836, -0.06092665676154474, 0.09141716322197324, 0.010132942571841405, -0.03162831315827566, -0.049773145925194426, -0.03281657210334445, -0.024234218898339314, -0.005288835548194721, 0.009190538975658052, 0.0021871500223846494, 0.005272910488171576, -0.010241341466155874, 0.01730908588035851, 0.005416461352931652, 0.0030896249280590667, 0.015145312513668543, -0.069947381423386, -0.05873825051970223, -0.03728498085499051, 0.06474598638752724, 0.27052657573829814, 0.388705739160866, 0.3764018810069009, 0.18328287723666878, 0.29023228760228037, 0.49584051815146196, 0.24669821962225097, 0.07678388048995582, 0.0628775683656262, 0.06789615542101399, -0.07094397695022853, -0.200449305853823, 0.06694455175962247, 0.04555418407165242, 0.003365311895764101, 0.01336712681658554, 0.004270542541269774, 0.008303410565444822, -0.0005302819096079848, -0.0028926274430587018, 0.008762637267368029, 0.0081422405495445, -0.02028133539425431, -0.07412247974039506, -0.2002642985576058, -0.08859421506004302, 0.053263799440610396, -0.08251104532906148, 0.10505017729633823, 0.319673173763032, 0.22145661823942625, 0.29099102429056, 0.0894043212211677, 0.36322567484726886, 0.10099518994178924, 0.4161100822626236, 0.5250054631947256, 0.3993306326348641, 0.17522808534299478, -0.037099609795861827, -0.05096079120312007, 0.03387244782869077, -0.01666419040667404, 0.07365507241350014, 0.015747789973689693, 0.003892404307701535, 0.007133628298204628, 0.0066268201593604635, -0.013506928648901698, -0.00728459990082433, -0.06990935211465259, -0.13325180581942733, -0.4031895840163028, -0.32305253205200024, -0.0315261558044919, 0.1142566740763013, 0.19592182871149727, 0.1873716214784014, 0.3591882161979241, 0.27916499775088766, -0.16415363741000652, 0.12267998941087468, -0.12758748788953075, 0.15374273074504302, 0.14285888191360882, 0.47731003807268535, -0.049384952076324436, 0.05777410859055172, 0.007591310761522763, -0.41486763941236326, -0.42381404497881303, -0.2194410907887905, 0.040888440731599855, 0.0031402279145984428, -0.0038963640422270975, -0.0125287310828766, -0.00016272436101581853, -0.004893983517714306, -0.13920054135087628, -0.21076727512464993, -0.21115243763430222, -0.07513096112222631, 0.32357183482836294, 0.17230984574689706, 0.2511996250091789, 0.0008566398252817326, 0.21548549242105766, 0.16344952630272777, -0.036560093591215016, 0.14897775701809957, 0.35940079803682035, 0.020771167512651054, 0.008361377863454436, -0.1490377619715763, 0.037106363701063995, -0.04348624352395983, 0.0029664405642841926, -0.39832024132908245, -0.43771644286783207, -0.24995930999348415, 0.12355508253274476, 0.006047783065448289, -0.005519393382955321, 0.01497976612225235, -0.0032468038633597864, 0.0904644660036229, -0.07034778243224077, -0.2261826402292463, -0.09763210396001759, 0.15548301309931936, -0.00818318674338853, 0.1694270319509095, 0.23118533557873677, -0.06995075162132225, 0.20214376334815035, 0.36057523160571414, 0.5376105116541993, -0.16255076621942866, 0.03877463830437833, -0.18284048846593015, -0.46836564241248946, 0.11154880121387573, -0.1860437499982647, -0.22193381443297736, 0.071913709533903, -0.01864008157767312, -0.05885096187011547, -0.03553357873154234, 0.09290604829422197, 0.03980970664070224, -0.00987097433218457, -0.005104209565459887, 0.013004814420545546, 0.071928730049384, 0.012816736986485939, -0.20540568706928203, -0.11847558664484176, 0.15251474846268107, 0.19344127597864155, 0.09652686153323266, -0.034860688251117135, 0.060089056106288244, 0.20483294962789222, 0.5211114700326652, 0.3161022702536813, -0.28484612393702463, -0.22076886767395884, 0.038121744931393774, -0.10568900336213834, -0.15578676945357292, 0.001823738759121961, 0.007716484019080187, -0.25340303891531113, -0.0016951775250038483, 0.27297943263023344, 0.1513236467059673, 0.09336415639262928, 0.014906354538406509, 0.0032844448744403284, -0.0031670721251179676, 0.03332790883642698, 0.09390834433381688, 0.08808351959427338, -0.17211677256298338, 0.0158900473652127, 0.0019945343922726532, 0.2406751776612758, 0.18455122416768538, 0.26911034792864685, 0.09461105377142716, 0.11372325401087753, 0.3915596349866415, -0.2982743647571859, -0.38647844546776977, -0.3232388081739945, -0.09991909112919105, -0.03677013570963756, -0.025681666794486933, -0.1203790797567306, 0.3374284823699162, 0.0030451837586208882, -0.19454419940699794, 0.1227360854475899, 0.09261081969980607, 0.13385711553423268, 0.021153257164402507, -0.008563194808468502, -0.009689021605138359, 0.009338232901834366, 0.0823320183029006, -0.03517186657688448, -0.08908018009124855, 0.058184337346292594, 0.3523524563448366, 0.3339084942499906, 0.18241796353093842, 0.22202352879785223, 0.23737154388936701, 0.15149554184094577, 0.011465976655030151, -0.3503537695141381, -0.39653620102976644, -0.3724283611383143, -0.4138490769267779, -0.2645369815714367, -0.002673347783848561, 0.019690564372598276, 0.318378365148023, 0.04065752776848995, 0.013476572416506884, 0.2102183318509287, 0.06389913468940984, -0.01328704927897616, -0.01348697819608552, 0.010052792448897984, 0.0008910944627240333, 0.014580694429945869, 0.09111590363399232, 0.015145376455258859, 0.005986351466552256, -0.022882133934732544, 0.23672798972679915, 0.19465222494593767, 0.14460488586483286, 0.2298311448691561, 0.4116678289767448, 0.6507257719704223, -0.1235702566933806, -0.5448991933245584, -0.21955175799769144, -0.3594574735062096, -0.09936552915530074, -0.01334377524028376, -0.12921866854922018, 0.25477303036382215, -0.06889813448032987, -0.0001600868968918413, 0.18343760467381076, 0.32892655722862935, 0.1352828299872702, 0.03976071868058607, -0.010639741009079853, -0.004094205418896419, -0.003893768430728685, 0.017892615932937565, 0.10865552720364553, 0.14488976597908856, -0.003554276658624948, 0.02266496582407218, 0.1169363986267588, 0.2042391987661366, 0.20405931930704066, 0.20496043189262378, 0.4368656208583369, -0.19570101509153473, -0.940517243616409, -0.49146512662452596, -0.4636137739300678, -0.14339648211952288, 0.1794326046194883, 0.17063554980380974, 0.03698633553975534, 0.13753511525741186, 0.26683304197898455, 0.22795738238747476, 0.40352121148430536, 0.21417190293770622, 0.07781167304377944, 0.038169538012326976, 0.0009753478790738484, -0.0015979530722619272, -0.012382968427350755, 0.04101448056942671, 0.07596906984318184, 0.11819784997097979, -0.012834748982987108, 0.1679670144105719, 0.21145987057537977, 0.35679668542302423, 0.0990557808965637, 0.1853717695657793, 0.3018914637184554, -0.29302492639587696, -0.5163193448520016, -0.22354244965117037, -0.11087587437137976, -0.10490784703123235, -0.24168557207257318, -0.040401450969477684, 0.10538119741699892, -0.07354293494653047, 0.2112056875622124, 0.1816967140573269, 0.41575744524444247, 0.17343807311447265, 0.10903922310927501, 0.04783465956324631, 0.02528459782526602, 0.01985454856629309, -0.017257425425211467, 0.01859876504297984, 0.04075217904682436, 0.12701745722919786, 0.06967070189255538, 0.1492623679466203, 0.4809174988922965, 0.7158365764538271, 0.44936358801749327, 0.09857214950629328, 0.18050768695908095, -0.28604679552907136, -0.5054568314240954, 0.10612367397486669, -0.08920806966565926, -0.22264317806079667, 9.616415474025839e-05, 0.014482612066139742, 0.10517304334473945, -0.0038955564118842525, 0.004165372631146201, -0.04558921491548155, 0.1529567774444215, -0.16553812876449464, -0.00928455766144519, 0.08523057262147284, 0.07430815329067265, 0.01724506523712383, -0.007635882566810915, -0.026198557934659587, -0.02910250045530624, 0.16187598095668965, 0.015956714031486914, 0.15362028312331982, 0.6108699123525383, 0.8336228306709673, 0.8203182618181458, 0.3142070699408543, 0.2648242807785408, 0.10094766207466055, -0.366038322369262, -0.32829765445552267, -0.028179335539735315, -0.0878843333539386, -0.010862591410696034, 0.18270623279756626, 0.005177267462821917, 0.13502547773658516, 0.08037373286435337, -0.03939052827872891, -0.09144139052463955, -0.20022736340167877, 0.03902176537116888, 0.1667798444392603, 0.04992241032206928, -0.014282082699867586, -0.0021379823476669647, -0.012655341878233218, -0.01749074781625429, 0.10049690025695573, -0.1621720108076094, -0.02935079501616458, 0.3080920081502869, 0.600770588788407, 1.033384205960857, 1.1315538905158307, 0.9220459406232714, 0.34210326715764783, 0.16169572532876408, -0.0305311960511189, -0.16850179011645952, 0.2459570102999707, 0.23916834049127683, 0.1985950034727609, 0.047672059195995785, 0.26177066102237767, 0.07966443403539393, -0.18985330227255398, -0.13539090901615045, 0.18072859435220714, 0.08360385944584524, 0.18121851350868465, 0.05428872788826434, -0.0025206045789518787, -0.0023811601740566634, -0.0058094949983073085, 0.007507394777650751, -0.13209141388762954, -0.23525424967773467, -0.20596702315261756, 0.2258905186618315, 0.10369405207519541, 0.6094467715850528, 1.167498674169687, 1.2836197492500674, 1.0041861240907466, 0.9146694596834934, 0.2240520723524398, -0.1074559678046496, 0.17265084453507437, 0.13328431586592973, -0.04915174004730425, 0.1295967770058053, 0.09958279861358671, -0.017752676181543497, -0.1624416659071574, -0.28580098722625075, 0.03040662419656622, 0.2755393321809369, 0.10531500714456132, 0.035082673233827286, 0.004570996803338818, 0.008366007715509306, 0.00028351151473542205, -0.0019872820941266183, -0.339342245639556, -0.18031262858516423, -0.09410057936546964, -0.1374124724893192, -0.02090163755285742, -0.32510399764619397, 0.3742819105981997, 0.6105137923910496, 0.6031763282153421, 0.5554832171219328, 0.4846978092991711, 0.08174897197730262, 0.05190510973493886, 0.07877304340303741, -0.0011912562416307722, -0.0013311962228225226, 0.1414690421485993, 0.009467463887356801, -0.24366857020312735, 0.11867168318713944, 0.3893233065692225, 0.2971444748493282, 0.04859961180320565, 0.0424004772272289, -0.004876355830288297, -0.0031585037348611997, -0.004101929806632418, -0.0006594287150174332, -0.34373376239260517, -0.06026086094467265, -0.38843097408351773, -0.29779698851913294, -0.19011499630791737, -0.4175125392488271, -0.1190636084797359, -0.1039319258690916, 0.21888963868801353, 0.23706601580507752, -0.03416364546737232, -0.15367744979925424, -0.2125746267635375, -0.19593754610488703, 0.19965181089468184, 0.1067973379266383, 0.038370726976524126, 0.028954564454919878, 0.14493087057303813, 0.06458547007114077, 0.16037443104053312, 0.16603597797923378, -0.062393987572357146, 0.01742460041295111, -0.0030253148023620174, -0.006283075101441534, -0.002170901672956657, 0.012459832892309876, -0.11004534238312465, -0.04334284451200598, -0.10003779482957327, -0.4935337878159548, -0.09131732256570813, -0.40074029054201216, -0.36332145970247454, -0.3581986934233992, -0.09404395466448916, 0.1498568228745619, 0.15129627513680918, -0.32139847604262956, 0.20706256372152185, -0.13311941792812806, -0.23514922779608377, -0.25470508472645104, 0.06245358576283513, 0.05315516987070803, -0.1253392416542601, -0.17560478141371896, 0.2292535277786906, 0.1322882873755666, 0.028524065527747475, 0.015372863829221099, 0.014223066758488157, -0.010950076453968121, 0.004968649973756226, 0.006805697314380356, -0.03863552530379979, 0.050765484294843954, -0.17098349230521265, -0.22116202326931697, -0.4363882552973717, -0.5838793429538329, -0.19962656664834194, -0.4677141891711178, -0.3442926041399227, 0.04071039325351377, 0.17977650931765843, -0.02764949196601341, -0.09421877054985953, 0.05983077760587898, 0.229602287841178, 0.021771171012040715, 0.10601098745581436, -0.03517996230726912, -0.0008491407654089194, 0.19440697572551421, 0.5018383358838825, 0.1618391109363098, 0.00854919679898485, -0.0043150038434044405, -0.006497144480123153, -0.002840759267023117, -0.007044198897261553, 0.018464430116840742, -0.012591935528485277, 0.10715552741411909, -0.20627589539216562, -0.21774339628437775, -0.11554893247015817, -0.18745662690843848, -0.25671137245401837, 0.002110292278248512, 0.08829455957027775, 0.13100287582769177, 0.13404513832863713, 0.2607647717953765, 0.035113092629510546, 0.04389107851663867, -0.13303307772165007, 0.12148125110282927, -0.2419326528738024, -0.17697884754907742, -0.0568332164013321, 0.0892022864532857, 0.2848122729375595, 0.09136779877462942, 0.036035636625323456, 0.00451749769296412, -0.005262360341648215, -0.005480230845739653, 0.0004283158453341492, -0.018288371009948675, -0.04689405298877102, 0.1390683890458784, -0.052172995958935126, -0.011689711029433437, -0.12366963323174648, 0.1398591642133387, -0.0036330626441567642, -0.09273374994386725, -0.03354573941885177, -0.3128098926424899, 0.07803099423120247, 0.48281627469074756, 0.12896326484752238, 0.10808136825994362, -0.14888762818074863, -0.032726106879486086, -0.03679633656944738, 0.009706146184379824, 0.22886901772153706, 0.3310304712134823, 0.16529549192283552, -0.039915441403327964, -0.0012236484859479992, -0.01201042180227461, -0.009106538697367583, 0.004698574560533209, 0.0029346804489451444, -0.030719806191130555, -0.025234498740799173, 0.020981415147651426, 0.04984258159356843, 0.11014322520782906, 0.07947305592262531, 0.20350046049834808, 0.21035450038343068, 0.2445435509847001, 0.4858781314255777, 0.5143880752653331, 0.24141892586974603, -0.018618055188820846, 0.03117769940113384, 0.19397741374277386, -0.023655303349872467, 0.25335432871114993, 0.15102492287492375, 0.19352650146278091, 0.19668576276636116, 0.24285291980614618, 0.04910980625348599, 0.005719954160265818, -0.00599095678805734, -0.010873752696402561, 0.0016125736326809926, 0.005298301766953314, 0.010570541969740494, -0.003871576900412882, 0.011936128388881886, 0.04553896848958802, -0.0039051895383466918, 0.07576090817959984, 0.09303905232328687, 0.033401880692376235, 0.3541826680681454, 0.5626160753425145, 0.6315886453886731, 0.4530180720505792, 0.20092416003855543, 0.20586195824598585, 0.41541853899338216, 0.26710985216539535, 0.407940857954054, 0.2985402026735135, 0.04610508437460753, 0.002540525605350735, -0.005812508033211706, 0.03144040472680242, -0.00875901371882814, 0.006477597557092562, -0.005294257913597157, -0.0029087854422980607, 0.013470947382645924, -0.004237373125711445, 0.015330577346801096, -0.0061551738238658565, -0.0015745995611221898, -0.007543485424359653, -0.028401323037047465, -0.010806522369669558, 0.05612520199042754, 0.0927249686155633, 0.12342657104941501, 0.1340468232909858, 0.19613004022286368, 0.26957773047398637, 0.35523577133785106, 0.3018226586636493, 0.07514226458507477, 0.09351362852587915, 0.09729577290539168, 0.015411363397389011, 0.0337419532883533, -0.010461382640319455, -0.022531403469304344, 0.012349371745056972, 0.0027015770603756287, 0.012900370136772157, 0.002220816586099251, 0.00951649306044099, 0.002000068322684585, 8.678113400277011e-05, 0.01488636344596189, -0.004597292835287748, -0.0026881396775027136, -0.0030797329059240436, 0.006504122683995579, 0.015901961107273967, 0.01056084082359186, 0.006835539147798932, 0.01593429660886176, 0.0040520133930596995, 0.005249685353390424, 0.04168164347917814, 0.049576599933611104, 0.02609567784792241, -0.019193682987465998, 0.035081572366345085, 0.022362305425012146, 0.025719035080825143, 0.03987910108381742, 0.022956407101859273, 0.003334704033617657, 0.0019020453203670113, -0.003696175425028057, 0.008317050919923338, -0.009534542987796856, 0.007812367913649898, 0.0006859842487778645], [0.000820620170754839, 0.0013285843025967645, -0.01050758546542742, -0.008635629384488282, -0.006707344764635802, 0.004825902035639908, -0.006964920442130989, 0.006992882177625458, 0.0034411577683127643, -0.009282430314346404, -0.0033320621897325185, -0.0032941287964275345, -0.012412353602332851, 0.007546481904444919, -0.0022459288975770473, -0.007704870328574447, 0.020488218995265706, -0.007812773924222454, 0.010055148639924452, 0.00017599796000882325, 0.013632816361204916, -0.00889707228698048, 0.0004083247524650804, 0.005669585853071129, 0.009226048048956175, -0.008256831912991447, 0.00945008960542277, 0.010715252533136675, -0.0075585089513455946, 0.01188296262714289, -0.01144168658395696, -0.003975465710793253, 0.0029443219669336457, -0.011515303668657375, 0.0003084079820046896, -0.008320896266994405, 0.004399312134331823, 0.00045399100021335814, -0.003597959001523318, -0.007736195742429459, 0.0007348652294100269, 0.0011775161264609571, -0.012878522197974016, -0.010628503683263017, 0.019252085316734373, -0.0037187355432060872, -0.016970494257268445, 0.005713625527727894, 0.011472614687193489, 0.0050443143436696555, -0.00376005867694942, -0.0009356073002738105, -0.004383812327223674, -0.0011942159343862955, -0.0003641404916960095, -0.0007099145131587271, -0.007603850748094322, 0.0040801076409884025, -0.0031022349352239137, -0.014378356095121067, 0.009310510006702254, -0.0068192177796077445, -0.002434260144702202, 0.002597928082703941, 0.018374082848657845, 0.043829921314272144, 0.03625703294808379, 0.03178642831427459, 0.022759835478966615, 0.0765338886838748, 0.09727843183854827, 0.03488987908390506, 0.07326595288574633, 0.05541240223478342, -0.028066466079962563, -0.00031018567980854294, 0.020937133288172014, 0.01718797208315118, 0.0153993000838407, 0.022983372813110674, 0.010013572571228344, -0.0006875463567249308, 0.000475866638700133, 0.0012826245229307259, -0.006053007810724034, -0.0014089691298213938, -0.005698286320808854, -0.00425981037093963, -0.017150483080565024, 0.006307452050618475, -0.02215976182559706, 0.011410430178818907, 0.09216359106153707, 0.27173746810767213, 0.32207379840712985, 0.3332148233392787, 0.2269242671790761, 0.22377214783455515, 0.1508579755418616, -0.01860660677610288, 0.1410721572033208, 0.07723550090298528, 0.001310532385981785, 0.06749481182734225, 0.037575724727970654, -0.0009809848042685062, 0.022835756048151922, 0.054819116569570656, 0.08105519874629616, -0.023961094215689174, 0.003912370204812592, -0.0002959265895224314, -0.0064329764850323615, 0.0018024957744568425, 1.1308277135039876e-05, 0.0033605137941407947, -0.0073374727400788405, -0.004034561222526544, 0.005857535551014924, -0.03533338217859849, 0.07214488737719348, 0.13858103619379886, 0.1159035679046753, -0.04704913615896136, -0.1350567481455996, 0.08303739819249983, 0.1813047917615158, -0.08212169831995803, 0.07963411265385298, 0.03337843254049147, 0.1258014505557866, -0.011263986927763994, 0.08425085946920677, -0.08676950165889373, -0.04266059397899724, -0.033274199990026856, -0.14530229655026064, -0.09302047433466895, -0.016174774675241137, -0.008073893263736942, 0.004200409874671465, -0.0035631192446893218, 0.0026236780313793153, -0.0066963468478029855, -0.005724375108561107, -0.014496428401977113, -0.030126699402693583, -0.13175778266786878, -0.10189815916278144, -0.12636666848981293, 0.05176364425000861, -0.08383303952934386, -0.10214055587302293, -0.12020606384651913, -0.1268457845784733, 0.0009004154526977148, -0.2417577424159873, -0.25241364267130906, 0.197687072212275, -0.020531742840540178, 0.05343478416871372, 0.04409272482301192, -0.23903234165407763, -0.2393326163103182, -0.2162489942638949, -0.10302616343787792, -0.019174039405450254, -0.004885667474548799, -0.003422997621309364, 0.0006476718880732263, -0.0007663814251762983, 0.0017602098946828506, 0.006703138298710618, -0.05014437027993702, -0.004603910938261892, 0.018597195906659526, -0.12893703381080657, -0.09994124301618865, -0.09185709948928683, -0.2641327182628333, -0.22815169005069083, -0.1252573329767181, -0.07892869332259031, 0.1408979194702041, 0.03300086564905812, -0.16482026793984897, 0.1651674767191952, -0.32063476817314307, -0.16771616233435044, 0.09374478921297816, -0.09466493519196457, -0.4714184200326996, -0.449433432687271, -0.13572880379697208, -0.06895379268136305, -0.050672864509057225, 0.0015518549644790737, 0.01352992991199844, 0.031181050063910278, 0.01947752898697954, -0.016849105333854884, 0.03943551557263052, 0.10148203762944544, -0.16785475792217458, -0.3513567025236498, -0.18115883335411714, -0.2820331461293165, -0.2602346993190073, -0.2724197579266114, -0.2068702400093819, -0.07628734707066424, -0.06732338052965924, -0.07126057126164051, 0.20196358223470637, 0.19680836783017, 0.03997121606749883, -0.20425111798504036, -0.01669320337211967, -0.004127358166920352, -0.1611478456127218, -0.34119604428951844, -0.23163070856426352, -0.1537753528894301, -0.006570526747276166, -0.010699404380567384, 0.011305620910845436, 0.048745928169450746, -0.015685454870409458, -0.01567870775997966, 0.05648359303503303, -0.05945702548985841, -0.36379836924414183, -0.1916815927452474, 0.0011625592313510445, -0.07960158217638277, -0.24239118445294974, -0.13520230108821268, -0.04581057143010253, 0.023568798031403413, -0.0415543220164107, 0.1310814981077753, 0.1663693460226508, -0.3156296108077891, -0.15190151426654128, 0.10944077679611126, 0.05751010795314503, -0.15866051368010187, -0.19162412370248408, -0.4704806120894496, -0.3880270430844742, -0.17251657559986355, -0.004484855728264394, -0.011356164230318693, 0.03197052152337145, 0.017996973826703892, -0.03600988065916803, 0.05971420675958358, 0.023186490374691365, 0.06766279050804122, -0.26492116735149224, -0.13533471028236504, -0.09659230946419095, 0.13422092137538985, -0.20883527451515663, 0.1145965380594847, -0.08593224177001474, -0.2306287082112181, 0.130765778475104, 0.05244804803001522, 0.07510792406840283, 0.1793907261579286, -0.03537280368440243, 0.11680817442467897, -0.2645371998184959, -0.2718470867176786, -0.24405116602001614, -0.34696239462617934, -0.5029949990417394, -0.1839395746919584, 0.0009188750622161678, -0.0045830091262750675, 0.023422906701877015, 0.06383263108348404, 0.006009030465648892, -0.0499761169932042, -0.039182789666284724, 0.08767507123312315, 0.013575573198490776, 0.11183532808318575, 0.033378843212788105, -0.043080266338233884, -0.03387207568729417, -0.12107294382795185, -0.14385609869958646, -0.22761586281570406, -0.08488940440621473, 0.059505632545750906, -0.023104400475304446, -0.04859315395486012, -0.16606078218569087, -0.0970274992811776, -0.11072447010580538, -0.16035642646166454, -0.44904053321331944, -0.5768331533421066, -0.4062211562741319, -0.10663755883906072, 0.01067780630741482, -0.00016341289858536534, 0.022134442632137784, 0.06163342957659601, 0.08900789500250834, -0.04192864450767568, -0.09346152591218267, 0.11128033417957947, 0.025925912941282058, 0.02412767011429939, -0.08610340527154846, -0.06497001013878068, -0.08868055402811531, -0.1365088860484946, 0.002205291503089107, -0.35863923199791675, -0.4197429469827719, 0.00466013660862489, 0.02832130388505819, 0.10898646639104229, -0.01379398087981931, 0.03233499740414541, 0.08139711890623633, -0.08636245098287719, -0.3814853011254473, -0.5058073096895397, -0.32454996606973174, -0.2025140760000316, 0.007685961514403545, 0.008965717690813266, 0.009739311822591011, 0.06236296375844341, 0.1039361948136383, 0.06515148064194012, -0.10415395398674705, -0.07432091575699491, -0.12187638772232347, 0.1235679024357447, -0.17891965014782554, -0.3153839461690113, -0.024297703549700587, -0.29010501521695986, -0.14749712218279423, -0.2939987277119995, -0.5322556389879912, -0.07180088326837342, 0.05960856079969704, 0.3100480900205805, 0.036504890582068086, 0.21852962499254525, 0.09988589788469311, 0.20926684023337216, -0.07766729535025502, -0.0234873338340064, -0.06260289090912573, -0.07695138483907366, 0.0026401745200083024, -0.004692808164937782, 0.009880659760366336, 0.06237239163043536, 0.09266646210695359, 0.16819063080739396, -0.024889770038548222, -0.040430158614745394, -0.01747406640141924, -0.11638508662049933, -0.1128655138563313, -0.22910136127319577, -0.24345651241466118, -0.08378040327312705, -0.18340294157749742, -0.5556219113940843, -0.597766354682521, -0.3191107047733588, 0.023296894114702062, 0.28963943931835723, 0.04612609157452371, -0.07207520995415805, -0.032075644092022786, 0.1003324689981108, 0.22836867360601912, 0.34679587769125525, 0.037015954316990264, 0.00048390595035536333, 0.009263909072415718, -0.0002971298147130541, 0.004405949931568447, 0.015882780131524523, 0.06177093639592704, 0.14555802919562444, 0.08903001493967491, 0.16436153184553556, 0.09001675443860752, -0.0815192557006976, -0.37736362967477394, -0.30198866418878445, -0.2005352451315166, 0.02398482310218963, -0.3762881561844094, -0.35050674651494296, -0.35417889995087914, -0.6394480643484296, -0.15788819159627387, 0.12693613528797193, 0.06690631225626394, 0.14475068985205036, -0.050835401442436416, 0.3296846909780494, 0.5030318590735512, 0.3480903573683127, 0.15762233466279965, 0.11454328234282965, 0.009689469739697448, -0.005440256408402924, -0.011176771888494244, -0.01667780759421098, 0.07028215206117232, 0.2727725579766725, 0.32800765490298556, 0.3831703018132629, 0.28629094491224755, 0.10391982328095761, -0.11887588722783207, -0.011909766249747001, -0.31036364213126716, -0.49458255957790564, -0.1606766804158539, -0.27451991102896567, -0.34689776716929793, -0.6658477579569916, 0.10529028976228466, 0.09779106977030948, 0.07201691736592195, 0.3284866700702397, 0.27249750984656335, 0.3894635884606763, 0.3814107572540726, 0.3600046387294348, 0.21273768761595996, 0.09038635086640368, 0.011497600791480985, 0.004045116461528788, -0.006005159865889633, -0.019242575491634214, 0.10179681005692039, 0.32783330035751923, 0.33861415665457734, 0.4309760011887505, 0.5995358103324884, 0.45753557262379346, 0.45388442324643197, 0.20028554592445805, 0.10337368604250523, -0.03906559220779774, -0.2639692319759316, -0.20352266889771653, -0.5277954964173358, -0.2545624108942399, 0.23562285985991405, 0.24130715200693317, 0.5638784573046214, 0.6373843982559059, 0.5243408199427857, 0.4120063315877692, 0.2272234534114145, 0.2766761598820395, 0.3101699993348576, 0.20637808775954383, 0.015125720714059604, 0.015364316213941095, 0.010431976952833759, -0.016125991533460383, 0.05486019793753317, 0.15135012003978573, 0.22381092232919092, 0.3168188281391715, 0.3867848127522947, 0.5193442425633934, 0.3324748774432286, 0.422853217656184, 0.35424494646708615, 0.06994424893880219, -0.1954944802714094, -0.04991407933853272, 0.17201949376205578, 0.33344926756827864, 0.5057298372126572, 0.6244806953767469, 0.570065960140337, 0.4555957431765146, 0.02467465299799352, 0.28888962206565744, 0.06925583945551746, 0.12096689081019378, 0.2634322902875693, 0.11183083981047122, 0.002789885774413089, -0.0037528575430291113, -0.005985878338875858, 0.014845116846197607, -0.06871205799217077, 0.024914663066676192, 0.03932374355185661, -0.04623269858527268, 0.0900474130519678, 0.517527251012178, 0.19869217922312496, 0.4179559861180268, 0.33766785632267693, 0.13402354192497012, 0.08803473465762147, 0.07926531648840328, 0.3523438369317879, 0.6247020000611654, 0.6200371336004269, 0.3951771204451443, 0.36730244765469267, 0.1366035175652235, 0.041152574984391024, 0.23214925511607268, 0.1003794147515526, 0.14485961140592704, 0.1720464143424637, 0.02498227795735417, 0.017998419573107646, -0.004270023659686809, -0.004607843262575104, -0.019369838558625174, -0.07498730609095974, 0.07496251569598668, 0.09744910907304619, 0.06274333577561202, 0.06600702893335747, 0.29505505464822507, 0.19732219302994813, 0.21690174308552762, 0.5201991010841671, 0.37809941542137104, 0.24059497426218437, 0.15833668712528481, 0.20099478739334115, 0.1749896593265374, 0.3761568767827888, 0.33365747799048656, 0.17310739366143818, 0.21076913378626208, 0.10165035063366677, 0.0637412217012565, 0.0924203040535132, 0.10696843488440834, 0.12155387075306187, 0.024920982622014923, -0.00252184710618635, 0.0026634607762518942, 0.004491956709540355, -0.0309383488570397, -0.004299293304173021, -0.03790596016745762, 0.016944724516525938, 0.006399085466234586, 0.13318787207341895, -0.055906130780991374, 0.09693861966075998, 0.17685618482667806, -0.08948255252272239, 0.033873961916909695, 0.02172047503754689, 0.28517018442734304, 0.27459763535254117, 0.3630414322058894, 0.3930719665111326, 0.30747878198533307, 0.4750830450006539, 0.13743965307770686, 0.043424692221463924, -0.13513153197332972, 0.09167093154773276, 0.10706840067001136, 0.05320404763422157, 0.01454561202853426, -0.00653614969651747, -0.003740640770585962, 0.014498414085860197, -0.010450415988425875, -0.016799689579895243, -0.05259089750366897, -0.16343302721219122, -0.08248490896497174, 0.047398767100040276, -0.0633294405855458, -0.21296680814558994, 8.84288210601397e-05, -0.27988215288916385, -0.2050486964574914, -0.03574321668370769, 0.0063930922523631716, -0.0585991450739254, 0.1998324269840799, 0.15181803724142745, 0.15255406749212452, 0.4230750901991434, 0.05848502549632521, 0.017474476664148548, 0.07558047094087308, 0.15051802353296617, 0.09346331088880763, 0.050568616272126894, 0.006070333605847242, -0.0011525794463590065, 0.00280450360237285, -0.0047610080758921335, 0.0030228064695063325, -0.02437857579516756, -0.0318611742307416, 0.0847511205935423, -0.0629037670927351, 0.04606987786857138, 0.02466971774069763, -0.15556448338390857, -0.03107148415791841, -0.10762575973099583, -0.036207172089441346, -0.17559244088366802, -0.10570530320651893, -0.15472908610668198, -0.130822034222922, -0.12594335278126775, -0.08109875415439702, -0.27084799519313413, -0.07044697587901716, 0.13177466362839707, 0.10424422122801005, 0.03750767794767239, 0.06407911226345382, 0.05824194518562587, 0.007349651561398979, -0.0039002380307626167, 0.0013232422587363124, 0.0032159293640964684, 0.0028191068535582306, -0.015659877209306068, -0.031892640556209245, 0.13731891363037638, 0.26208695473052196, 0.24792305713459767, 0.07031520735194086, 0.06936910785517608, -0.05085402661669822, 0.02766380858756144, -0.09799392803625022, -0.29275754975545437, -0.04664246928380935, -0.3365703913453295, -0.43702608350801153, -0.23961874514545217, -0.4136242769405671, -0.3257764177501091, 0.09217854431404345, 0.19947110495979056, 0.10695764928362927, -0.05300928893568041, -0.0008814701873937258, 0.05255305489549957, 0.005312636896803655, -0.008837257292297094, -0.0006900056357411308, 0.013139268572064251, -0.0034483176060275326, -0.01251687644748841, 0.0170533220606972, 0.10495871361408407, 0.08165669851884745, 0.044330404638357766, 0.049808020044744446, 0.05550167071019595, -0.21470871193850077, -0.22021779024232196, 0.05042619515887428, -0.0609918181945789, 0.18492098170924096, -0.08377448313871734, -0.18728085279093049, 0.049421201151309484, -0.15928059218652363, -0.1947714439308909, 0.026187139688026127, 0.09160286310679297, 0.03718116758460296, -0.03683760398187954, 0.012419918169559153, 0.047997306738445406, 0.005798860288539041, 0.0005656432481908471, 0.01102075321730104, -0.0028267722470403803, -0.005658942266262691, 0.015781657119881533, 0.07009754040955132, 0.07897289913607108, 0.06534649992601278, 0.0517245451553327, -0.07863307857959419, -0.15840514936351785, -0.3466469157496263, -0.007162225773879433, 0.15798572641659528, 0.10716245010588091, 0.13151097936220646, -0.12907604475878534, 0.04864206856526166, 0.11664220418217047, 0.10434249620057526, 0.1109799889547734, 0.0053247981990678945, 0.02829514657595451, -0.02670984573516301, -0.09127190736889403, -0.035908584884501896, -0.0074945317300609115, 0.006917930514365605, 0.010914070147288207, 0.0011734966807656281, 0.0012833499053417614, 0.006636103145360312, 0.0002859922472225788, 0.00285913884250098, 0.014497803908000368, 0.06296120937562866, 0.11592024805032627, 0.15149875319486972, 0.14464146595506513, 0.08088919082457219, -0.019023432683300343, -0.013305061799977437, 0.04164935786510289, 0.04062072867707779, -0.008208341627494875, 0.08451907647507766, 0.02706395825856379, 0.09035560696255261, 0.09989583306229541, 0.04932665236005126, 0.0859590319261198, 0.05001264538393816, 0.013160181317084876, -0.0037860789035801764, -0.0010459125957554011, 0.012086871041893314, 0.0049030437910080335, 0.0008314728652052265, -0.01062389115068499, -0.008797229652585677, -0.007405384687197282, -0.0044588874195034415, 0.007041816596732679, 0.004183674542782961, 0.02039084338164828, 0.00036960636565018, 0.0007588344826799544, 0.015312783384058426, 0.010283050503573764, 0.02404638268018977, 0.05459462945911944, 0.05485206255653871, 0.027213079833047372, 0.03497406723394638, 0.01682046489372864, 0.04194155104159154, 0.01851985010851867, 0.021394276043595548, 0.044741078520629605, 0.015557265684511837, 0.006669515262609447, -0.006490787710807491, -0.006043242990617539, 1.1447025989363728e-05, -0.013703650111757563], [-0.010526041105375972, 0.00791329947619172, -0.003924038492628886, 0.00797022776995832, -0.007938443863353033, -0.00037197397947556, -0.0008566981252032945, 0.0046954621488851656, -0.0063567473094371905, 0.01206894546700806, 0.010844098790329324, -0.0004171322734324751, 0.00443646068643444, -0.020468370093023477, -0.0053732415787148815, -0.01143181954552474, 0.004596409831691419, -0.00939178851509164, 0.01799293006854768, -0.0006723702717043344, -0.008894845304026561, 0.009843897977366808, -0.00408047491830977, 0.0007948821212579732, 0.01720251397038103, 0.008966661087803975, -0.0050923132859995645, 0.01720066021552343, -0.01069771709834124, -0.0063062971539473035, 0.00012998285152348695, -0.012890016451246978, -0.0094594006266494, 0.002577309555370934, 0.007751217943768347, 0.008689622053092497, -0.005918162054814689, 9.42790012627071e-05, -0.01879337390628084, -0.014517192394987518, -0.02207309161031937, -0.016752203107833142, -0.014045778420677097, -0.022878258824640035, 4.032309656017229e-05, 0.0028569129270514687, 0.0011309470234739433, -0.006331801255273497, -0.008280699020362539, 0.008512168999129134, -0.004737320117994809, 0.0008024199584371041, -0.012430913926446414, -0.00264279632011535, -0.006662437570983049, -0.004040903285843187, 0.006487267417767917, 0.01417817160898811, -0.0026349173310380282, -0.014169929401464344, -0.011585480601045046, 0.01761675837840427, -0.0013540043779609922, -0.017503431512002995, -0.013893334751856747, -0.026841728890476563, -0.005205507840651113, -0.0007534888564120448, -0.011787508389048192, 0.00953286616729453, -0.0544282205950502, -0.10679081061620561, -0.09691940668855142, -0.07984841088728957, -0.024113848921353005, -0.027539207372643325, -0.040146046181031625, -0.03225526084709447, -0.022196907282069297, -0.003100938042058721, 0.0046408814353130975, -0.0022834252679051407, -0.0033448051577907767, -0.008766829763201197, -0.007807677656908719, 0.010944328749409538, 0.0005824978521633478, -0.019592140372963793, 0.0023723419853694007, 0.05166636507815906, 0.04668925375805932, 0.05157892587452492, 0.051127477441075896, 0.07097621843200919, 0.1084209082781528, 0.1009664951003937, 0.06592400096700131, -0.12616073659829324, -0.08465571769130409, -0.14961670104500283, -0.15299340600051964, -0.041006382670290824, -0.028187503531896595, -0.020869286907731027, 0.038662613925720374, 0.065635557599713, 0.03698921566764181, -0.003485736207918975, -0.0168867942551566, -0.0062900325863376365, 0.012909881911874633, -0.0056186704702568405, -0.0008510858606434072, 0.0061638077658043655, -0.013953229911285926, -0.004968601177097918, 0.007451139136010502, 0.07866323782511685, 0.10230025543954116, 0.11211937511712092, 0.14462261025143144, 0.2525987706475415, 0.2703224603629719, 0.09210935269312558, 0.033246365636197754, 0.016743983233770885, 0.06201066384888561, -0.23947981267279936, -0.2978495650560207, -0.21191851370627277, -0.07480235324789984, -0.21600050364488554, 0.03449955454709666, 0.15635987854147743, 0.14748173323397118, 0.05525183917782543, 0.08739937464730649, 0.02678896077117934, 0.008700271172712777, -0.0024597893486036264, 0.0018887666591062414, 0.01089824395287447, 0.004906023639616962, 0.0068892050535872915, -0.04139417529047254, 0.019804238545958332, 0.06411136376194465, 0.12965009249502407, -0.013466621225112154, 0.013172057645043318, 0.16857386690562398, 0.19402533878714848, 0.2749118896997977, -0.027557710640541938, -0.15953467472592597, 0.031607478984936044, 0.05191578897880283, 0.16350841354273227, 0.19615705561087746, -0.10923661979867165, -0.10972580441270831, -0.0800713782827589, 0.03626236958367513, 0.020126508152599545, 0.10305432901934322, 0.028320646847101918, 0.025295588965067953, 0.0013341111473367865, -0.0059938655783782335, 0.011366365158836768, -0.04132977966414733, -0.061545079021603395, -0.2016394316878154, -0.2640056943057519, 0.014214056817453781, 0.04218519805733909, 0.04706081217085265, 0.2879645985352285, 0.2240595436528073, 0.29989655010145755, -0.07463496858894703, -0.10603995900814818, -0.04859755064319624, -0.1367030958885988, -0.13634575303734073, 0.11001008684478765, 0.22845184928855702, 0.1489408021686166, 0.08901080778649018, -0.1811042841933247, -0.2360298580673287, -0.006947525714625681, 0.14572488756718874, 0.13875672974721454, 0.054673903163413175, 0.02529223710951258, -0.0011153185516942549, -0.008139050793572859, -0.054226046105634945, -0.1955026137544543, -0.14765815065742677, -0.0866443327628776, -0.22573231371277042, -0.17398308712241112, 0.4115624359834252, -0.14249003034200738, 0.08866722920311201, 0.4069663035395557, -0.14898822595039457, 0.16533755783430693, 0.2627674515425638, 0.20863157731709617, 0.05661454493527547, 0.2374025937494512, -0.12809565652638547, 0.20154211937121963, 0.16505727371149986, 0.23870506879474468, 0.031186408977142286, -0.006868637376154214, -0.02188763375107628, 0.07857182054935065, 0.07352619550169255, -0.012241917061819924, -0.011081540933409607, -0.06198488073931226, -0.07806429237206611, -0.13863740127487964, 0.05557771516670859, 0.16745564815560843, -0.021069610495848202, -0.02375563723629865, -0.3012437697825028, -0.06976639591805699, 0.14688989331683824, 0.3464433613416943, -0.2747900118931951, 0.08008115128579224, -0.22433891883900453, -0.36299493166417435, 0.1562912509237508, 0.1486606860939527, -0.012820912024964864, 0.33325714220273567, 0.050124692072602034, 0.21521193359318047, 0.11189502174132201, -0.12696605728671362, -0.012853835151113404, 0.11513824197807004, 0.09313200176283648, 0.006499952474831323, -0.0080250694004485, -0.08936036508964335, -0.04829813483562258, -0.12278678773358598, -0.14776443583181265, 0.12305184293539216, -0.34610717161652055, 0.03512894188768691, -0.11260536020305673, -0.2845532905697635, -0.18734031726308595, -0.02356959091950059, -0.14520384017847238, -0.27281829202999314, -0.2968429110662074, -0.054234123389972286, 0.1016295712334033, -0.060494373512653056, -0.01023008021569841, -0.029023299338561237, 0.008835675875281803, -0.10807809253774987, -0.047939169928346834, -0.2923857324583259, -0.06563821460655642, 0.14454839055680443, 0.14555816518037373, -0.005916479440217745, 0.0019943370607791, -0.07792182236827565, -0.1482100160553489, -0.20013372184421113, -0.23151383099681297, -0.1312263816550783, -0.2302696308956983, 0.08533554383401748, -0.008493055288727418, -0.15916831149512, -0.06776948941995364, 0.023248613743170585, -0.19129437017660908, -0.12987806243458797, 0.14361609468491351, 0.13689564147823263, 0.27223125493073, -0.044793997658985917, 0.08214116127100907, 0.09767150122503766, -0.16625564628426331, -0.06076355717698534, -0.13326769878754835, -0.3124141178807404, -0.006025128183648841, 0.1297289460531359, 0.09013335616296904, 0.007523826965593566, 0.005558963338393694, -0.04076659311316411, -0.2767253968892368, -0.33455074721958017, -0.2062251265739862, -0.03517709887474019, -0.17334201516365777, -0.09988677032833436, 0.07474958749111632, -0.2616943098493795, -0.05829000692540833, -0.3615616410438737, -0.3931135425556622, 0.23058190179753685, 0.7004292785595777, 0.538295325049024, 0.42709885883445337, -0.15594569462288968, -0.08875490865699168, -0.22117626992628323, -0.2412585328745773, -0.13363573884018845, -0.10559304887977114, -0.18600873331409332, -0.08370522363604369, 0.06305998890212342, 0.022583738424362648, -0.0002697476110920215, 0.006366447525145564, -0.046918472636758864, -0.22892295948960759, -0.34295921056673967, -0.051987036314684563, -0.049143728472447204, -0.15396458520878897, -0.1360617111998507, -0.46700759832436356, -0.36154093171342655, -0.17424212270875225, -0.47199868005503864, -0.08133389459920701, 0.6431148497139488, 0.8541422178887418, 0.43544863342624984, -0.2560645840493631, -0.009566736454718245, -0.0811413029679396, -0.019741912682249736, -0.10264259463922672, 0.02652741509260219, -0.2670887053522683, -0.1940108543659408, -0.31898111498028847, 0.0015601067762390226, 0.013308566326224338, 0.002379771031148361, 0.01607175900669132, -0.050108480211508676, -0.1997284875120594, -0.1573209016497356, 0.04977371934718372, -0.10826922744431192, -0.25481003763372767, -0.17168807278798895, -0.32845181920760025, -0.38758352971498544, -0.45408302857842703, -0.6751936468099601, 0.4125121765446398, 1.3461521384304544, 0.4855117811505271, 0.04025256782881665, 0.2152582010300545, 0.1693248662974304, 0.3584397519756934, 0.4664355056633994, 0.13385495013647558, 0.04609529405947145, -0.13260071682626187, -0.2654209698949459, -0.2910031553051984, -0.047130860292061906, 0.005492881467389475, 0.0016120999610823258, -0.010515758983273744, -0.03334486035849034, -0.12465589051391149, -0.07915903128192313, 0.13106007591856464, -0.3481807653478056, -0.14208499256188833, -0.024350134465973877, -0.2116806936091046, -0.1629737591481385, -0.44903765527778583, -0.12047042882594483, 1.428197926587865, 1.6423652844376926, 0.049560087635313874, -0.286167297265875, 0.1768516849951469, 0.11735479073306396, 0.13121069258301613, 0.024272027394180717, 0.16789180711943466, 0.14403748995704896, -0.20227209303673216, -0.4466589584131199, -0.17435017844680425, -0.023745089829775287, -0.0033880122073741605, -0.007065020635751965, 0.008716991632717993, 0.007470385428647033, -0.0454239169225702, -0.12323370704811287, 0.05752448740324026, -0.03698000909679664, -0.10182441219289087, -0.278929722029053, 0.021474210529024484, -0.37027401019701445, -0.3705849370986108, 0.7595940899302037, 1.89731351662035, 1.23960995366125, -0.08555491088205074, -0.25647941805897945, 0.4941399682700899, -0.12554977204366227, 0.06676491744794802, 0.012143142334847125, 0.12482959820924786, -0.032779428093318616, -0.04291836751532306, -0.10747495392111445, 0.03414894865807633, 0.059134119701806785, 0.03284956603130827, -0.009690251399587888, 0.0038033714931958286, 0.004639763862825521, 0.010180133037451017, -0.09545792312148327, -0.20905289540711627, -0.044040452531467475, 0.04355927659204984, -0.15859546767503657, -0.05220663274245367, -0.13180304047073493, -0.046039903262425255, 1.2382510112545593, 1.6153933061066024, 0.3558845928140495, -0.2723755125700176, -0.2764143093129607, 0.07204552864182326, 0.1852975832956599, 0.2674656826215411, -0.02060686417463748, 0.1399932688984143, -0.3330901822038727, 0.14129365664737248, 0.30257265548301715, 0.2361260297541531, 0.10019011541374877, 0.031162823308580303, -0.013698758748319058, 0.013772284888058501, -0.0008119088617439659, 0.019301049454244216, 0.08146103624135748, -0.14493413394404517, -0.23302115728038675, 0.14384288509655957, 0.08040156852451447, 0.16375408620654738, 0.21689161989370823, 0.5418194755411908, 1.2979264582638634, 1.0157330776606037, 0.19883070793511615, -0.19515462838080275, -0.1569943817830666, -0.18861064327902713, 0.11304697996181218, -0.07688856414968066, 0.18238319358518257, 0.2977920706530137, -0.10705555160031624, -0.15955282383085778, 0.16152351681664878, 0.035696109657462546, 0.007342418662192661, 0.01092725828339004, 9.559552479709717e-05, 0.013218388247364024, 0.003627736643023267, -0.003906132651993517, 0.20722233534831785, 0.10683641566704011, 0.017601373560003224, 0.11950397463993091, 0.060000523929705084, 0.16099249665613766, 0.24562910684361916, 0.6087054608644294, 0.8523587613999017, 0.8427154300805939, 0.4344394149336693, -0.024402163605322744, -0.03372271022035038, 0.14425489366039176, -0.14856189117527724, -0.1737292791454195, 0.058280363954076625, 0.07348823260713595, -0.3479083247467003, -0.18934132160563202, 0.08865028790398606, 0.12969975943248552, 0.026114947951529133, 0.02935151669425459, 0.021217914613759492, 0.007949583965164495, -0.00362730734882017, 0.0016110785051258053, 0.15017445537822377, 0.04274929959378844, 0.039396549892746616, -0.119649272713384, 0.17090978056712855, 0.14025405096773136, 0.20092671003411428, 0.1518677224826193, 0.3483540338902719, 0.5320940834362565, 0.24045739902664906, 0.11024804320929023, -0.2050507777562331, 0.10248623642236848, -0.2660700370503451, 0.09977371283484372, -0.08271781674972177, -0.07601623246544381, -0.09070311587074323, -0.15594628264029312, 0.20535583632704338, 0.14126655034837846, 0.027635633180189714, 0.049374842411607285, -0.00649104351692718, 0.003090752634903694, 0.0037502821635674068, 0.00601653080032013, 0.08006409722212016, 0.07423172148382295, 0.12773541036852326, 0.07864736403875691, 0.14726192825080653, 0.09366279662827967, -0.03533816544729336, -0.19000490508188522, 0.0030388269051857255, -0.020256826523079644, -0.17591896329450604, 0.0934342553941812, -0.1917604951659439, 0.17386691300885163, -0.03654645923068592, -0.027309648227177775, -0.012684622502367519, 0.031833885829342885, -0.20632099006038174, -0.22004737743125147, 0.22934079604840818, 0.13888103200221658, 0.07077035626889047, 0.015908141740636077, -0.02324014666844053, 0.0035418672100708272, -0.005068430426753328, 0.026224695685589938, -0.010444379520330227, 0.018011439545080762, -0.06993401050207187, 0.030768803595288864, 0.01488240120213705, -0.19704505521215115, -0.1120344410689082, -0.7724180171225331, -0.7127124085489921, -0.2668037876591582, 0.23240213737386456, 0.4178354665957129, -0.06985509939722208, -0.036833236510252276, -0.12847301820402626, -0.38476212383787295, 0.2742269545112496, -0.12447615646689628, -0.18926168192508205, -0.07605827124931025, 0.09361561515681084, -0.0009892532751637603, -0.011780480897002106, -0.016356228238728187, -0.010631445643187666, -0.00035885073571675365, -4.072883946952923e-05, -0.00531606202996201, 0.012631087185320048, 0.007608287457384972, -0.16462868185821516, -0.13801412115216968, -0.07978090952236508, -0.13203111547261095, -0.2700101845829093, 0.0008557288816117444, 0.06991562166625166, 0.15414344464146246, -0.19913560541010247, 0.12424928616239884, -0.35063667005703814, -0.05402215102348629, -0.16593215385368393, -0.22973821145897444, -0.0074307884762734875, -0.027984575045782167, -0.08174173865358857, 0.0531443695724297, 0.0826823746358782, 0.10955593376155448, -0.018672869536890215, 0.0013984022871604985, -0.001869476363768694, -0.0045978076380992616, 0.001135095282654362, 0.017387906142258585, 0.05558739752520957, 0.0700844409646887, 0.06672012208675568, -0.12851672544190199, -0.1499713713102892, 0.3117254599855525, 