{"cost": "CrossEntropyCost", "sizes": [784, 30, 10], "biases": [[[-0.461212579167019], [-1.6542268676365013], [-0.6471050525132458], [-0.5765780959414454], [-2.1531496240880004], [-1.4125136476483775], [-0.2016750387865091], [-1.2857140004985572], [-0.7451001397051636], [0.5321042118370292], [0.21717100834433256], [-0.273313058405594], [-1.0731648079806153], [-0.36399778673699845], [-0.4989862735447962], [-0.4594606685995749], [0.2186980513429612], [-1.3525240768448328], [-1.0092334536214222], [-1.1743657380017518], [1.2016050624817973], [-1.633050223050355], [-1.1425807625090931], [-3.014000937361222], [-0.6168980444952082], [-1.2638544776709866], [-0.651871936264396], [0.9809479207285997], [0.14108969509723676], [1.990076358718799]], [[-2.0467811021489593], [-1.3824951382548005], [-1.7631299385183878], [-2.2892899152914983], [-1.4212406590734656], [-1.6535264286632527], [-3.8901792528887476], [1.4578642530781265], [-2.0488909030282394], [-4.567117534570328]]], "weights": [[[-0.011120401702544039, -0.013437971682167248, -0.006345536181159834, -0.02023016615003523, 0.007109752588453714, 0.005143818829053004, -0.002412466998316381, 0.009548987497853212, 0.014973181127315585, -0.0038166055102520848, -0.0025808259773908893, -0.008470732673935742, 0.004645828926562194, -0.030234833814596834, -0.0074829895183024745, -0.0032127589566457162, 0.007315445943308698, -0.007090234512259048, -0.0001732604506580787, 0.004387625506068649, 0.00689994890092652, 0.007207186939061199, 0.0033130936218599217, 0.006469710450863646, -0.005624072574593373, 0.01691103227640839, 0.0011902707412924562, 0.011458403952201738, -0.006921330622550797, -0.007102816005822571, 0.013285810970469164, -0.008917006347073295, -0.002874949094123389, 0.002306949005967752, -0.0034796653069917314, 0.012126808824441676, -0.010987707877676205, 0.008381186463520058, -0.009499887764849651, 0.004180844082755065, -0.0033265162210019774, 0.003519181070890833, -0.002470821813317309, -0.0007790359763697737, 0.024314518906033363, 0.030929495138119108, 0.007082057950624388, -0.005605973668431668, -0.005392646166748222, 0.017196152440312647, 0.005498682415408164, 0.027352766218317354, -0.003409307570355238, -0.010371493152634631, 0.00841745108098072, 0.014360486166601514, -0.013035591731217709, 0.0006044087695947241, 0.0013094060100977542, 0.010009298602647265, -0.0019454053418484943, 0.007496172372893712, -0.004224231691834441, -0.007184701956577083, -0.02919012101783585, -0.05742162879631665, -0.04012396381229168, -0.005616352734871084, 0.019317440421081255, 0.04528294910019204, 0.08558852591065544, 0.07902117044634, 0.08017419539905729, 0.05761431303581803, 0.08249469445960898, 0.1262739507230323, 0.05050484758407349, 0.010786782134657417, 0.009776959916764355, 0.0009354041594827343, 0.006131832265600014, 0.0070145964128248695, -0.0117674315528526, 0.014312834618726624, 0.006886834575039503, 0.007009302860272543, -0.0012603836981044559, 0.0033348771106440672, 0.002158888665298314, 0.002152679054783016, -0.0007623449534445153, -0.004908391515402211, 0.017427405968633392, -0.08563426403784768, -0.05476242960868796, -0.005923425759279268, 0.01895824435550413, 0.1133237930678122, 0.26772819094317146, 0.12437033104542734, 0.04794678764630562, 0.10850000467439858, 0.06789436613249782, 0.03952967078561712, 0.07641264186188118, -0.0015368827365833061, 0.02956610543958957, 0.051576838367047094, 0.02238822566949608, 0.012207081970356706, 0.005372161213144052, 0.00826252105994629, -0.004229350739769284, 0.001572151782911501, 0.013939184256887978, 0.0009564390080773214, 0.015280284511490456, 0.0015598389032782738, 0.027655895434485663, 0.07727696238103206, 0.03257691493175142, -0.1294755087419509, 0.010262111107554149, 0.12099883987265189, 0.012261061504587995, 0.0731722000002596, 0.08021386932305066, 0.2247278319969036, 0.1586597293247691, 0.21358022269167087, 0.1354764878969323, 0.00022015380260287333, -0.0661978997097175, 0.09954227092531363, 0.14843707590275051, 0.04456634945280869, 0.05769901427424644, 0.04381146921412899, -0.008337650180787038, -0.010512148422773674, -0.003061147465777767, -0.006324349141057565, -0.011659015072793698, 0.0165524808053059, -0.012300492590678957, 0.009684580099374465, 0.11116963164702237, 0.18102667499990724, 0.15198667836682528, 0.14026271421504105, 0.16186609230493895, 0.18794906292069394, -0.049245229197088444, -0.11782352165500165, 0.1389482731513872, 0.1262569721289768, -0.041521488281441074, 0.28418492949476754, 0.12544018240290727, 0.2390122809478064, 0.051568594170605886, -0.13556249027964787, -0.10350575978365908, 0.04016847697471048, 0.10316792027312197, 0.06151915763767403, -0.011127220348739194, -0.004897273904649532, -0.0017445575324613453, 0.011005866620534422, -0.011859033824038781, 0.002978735996803938, -0.0245941972351896, 0.1852271992937201, 0.04190525771771976, 0.15227302988423452, 0.022614655495543777, -0.25946819915921987, -0.12900798524024798, 0.0034974041158321863, -0.05339558761334281, 0.194733258632092, 0.04858967151579313, 0.11634763973225556, -0.07237260754311312, 0.04953955065253195, 0.072165273327363, 0.09715196272373387, 0.13258498403019217, 0.009694750820309204, 0.054334782553278886, 0.1024458321190878, 0.1092382747684671, 0.11190319637413355, 0.02122205983645561, -0.005606805204282584, 0.0013307045470432822, -0.007476983250392337, -0.033991442947170304, -0.040441387336710446, 0.013270319494961763, 0.2063488211396449, 0.10021553838896316, 0.003745427995832024, -0.06663214677269236, -0.02353220074149088, -0.18562983857019608, 0.043911218940496446, -0.030926784878211915, -0.02794460539082684, 0.1568406596413165, 0.322188799018508, 0.045963027926002896, 0.0029105739581603467, -0.10418942823089708, -0.03154721797491561, -0.23005859619534166, -0.220980343820389, -0.16240086114166444, 0.16520127775790738, 0.23801650768809327, 0.12831476486872068, 0.01741395054307846, 0.014082805198358242, 0.012650249296418864, -0.00609607066029511, 0.028721653296977616, 0.05134538956416992, 0.1315503946785582, 0.13451973719895763, 0.1055022056751512, -0.019072767547780776, 0.022343480112027567, 0.07688480372196081, -0.18888614279462, -0.2304753061299749, 0.0286315805955837, -0.03640026446635468, -0.03150047857046206, 0.055237360975228744, 0.2885353510493389, -0.06351377540673862, -0.0704358067723513, -0.12233456504611333, -0.23379812569227218, -0.07585953050988142, 0.01092957056304062, 0.016065103239711928, 0.3270303070138589, 0.1905380129050485, 0.035633959488049184, 0.0034316768758438578, 0.0005160240172272042, -0.006775366676555212, 0.01454102633604786, 0.06683005344515129, -0.0006450467965457842, -0.0924994313658949, 0.15137189288768588, 0.02181349884424402, 0.0804410669447527, 0.07430223557533874, -0.0382795002799237, -0.03049170195221883, -0.2382883867212991, -0.3910438442303922, -0.5548916460809934, -0.07829451631374329, -0.14792306396917357, -0.361293356560316, -0.13661309473757874, 0.008959226213201454, 0.08846635817386794, 0.0902661560523039, 0.13593739113991848, 0.10737634710319847, 0.17140664913585024, 0.16349046478769558, 0.008185923583227447, -0.012810739528639883, -0.00045740178201188295, 0.0076544416237530975, 0.003797261283672745, 0.12709917013186153, -0.01761818402298571, -0.2963249416978797, -0.16096860435433058, -0.13504498419312835, -0.3008038196549902, -0.2569578910754671, -0.30862282256269485, -0.14003307252309913, 0.02453635747277827, -0.229152192942024, -0.09346053145770783, -0.29168675511700404, -0.09506977051616022, 0.016776663338290265, -0.07448068679904248, 0.04325468057926327, 0.21694713083739697, 0.10732999116242144, 0.2813936462873744, 0.13788918673314213, 0.021471469443792968, 0.0824930746451838, -0.009498707987234112, -0.008573146475445353, -0.0005484923331204723, 0.003538187987598175, 0.02737292436600286, 0.17186659521100095, 0.007924389338858143, -0.11183551435256138, -0.07444400027090463, -0.23586407035972776, -0.10516400149802753, -0.15420081772783006, -0.05840048520989155, -0.1652856586702539, 0.3450682581679488, 0.3996333496881828, 0.08103671608828623, -0.05031504120143166, 0.09334690945900095, 0.2690160904621552, 0.3302984882192312, 0.26691935907516934, 0.21405565356632103, 0.2502957159271468, 0.13573905342392012, 0.06896218050798499, 0.025032985440708876, -0.07799796820064725, 0.004001716790324913, -0.008403007188720179, 0.003929408383955375, -0.005714782199869195, -0.0038145482206680226, 0.0903851219054757, 0.10152514100836786, 0.23950461794667827, 0.24443187627159924, 0.049183914146055455, 0.1356180954611866, 0.42102606240941065, 0.7432840388362428, 0.7605282881752481, 1.036512736738426, 0.6008527393654366, 0.18923616189035375, 0.3302797475600277, 0.3639968010496378, 0.3889697408150011, 0.2504932051478283, 0.25351097754338237, 0.19950902091768988, 0.0789488075177488, 0.19680377031465626, 0.2961704403382629, 0.0711502996616175, -0.1833624149716386, -0.04181871652344901, -0.020643012253020235, -0.006452903036469514, -9.380837955099245e-05, 0.005532203169525334, 0.11771183949702084, 0.4169165074463563, 0.5060919418883049, 0.48314448694845163, 0.916269949234485, 1.1037895454493913, 0.928998041770045, 0.909433233690733, 0.591891426391841, 0.26970158288626295, 0.03905352687732845, 0.09764411296805303, 0.22358038862059165, -0.02268146067018921, -0.21076906980207719, 0.1921983912345364, 0.08573412649562616, 0.1291205353416767, -0.07548745500661867, 0.1351647624534426, 0.08264695641145499, -0.07118418271720277, -0.0860470016411623, -0.04613617328871721, -0.03032874613586722, -0.012391222282688028, 0.0007848183516350808, 0.0034575111939571866, 0.16995054460617323, 0.5097730658003996, 0.6939938275370522, 0.7472569665536541, 0.627493442582042, 0.4513333316735478, 0.32041131987936916, 0.18755900721921093, -0.09935702402743207, -0.3229513877463414, -0.24902649839665972, -0.27503352833808103, 0.09131470581801647, -0.15949646929893538, 0.20200755723617134, 0.2720222662316386, -0.06591300181630247, 0.15529154472340428, 0.019747725704208005, -0.1363585707016866, 0.045640613623873574, -0.04889875051581795, -0.0436817529471171, -0.11457266552670616, 0.005132389304926751, -0.008265679852002217, 0.009624310395483348, -0.0015493656494147533, 0.11155876998790992, 0.4458890155259127, 0.40895673604280625, 0.11074473759344587, 0.013162778904346532, -0.01369321666293528, -0.3370160448272162, -0.23373678167121917, -0.2638629897911992, -0.27790553045724364, -0.27986633951833706, -0.08810504684242478, 0.12090889991526563, 0.0675473835160104, 0.17581337228886634, 0.2100629529006644, -0.03156932169980527, 0.04823353802688653, -0.021339671559311348, -0.059404372404951146, -0.026693419434035484, -0.11422859388861928, -0.1586920028885834, -0.16144148656439555, -0.011430657066329895, -0.010106475186623321, 0.0017668930279449823, 0.027354093449548263, 0.07202395563455542, 0.3186693187755736, 0.1432185830252849, -0.2533579894561719, -0.23925260831434425, -0.15174723063320533, -0.1797114286381927, -0.13482246445047574, -0.18034758669599812, -0.23662426643910137, -0.06765617690458173, -0.15438274123655768, 0.25165156568354996, 0.005528463675456414, 0.09421186153434122, -0.06516497115230253, 0.07364281832179001, 0.009642093858786976, -0.1437125264054741, -0.07878128649205307, -0.023658804106131477, -0.08766434272643395, -0.2877609534455735, -0.23043421945772516, 0.012016116601973935, -0.005001500591783313, 0.006737132368329937, 0.023235385545145027, 0.027888716325854386, 0.0933931862595816, 0.031123034293405107, -0.2605615753027955, -0.027348109812185935, -0.14891254425148528, -0.022659832438049348, 0.00031774812948323503, -0.11373289521290025, -0.17895979057275935, -0.09197125045955228, -0.13202580080506507, -0.10659114606395856, -0.002745885543851817, 0.04719132501514474, -0.03293621131091766, 0.12495031553122529, 0.14164457169745467, -0.007047602478101115, -0.08451173300326827, -0.12362899059847421, -0.14656594879955595, -0.3299467768709293, -0.159753735706084, 0.0031477072076761857, 0.0031055267852436526, 0.004716429077328178, 0.02475467141400976, 0.0036183347677382948, 0.005965029043017578, -0.009064415814399084, 0.06573259596109014, -0.17590679072400922, 0.047520682719570426, 0.11605178692919861, -0.19736135252537898, -0.08623576096829015, -0.33994234403888673, -0.16116389408046375, -0.23852273225633294, -0.13502019783942296, 0.0828965581623861, 0.20001430945135143, 0.03308208099155621, 0.20572126664985727, 0.3106214248142967, 0.20179638797740518, 0.14086539025407815, 0.1907584719471685, -0.06639735763802036, -0.23764156816422854, -0.05748974442214575, -0.012617179477471038, -0.006290544055343271, 0.009495756431248855, 0.007533663353581715, 0.00309150746883115, -0.0855234931996279, 0.10332631093859938, 0.024985848819895826, -0.039515381136274286, 0.10227926824313915, -0.1451155002910066, -0.03990738599042983, -0.009960930217868693, -0.08323884102144086, -0.11509073165365347, 0.04788028058643807, -0.20422629559496655, -0.01931314776428275, 0.108345352340809, 0.28942073459638873, 0.19634811081248327, 0.1411817380408765, 0.25760804901352613, 0.2733521522261962, 0.09942583907318647, -0.013459863330134469, -0.1327128524554595, -0.04323244426953857, 0.0031511541949372735, -0.003144118890730582, 0.025664305024416786, -0.027877105841035695, -0.11806066841527534, -0.11553984700832257, 0.06672070473386998, -0.1659557873859278, -0.00413279782425102, -0.09926143635124833, -0.014761012757311133, 0.047617508199305325, -0.14299787501480204, -0.08931831564686353, 0.16591010104021184, -0.028437148650973847, -0.06815205225877424, 0.008736316775020691, -0.04369810863208036, 0.2268246233284909, 0.11239661508260981, -0.08158866805512081, 0.052065027120283366, 0.28015205505943847, 0.016657774262336254, -0.1067581329579194, -0.03734383765669085, -0.002026977945106126, -0.004198930973027373, -0.011297541824963502, 0.011873312457089367, -0.061748959186586565, -0.0947633385246941, -0.09126476911984997, -0.015295393600201079, -0.2106375796878736, -0.07811694828303967, -0.13108866842305575, -0.02067931194757939, -0.04663379540372893, -0.08430824922541837, -0.1368997383861829, -0.0042831588207215025, -0.07615825602891192, 0.042793180572214574, -0.256208754058542, -0.2909074826354515, -0.04062303858701602, 0.014155858273811958, -0.03679624512400651, 0.028273869048892133, 0.09510449430768948, -0.14234862961364594, -0.15075588210441626, -0.09493915496078807, 0.0036789320639005435, 0.011258206590312205, 0.0027767345238405685, -0.012815223740890117, 0.011264635563494295, 0.04461403836617305, -0.07481455942425382, -0.18755525648060176, -0.19952486960774762, -0.254930804291015, -0.27112104598640707, -0.23936426928528223, -0.03944785742252792, -0.2835567537536519, -0.23975573756512375, -0.06380234074008684, 0.008261367407977364, -0.0045056538638809035, -0.043851316274639854, -0.09250502955033979, -0.08121121010294632, 0.004122186720058744, -0.2318296467753554, -0.12473981103980288, -0.06899209490901503, -0.13004466359153882, -0.120042649797102, -0.11459356792817231, -0.010963801269027447, -0.009137936158630375, 0.009373327164692375, 0.006841466777916141, 0.035553232001077274, 0.11163410167396784, 0.008955006455776971, -0.040111831014515174, -0.2528824727481225, -0.00831445203769459, 0.21768536360518279, -0.11256476293028858, 0.15307649571429213, 0.062015688963561, -0.024019737184089663, 0.02289681120021966, 0.18882726133110445, 0.05272722152828985, -0.13259573135926303, 0.045328376985212235, -0.042032940890418424, -0.1697667431226582, -0.2227004929769614, -0.19623276976555107, -0.016537410468499446, -0.055276307052028024, -0.09001114146340689, -0.10363044505484256, -0.009348994949358598, -0.0007627276641943242, -0.010178621841157573, -0.0030889508891746805, 0.0331075797465272, 0.0774162890532515, 0.13735472879589586, 0.10018459045992169, 0.050957716024992834, 0.1402215006574029, 0.2295503088204009, 0.012689084825848865, 0.09512799151949758, -0.01535265134649866, 0.07832345799101591, 0.06208388695292683, 0.026938356414627218, 0.1436334577702278, 0.33198159178591613, 0.09113663275452914, 0.09139228975066784, -0.2207880398766859, -0.09269042534289168, -0.04165955960235175, 0.09604872391500414, 0.05683203632818064, -0.07114241936282568, -0.02413961751875652, 0.01079951447565069, -0.006566529174491012, 0.010860179585044451, -0.006236426068745338, 0.023069144200586006, 0.007859748224253324, -0.00045566654100554404, 0.0956298635922167, 0.19369965206171558, 0.23512528671810123, 0.27776583270606403, 0.35812776827114323, 0.4288196883230055, 0.33237228125205526, 0.12253451002450828, 0.3304348720537549, 0.2569319331887517, 0.10129694288450479, 0.16243890813257747, 0.050509982351351075, 0.039610935551546815, 0.09530510052986449, 0.10893699822207578, -0.002982563148384254, 0.04263307614187064, 0.041550634534240224, -0.008427491531800647, -0.01051039308106663, -0.0029286754709962554, 0.007028531439832042, 0.014877816920619484, -0.009355782736761754, 0.012181634016477438, 0.0015151802437681691, 0.01273967370657657, 0.05356010038858641, 0.08764046301135221, 0.028281473590880863, 0.008276857464801187, 0.05998629121173963, 0.20927467462478636, 0.2709576770304959, 0.22475597927495192, 0.16606809511390783, 0.2273393386774316, 0.21159775283278512, 0.24560445739404288, 0.18847588187552214, 0.17950294296441863, 0.09850873900545361, 0.1056433241323268, 0.04625884559396248, 0.01032710251160602, 0.011446069706125689, 0.008569889808696947, 0.008444455337934555, 0.004385893037337865, 0.004154908752361298, -0.013773364908885952, 0.0019238300244408596, 0.004650628728939449, 0.0038749400821476107, -0.005544309082727917, 0.0016849569798231268, -0.0036645613241865953, -0.0020667936841390773, 0.012291529755135307, 0.0023781832899303053, -0.015784352132108333, 0.03401818876508801, 0.05108204716836026, 0.005423112169459586, 0.0262404454200108, 0.011711167441850275, 0.004723180054990362, 0.016329122849179638, 0.05819240611079335, -0.003837694864270027, 0.051641615382976395, 0.015968151751564064, 0.024702078974213167, -0.005446539694340177, -0.0023643421641564755, 0.006326717072781516, 0.0008459135798168943, 0.005881766754500766], [0.0032066447609061643, 0.0005511660647890587, -0.0026115719880340036, 0.007284708156228417, -0.0017848758799258503, 0.016893550473932015, 0.0028745379317279673, 0.009240478351833769, 0.0031362788525924465, 0.0032809488648173598, -0.00824214744105567, 0.004331500715275616, 0.004299754925500114, 0.0038861414288192493, -0.01696865620097004, -0.0007074607447570511, -0.002642371177279022, -0.004818396282243355, 0.004462235223023251, 0.0012126725666745048, 0.00046423501481194384, -0.011202866590519563, -0.00039346342477133934, 0.004407295231851128, -0.000631266741620887, 0.005977143812882467, 0.012055882081878036, 0.001328040632249657, -0.004894539095703736, -0.0021052316648256667, 0.008581560705209572, 0.01564055952582339, -0.005750141163701859, 0.007656103245763419, 0.00206015664258462, 0.020814620949782807, 0.01813323901047334, 0.043297725779388944, 0.04167517578682582, 0.04626493874722343, 0.08403814934636335, 0.06269373874472893, 0.05564096326680421, 0.057597839491567784, 0.04637445445176249, 0.04458858201244559, 0.023389464941102153, 0.030134599430856262, 0.018741253446013493, 0.014618244496256188, 0.0027041439141543178, -0.0012822111156730227, -0.0008188798742309122, 0.018360509046590274, 0.006880726630017598, 0.0011248150596299832, 0.001545600353114315, -0.0009590943083286188, -0.006073989409414656, -0.0038809534610469965, 0.0006828833193986355, -0.009345760825831172, 0.026608888373077438, 0.06122108023121089, 0.09197263396274595, 0.12440255326039976, 0.15617184620070287, 0.16596646694559208, 0.1830455750247416, 0.1416607671429726, 0.1752707662222948, 0.2237894678578454, 0.2151694835413438, 0.18287040811525127, 0.1339579231051947, 0.13424987358338134, 0.08877581658435348, 0.07599494508049823, 0.027866011926812095, 0.01923149507693288, 0.020077113440262945, 0.014815239111343415, -0.0003945270434788141, -0.005970791407840907, -0.006959444839990899, 0.0067658135980582165, -0.006998647036270218, -0.004392006295960855, 0.003477611362915333, 0.016939117918668412, 0.028318105067655693, 0.11256442685769295, 0.1719330682321116, 0.1848321914223404, 0.21955332956535753, 0.3208617433691162, 0.3185017076694872, 0.39769546423057867, 0.33718849787727967, 0.2719559522239083, 0.33998577507019084, 0.3537268728270492, 0.2505346258673919, 0.17598816705770604, 0.16353946192172394, 0.07195279853321492, 0.0572591774303597, 0.0418972218277333, -0.003927576936554307, 0.011246792816806886, 0.014652160683567575, 0.007873435038727578, -0.0033449175759807707, 0.0016849048607184536, -0.006681311650413151, -0.009813018367503952, -0.012589586191742884, -0.023754139269418075, 0.011187328177254745, 0.10782926221500816, 0.2346080011183549, 0.4085780431142257, 0.432029216274306, 0.4989711715773484, 0.4142419683835379, 0.5402748689801641, 0.534451210260641, 0.558252598352806, 0.5967034194951324, 0.42381274136711894, 0.30522687143737304, 0.36587106754023535, 0.2270252373696792, 0.0033593349004263527, -0.006218052857887853, 0.03907676256047633, 0.01785021219807517, 0.1603311498254771, 0.12683650332214555, 0.030906067978328657, -0.016267454585876737, 0.01127365914649298, -0.001947533123561828, 0.015613732410077722, 0.04757153614859014, 0.0410576068917557, 0.08313677676949534, 0.017987941698967273, -0.050002031195448174, 0.04963444189460149, 0.05956252627579842, 0.3745309655788989, 0.4014139912644603, 0.3046222398482266, 0.2454540876497781, 0.12263740431264061, 0.1420057952576927, 0.2933966524764154, 0.17634764869625671, 0.4374486762450576, 0.18202568071742706, 0.3167995736008003, 0.18803752897561582, 0.06546331181471172, 0.21221084415656855, 0.23886797559160122, 0.05187251076182492, -0.0031033194533263524, -0.00536561741188181, 0.009589159017655407, -0.030829178181650752, 0.00055747189517747, 0.025915785421770497, -0.05566782879087951, -0.13304282165082165, -0.30475016923728643, -0.33009019822385793, -0.2152926272207651, -0.006253830116058017, -0.14646110701959195, -0.17364855268694013, 0.043610561176388965, -0.1119243114170409, 0.06203880721642494, -0.010343380860108598, -0.058464868208946676, 0.1001923197357646, 0.14760583716016246, 0.12238571652217067, -0.055501705255039606, -0.057074416718119726, 0.2078567058869073, 0.17790375622807672, 0.21418011069240933, -0.01568010141071065, 0.0010602610656979018, 0.008016313142179017, 0.005915064541341427, -0.026599676698305586, -0.06813634647465046, -0.04292463538066132, 0.1239951173763504, -0.018173101320710053, 0.013104590183326624, 0.19770488451526128, 0.03599773111416613, -0.17204660776371158, -0.004291222736694809, -0.14730755068747098, -0.4602176885666664, -0.0412668505599227, 0.2970482993084828, -0.24373370523396026, -0.19812142148689751, 0.22136771233043104, -0.011437375540180523, -0.14459199010443125, 0.10370513289054514, -0.06718088995890784, -0.07156182440688215, 0.03642769172028874, 0.23329587335040602, -0.016252184341679438, -0.0015227599731540945, -0.0011953535783338013, 0.01310467448047656, -0.02516620171255192, -0.08236919830020752, -0.0944411302930997, 0.09128496845502113, 0.13784044418018582, 0.010256314871008284, -0.00957988534408765, -0.1667203618557236, 0.24986511858272065, -0.2590310265901107, -0.15791704384962937, 0.3057880726416176, -0.12082541372127444, -0.146331375312549, 0.2774596371417206, -0.01805941199768423, -0.14151544137817576, -0.06230624574018914, 0.12547868494524467, 0.04877739789667455, -0.18804661968567196, 0.07628136147463423, -0.03265499545222607, 0.2583244090736075, 0.041451708480999896, 0.017693506551174583, -0.0017580680571024302, 0.0018995072674911197, 0.013042956104677655, -0.13247315173993868, -0.09928828686273727, 0.06749111331406554, 0.03808124721174355, 0.19337750884637955, -0.05740220554826266, -0.19234370213204688, -0.09789079826992074, -0.4179010121437967, -0.4327732310885831, -0.2477432437570861, -0.08078561507269884, 0.002663428310701931, 0.041690801960596664, -0.3129472177230096, -0.4024262536713158, -0.048367992555534804, -0.24064025956379023, -0.01442929588985267, -0.10773716095199651, 0.5136471776894284, 0.3365116827500727, 0.1374611740378881, -0.12510995081769116, -0.14848091965665758, -0.001438542255476728, 0.018185967026106562, 0.0034479409918298522, -0.10765594680623473, -0.02938332877896033, 0.023895681632545896, -0.04390930840056763, -0.08935791534731569, 0.15612289233719903, -0.28786243885310997, -0.07222377970595877, -0.014668427346031436, -0.35343089219647533, -0.2701113937864775, 0.0647168703775423, -0.3050232936852013, 0.015041486313531463, 0.024720198144848316, -0.07072823201247065, -0.05492457418791011, 0.06007261595148057, -0.14293972145979425, 0.07812748078096489, 0.29657420119824557, 0.16125489626456063, -0.28656308186548607, -0.07052671586564745, -0.0205835306518356, 0.0019999988704837903, 0.004800414047711643, -0.025218734514545867, -0.028610024691012138, 0.09556819528980962, 0.10431262661480128, -0.36695848895168437, -0.21333197314001412, -0.15300047737354353, -0.2747896221948712, -0.1048324062597885, -0.22823444160937176, -0.30305346396723915, 0.1254139204223744, -0.019849846372970263, -0.5090821488201999, -0.3834827390481121, -0.6480082868970336, -0.4154835593397695, -0.09288556112566967, -0.01078813125255816, 0.017143415459664895, 0.10270088548009866, 0.2334632812578486, 0.38021971545717054, 0.05695147716468255, 0.14083094925408493, 0.01948763676401488, -0.0022031746366426423, 9.997211689750529e-05, -0.016396545786447173, 0.054648192387396786, 0.06775448078078503, 0.4376583887754524, -0.11002163724110638, -0.13982092569828927, -0.27933276622139297, -0.002999119427268669, -0.34877142700946195, -0.20015542225515434, -0.060536655489862666, -0.0028832663145840418, 0.09392409089683271, -0.45219253163785506, -0.5599625061026071, -0.2367577052145489, -0.25041836006885354, -0.09562657651082447, -0.0760527835683385, 0.3074879391601228, 0.30166765675516877, 0.5022200090673108, 0.45211002109600346, -0.010137084173082015, -0.027811929402853933, -0.01791681252081375, -0.006480254219732913, 0.0021760432787996603, -0.0006786030420811843, 0.07203896109226618, -0.08520318796043362, -0.07100630062053653, -0.04882255116126287, -0.3029358088236898, 0.022543928851719918, 0.19886932558708542, -0.16699789263679843, 0.1982383000038882, 0.1164493824552907, 0.24186161003542006, -0.12264845755542787, -0.11969315879650254, -0.11818768087021489, -0.39450578028493777, -0.11805871471309033, -0.004016257499492623, -0.2638376238985961, 0.024131029873936456, 0.32594754715274765, 0.30437456939720814, 0.11794582535336617, 0.09690800480836871, 0.042076151764832696, 0.009247534421619448, 0.00270908795807389, -0.007719228268663254, 0.005745687188465524, -0.035041401638261284, -0.271444777992057, -0.18906989455336984, -0.1822071418045894, -0.2504090060449892, -0.21361650596709475, -0.021780118949697575, -0.19026033690560146, 0.0012504349561285719, -0.011110939711463225, 0.3537118494139976, 0.18241217174411856, -0.06399996822580155, -0.4533266312364454, -0.35340219825108043, -0.47501347178597403, -0.34813565031862503, -0.4262290624515894, -0.13359004871724373, -0.22218048601557244, 0.02777064550553728, 0.09245840698779972, 0.012591923509631774, -0.0013402949764141925, -0.0043270492144843005, -0.01010624409114111, 0.009870579705503037, 0.0063281813234319665, -0.06529847791792728, -0.37544390975264313, -0.24507957278933476, -0.18399258603256802, -0.2721081056972845, -0.20338120749907312, 0.03047847650596585, -0.19163594913068116, -0.16134415659563991, 0.07537233049012843, 0.27800853143154713, 0.2215879097308866, -0.46066528022396636, 0.033465628315619056, -0.44849895406387974, -0.3775191478609626, -0.11717668102288119, -0.13995956501911236, -0.3692567253947442, -0.1967736087497625, 0.06615974257709432, 0.1286880065655289, 0.07099332870077414, -0.02824487819495359, 0.011028238988324127, -0.0016115254256199342, 0.001418668630045738, 0.01145122249287434, -0.024002047457954184, -0.20526430604555274, -0.1540779676372433, -0.12746427644386296, -0.23836130766933264, -0.2518795090621147, 0.07338545293293065, 0.004331233008397714, -0.1547080846328932, 0.16804989773507467, 0.16844713071143874, 0.2274744555221842, -0.05391664253270714, -0.12420526563895876, -0.306255748310488, -0.1993034376832374, -0.08834853167250901, -0.3470051633702794, 0.03940631719751721, 0.05789756914806397, 0.2983221943214763, 0.22908150508094216, 0.115079753989391, -0.014051874712672425, 0.006283967880122567, 0.008729926369492698, -0.01829485671138397, 0.006845475194665041, 0.030550786540953022, -0.11524597647209654, 0.0016682038205087211, -0.1533482762512697, -0.16981738387901182, -0.1773827697946861, -0.3577246315583627, 0.031159774057253165, 0.08004324119214355, -0.09108083399636462, -0.10375528121682161, 0.06452958059682048, -0.3973087205280045, -0.35422838353831987, -0.32347415831897, -0.32545724443056595, 0.0002715567947735962, 0.1506424546453272, 0.11637086813424057, 0.19004004063980676, 0.06536002878485991, 0.12387560428414487, 0.005381854927961744, -0.052112407008246805, -0.007578996462254623, -0.00029338958686016, -0.013544349544913873, -0.0005843014591345665, 0.021183591520491752, -0.05149417120744426, 0.019337382315508952, 0.13048453046115982, -0.025226744483586302, -0.2989519475477075, -0.018867849513345105, 0.059870841121516936, -0.22167153448677518, -0.03636037475268986, -0.11688112331866321, -0.307179089518799, -0.26730867916917256, -0.13670312760577324, -0.12091220547260444, 0.03386743899176259, -0.07343551582612587, 0.06489573517031556, 0.2710986921273237, 0.5208983494499656, 0.2679910342635126, 0.1994499210316859, -0.035219848606861934, -0.0742942507618037, -0.007796441814416581, -0.0018601008626677015, 0.0025374705881016897, 0.008897852696202371, 0.0032167677964829097, -0.08766145856068654, 0.08302522328381515, 0.7089599045969749, 0.36008334023492583, 0.44251922242888475, 0.7042867625710385, 0.5501757100411268, 0.07730780847806577, 0.32635555353545204, 0.26835269626295266, -0.10440418660210472, 0.4344481113429814, 0.16193400170801261, 0.5941796936639678, 0.4480778052263745, 0.14775885716746623, 0.14944857379270426, 0.26320339830670564, 0.6259990819539181, 0.5572721517775838, 0.2866077871402018, 0.008813314305553854, -0.016092608422488098, -0.00374984791459138, 0.000556986426977515, -0.006377823835104737, -0.003719801552527054, 0.037529358437837, 0.16223707273589102, 0.4129348191435373, 0.8221967947557922, 1.1262739078570263, 1.2048526441263951, 0.6437192868023205, 0.9910198056032313, 0.9237418576034172, 1.0783259955044884, 0.8640655787609347, 0.722716813515997, 0.8714557791676171, 0.5009871923900379, 0.5885021000401135, 0.6914958874646836, 0.3564346613861769, 0.49938977373106125, 0.38310888341066407, 0.4941888041351669, 0.3432337931686615, 0.09715941247917585, -0.002262644924728971, 0.004131624539762632, 0.002108254056043013, -0.021523970009634744, 0.014999055516356583, 0.04112758281661321, 0.1276862458562104, 0.2542600860479251, 0.4091203505544274, 0.5516065883858677, 0.6556579956165555, 0.6484547539957489, 0.48167128777191154, 0.5818658385574896, 0.6481229522865578, 0.45760772912165026, 0.9068210091834273, 0.9154071618356563, 0.7736135817249635, 0.33794950169777865, 0.9401508394248109, 0.4738371981216334, 0.40519218620165803, 0.38723094176267053, 0.4034780825126462, 0.4306712847640694, 0.2896331044354581, 0.08268338341437205, 0.0004743674699962543, 0.006325784953524777, -0.017805028598638313, 0.0004174848267391217, -0.006674454276580067, 0.06300528769973311, 0.13925685588047898, 0.2158731843907371, 0.33533490749110856, 0.3058840775037227, 0.12295528458781138, 0.15357739144160623, 0.206840610552515, -0.018990692118324114, 0.03720173545040469, 0.10746289069468357, 0.44743122531328516, 0.22437771168708348, 0.38005980655927335, 0.2935162041015059, 0.3364053003272351, 0.3592435705790028, 0.3863164409448259, 0.29923150357653217, 0.4499033125259544, 0.26638921589578174, 0.15759676387193514, -0.003340337776676674, 0.009433559940354141, -0.0031098199214396522, -0.00016885911762379898, -0.009495297426562884, -0.004140213118688059, 0.06806445358677239, 0.08386722483075659, 0.05229127418004939, -0.055404269170755506, -0.1352930860183118, -0.18411784922607297, 0.09379529924068189, 0.1888254286267027, 0.1524261510101073, 0.16392854569680923, 0.35036985529889164, 0.16346528152545578, 0.13661360250384924, 0.5379544069166982, 0.4563264715184022, 0.2226933343042254, 0.30955057741696035, 0.3069584636671798, 0.40092871322540735, 0.2526791519262532, 0.16287613321624406, 0.032290904639441266, -0.03804430801872932, -0.010676021253008816, 0.005080312633180834, -0.006315730970271104, 0.008262612086052603, -0.008795766682100633, 0.03965408846865093, 0.005605918379918846, -0.0848481666511739, -0.40218402712127654, -0.22824167907147797, -0.19432903823722827, -0.12711308920344505, -0.03664573043123298, 0.023858563157953774, 0.15771422702957874, 0.5719821097233717, 0.5250716570125438, 0.5255592965510149, 0.46390661100787134, 0.46122133402226506, 0.036633203074387284, 0.21673503811246125, 0.3680229432363873, -0.041111815020117216, -0.04633523915964475, -0.06324378772503084, -0.0989848291820117, -0.013086014319464599, 0.004813042479096039, 0.003180584561509794, -0.001876556780753434, 0.0022833721162064447, 0.007390737285429565, 0.018293025268056616, -0.03988572616167108, -0.19399082057580824, -0.23772458679762357, -0.005048341489933486, -0.03822642307697118, 0.19277960146841117, 0.167293546963882, 0.26971028215313536, -0.04918835600060566, 0.2007374521214554, 0.1124352782487548, 0.00043432401846891773, -0.012898426802045658, 0.24546937808609653, 0.13943876220778958, 0.12518653453588777, 0.16947118530817676, -0.16307720246599725, -0.13116839222231474, -0.05946349659417764, -0.04142080014672261, -0.0017514894722839651, -0.014939902173772618, -0.010448076885118132, -0.0011275496189392354, 0.0075558331647999945, 0.013055736081353868, -0.0019284616309463375, 0.010470252007298713, -0.00537061560676219, -0.049390482862207104, -0.06678256468236905, -0.04284322706935388, -0.02815125731619616, -0.11069346375543923, -0.05725642615989943, 0.09152364411439402, 0.04314688579863682, -0.11434973620272923, -0.43210545919284865, -0.3120114623971765, -0.18358048173514668, -0.11779378925559555, -0.07543653818339369, -0.048017924146233036, -0.100183317296802, -0.08729891831792874, -0.0195249061772504, 0.0009889076908431527, -0.00821733743958697, -0.017582848377896, -0.015375204156267738, -0.009089580198022132, 0.00590395108808538, -0.0014585052672293358, 0.008188781889565282, -0.008331610396903345, -0.012001124445857964, -0.005057724560796534, -0.0005737697271835723, 0.008039331902014698, 0.002045053612639891, -0.009529378862837718, -0.016480166113599908, -0.0007921911156837511, -0.013822737023070592, -0.008020691546054833, -0.005802306844646771, -0.009104291688457817, 0.0027102854890933238, -0.010118299338556536, -0.0073375544635211325, -0.01032033041044151, -0.01520491533982089, 0.0007151999108530504, -0.0011046553987978688, -0.005529829333358683, 0.004019803192062689, 0.010541489643163806, 0.0209147793445253, 0.008238947031608957], [-0.0016337476844940145, 0.0016838205419983632, -0.006615685915331405, 0.002675684039109557, 0.0007016298325787208, -0.0016884009397660617, 0.004190678781145696, -0.0041012834944751456, -0.008650742065852908, -0.009466098814057829, 0.005372693732305597, 0.007061124905576894, 0.013426882125627135, -0.01326994537778687, 0.014239229985407414, 0.002651495451100657, -0.006120790631808561, 0.0032701888074918957, 0.010273035402605036, 0.007196203851247518, -0.016729279083436223, 7.963746921048314e-05, 0.015491169220799387, 0.008102470638651172, -0.005789588244259609, -0.015102267168434968, -0.0026858724031963667, 0.004422622701480959, 0.0017037644755623109, 0.005383633389715865, 0.010682516168551717, 0.012969941473911515, 0.007913058193180725, -0.012633901104605001, -0.0056390155339464225, -0.005651218423481377, -0.006117452005283496, 0.012022910933845712, -0.00642145270105329, 0.003739494548543057, 0.01580587336279907, 0.015537718794091212, -0.04155305170105725, -0.028611826849575063, 0.006522601903114445, 0.00037030460091998013, -0.011584736039490411, -0.001996862512557593, -0.004871757648137989, 0.004210863925702845, 0.008186222550994625, 0.0030029731321324226, -0.0013863671470719942, -0.015294545032120521, -0.00338999878497823, 0.0029303323351423396, 0.004140293009377302, 0.0030780371368014647, 0.00816734205107833, 0.010909882703987175, -0.0005422454951617344, 0.002763698777361043, -0.0020360250688125064, 0.00784591334742088, -0.008148017159136874, -0.057695549045797836, -0.020229391777470285, 0.038281942317443585, 0.010644946149527235, -0.007836658372679044, -0.009200782523367408, -0.05872757129221969, -0.04341756793534734, -0.027270564436341387, -0.00908886438902318, 0.011802624200378673, 0.0069517282441063965, -0.0029557532845453822, -0.005052358895320588, -0.0199921851490248, -0.007650512996586763, -0.0069442459204389646, -0.002671619634278366, -0.012290093378399942, 0.008503640736867372, -0.005646733207513496, 4.100450312399001e-05, 0.009676922210078655, -0.016933485755521366, 0.040885790392056, 0.023114563702536096, 0.019103396194989623, 0.08017684200387923, -0.02740471090181567, -0.005287064164558472, 0.2712327296862985, 0.3192142173614566, 0.2975477858250141, 0.2763545758390793, 0.0017656391443240682, -0.054222359018790425, 0.08572982309483235, 0.05332426196025386, 0.019427626421693562, 0.07567479881755113, 0.048102662250948766, 0.037236326808380946, 0.03236565132998674, 0.012578986377464478, 0.008500574500656508, -0.0022371669456504495, -0.003436816398449477, -0.012128982839745301, -0.0065198366076250685, -0.006806491613182505, -0.008403667682290877, 0.027530430372943934, 0.0907899792267627, 0.13958234459262908, 0.2063659332435566, 0.21082695971110896, 0.08057550382133816, 0.22006927760452102, 0.5203874176538476, 0.5221068804204617, 0.311885590424065, 0.017720228378954924, -0.013539756997492347, -0.24555907473382352, -0.21149245584126122, -0.11825897601826243, -0.1303720736751304, -0.03676254168221536, 0.03660236198504587, 0.07987822480372998, 0.03676391943702025, 0.06102737457917325, 0.015124659544429883, -0.005418086753701925, 0.018668772885429247, 0.0015125291383446412, 0.009770361649074695, 0.0006974214539364208, 0.024784409275774553, 0.04354321124907716, 0.012335439081945012, -0.017576599672642048, 0.07891645760760284, 0.09117442587744393, -0.07931424402964997, 0.13185364775235345, 0.42693052711560003, 0.2405411162716581, -0.03417860574985348, -0.12235313120148751, 0.05934262860004065, 0.05081140091350658, 0.02695281521017368, 0.04645480865300019, 0.10704218346006655, 0.029974680982547963, 0.04642263557588808, 0.12200279451232449, 0.15350820335667537, 0.07993878820273258, 0.031464683180039255, 0.013668477841365032, -0.0025692997532610704, 0.00542508301293958, 0.0020333349062621273, 0.014166446964739258, 0.07265572315050435, -0.01911676590831358, -0.17321108580502165, -0.21244614107360998, -0.047983269909838026, -0.001767072559168371, 0.03160442657330416, 0.1552442817866258, 0.12743010537415325, -0.052923482199940565, 0.03003612568771605, -0.05822899286774849, 0.17183642708811792, 0.3215027641079786, 0.1444766333592667, 0.25039888058175863, 0.08046944822857488, 0.1074354595718787, 0.0992239664539545, 0.17208936472565176, 0.16019959225389693, 0.12765917371737157, 0.047009597369251005, 0.00903259359911377, 0.009187968649604809, 0.00777756396680446, 0.0008140907519483878, 0.00173541068470287, 0.0020464651363567214, -0.07241138625510286, -0.08458035095142293, -0.040925788402119655, -0.19395073826586834, 0.11685706887775893, 0.05237721181717103, 0.25662159089019315, 0.2699597176881917, -0.02811793399451593, 0.1593575547471355, 0.2334446442674593, 0.3276748487869005, 0.33397865321156645, 0.285044391538305, -0.03440532103439455, 0.23578619248856797, 0.277040442000516, 0.0019366064498301863, 0.07125567146868621, 0.09573413227787925, 0.04391178445976526, 0.04681106186391755, 0.015108719433361163, 0.0017598937847773284, -0.014998519054430916, -0.015084176457708957, -0.023150891665209124, -0.05480350140376577, -0.0913711865285635, 0.06979525132280298, 0.09728453523125845, -0.19656627612124072, -0.0688858087694857, -0.04834428464469632, 0.2567299906182673, 0.15022321262148416, -0.09729880889496725, 0.033937014079307326, 0.02010696128041986, 0.14994177210400148, 0.2836254980718762, 0.1566424881519369, 0.13974163950765628, -0.01175565129878084, -0.07558883125891101, 0.010804263090739204, -0.08253980216678107, -0.09446872196879036, -0.04370665645852083, -0.0169116966057207, -0.014755152699310839, 0.011159483341918908, 0.013624136730324208, -0.03406361914744873, -0.027216460033036585, -0.0029523695401435946, -0.11719139958089654, -0.06029881414273297, -0.18102487502647646, -0.16933928007926935, -0.28642927834898857, -0.06438456168575249, 0.08441814729872177, 0.02187724557484604, -0.13700298460977012, -0.1491796673570285, -0.025460917156403258, 0.21793122467105255, 0.09058255992500475, 0.06530385598753624, 0.09856074069091801, 0.03266263171352079, -0.036500191797079855, -0.289498640218619, -0.16945772170931733, -0.234603723574629, -0.0695319644958015, -0.02354490187842828, -0.03150599104073576, -0.016909806173493712, 0.004350610296348392, -0.023411608400113457, -0.015717770624861207, 0.025065861838439736, -0.18882169688326486, -0.19809069341959132, -0.23675874891818904, 0.09588547767863961, 0.13159622210776856, 0.120835320031417, -0.13901024755671967, 0.1802846415797312, -0.27898830582178014, -0.5394481235783597, -0.03600635446507129, 0.015880296815159477, 0.17422045267023928, -0.07173758072779948, 0.04458613305614145, -0.06525392430495133, -0.002557024216174466, -0.10458921877397195, -0.056897626735542835, -0.09328809220425148, -0.155470956567471, -0.0878905975904511, -0.04780310925901226, -0.000743297088699491, -6.84534675411489e-05, -0.016728907185162782, -0.10914600652223441, -0.04077188221626425, -0.2706625422878303, -0.14145891763673193, 0.04271094314982822, -0.07706271155473554, 0.1840562846618182, -0.14010866092428437, 0.019428683238873888, -0.0890374300434384, -0.2415941716128586, -0.15413869393168322, 0.31940159488891406, 0.115064611740092, -0.1827379218460624, 0.02240620759555926, -0.08010583882532071, -0.4518190331196864, -0.1712785385493873, -0.11197390495221728, -0.12454948639932237, -0.08729907087291879, -0.1014484902162286, -0.09468297338811989, -0.05793971664834512, -6.035142540021231e-05, -0.007394366959412208, -0.00743282770413861, -0.0905304905656238, -0.17600012628077277, -0.21040103706225824, 0.004348034551897305, 0.02333037029244274, -0.44059419894399227, -0.3665056337588436, -0.2960252990841256, -0.0368641557034232, -0.1768056636166659, -0.13798352944736367, 0.45477684913490596, 0.779009777021606, 0.23285734844688855, -0.12244498843065346, 0.07201577560885859, -0.09343953501245564, -0.2210575008542542, -0.15653072021864728, -0.050893370689701865, -0.060522449611623036, 0.17776459384836613, 0.05851315029400883, -0.08994961358978275, -0.025123342922048153, -0.010769614019397545, -0.008393195940758607, -0.023314295360264733, -0.06822420020615586, -0.22459497229405612, -0.08975391487781212, -0.10324149769185009, -0.15098433317909463, 0.11755077616518513, -0.020706753943038742, -0.14347228516338462, 0.0018241356860899606, -0.07867556098738407, 0.2778241306484002, 0.6134371707528639, 0.5266500481575962, 0.19823293123222052, 0.5360957384514402, 0.16967113942914086, 0.3414633151487466, 0.22079593815555967, -0.04075718853983628, -0.024133761128018277, -0.12938943323182084, 0.11301146606998466, 0.017968940437502096, -0.09029658789936815, -0.00946830541679511, 0.0007062678031293736, 0.00426024284297164, 0.01802468851535586, -0.028003854887498757, -0.15579110340592087, 0.07847998015085546, -0.171049937026849, -0.044577045236351996, 0.04243080201742589, -0.15111519174114638, -0.15783541354322422, -0.10462391807265559, 0.29225392551125773, 0.6698279804992305, 0.628265482047639, -0.03208670826057726, -0.00564855629128298, 0.49606315597703693, 0.18264241989303423, 0.1387669089162394, 0.17271863816500782, 0.22948320955795307, 0.13947147163544563, -0.12125221323996722, 0.005229931345794033, 0.16239489716116004, 0.021388902433938012, -0.01793802022917199, 0.006374087155078059, 0.013959085244825368, 0.03599034537390208, -0.0007991610395840943, -0.11457001098151005, 0.06415190498126971, 0.061206758841997465, -0.15420839576804415, 0.019069262832339357, 0.0335746971651968, -0.08775644689460266, 0.4576361503841025, 0.7652474335294276, 0.8434583032171605, 0.36764394842601705, -0.3014802170792612, 0.04963153157161847, 0.24999816242800585, 0.30923438653787905, 0.36997174730680743, 0.38451704332917547, 0.16299858343648352, 0.15731566287521123, 0.08644966661261211, 0.22758572118429488, 0.1454122597221793, 0.021715309553125745, -0.03134045542002049, 0.003872145372734709, -0.006456577574659346, 0.012197121662828932, 0.030799788086944, -0.05782675658661343, -0.0772479701857351, 0.17543501843403286, 0.07562988889782603, 0.16525849178876, 0.2720232535799338, 0.3277886400947854, 0.7205805182227241, 1.0171867122277218, 0.5188276853201976, -0.02421941362156963, -0.3589580473635161, -0.13771590038042633, -0.20728130026042468, 0.12200048027812127, 0.39320286020329576, 0.017373955561764375, 0.1581404366659965, -0.032124216035403996, 0.20810686481739682, 0.18682224505172182, 0.1385446255116536, 0.04502696326612024, -0.01408009146705799, 0.010846102709335266, -0.002632071391934875, -0.004220963180622608, 0.02474548764242642, 0.03475689588834734, -0.024477997956392595, 0.15530162673266676, 0.34495092007817063, 0.691907127259052, 0.5341822018331773, 0.7369810567856241, 0.7640840708534435, 0.8290835925904128, 0.2573044551583308, -0.5197994753853166, -0.1883396891051726, -0.0946769739746903, -0.1175943735556076, -0.1074954357871084, -0.13642377025187255, 0.2818023816136656, 0.24041125891396162, 0.0005147125321365703, 0.2107669809513376, 0.13017392618746043, -0.008729651281341119, -0.026345115039872382, -0.028112758992844503, -0.008481303660342337, 0.004478602330589232, 0.0008317229822444584, 0.02502447255936599, 0.04189905747703724, -0.07093904405294107, 0.30505862696196245, 0.617543368180378, 0.7022356184003044, 0.6084447853372361, 0.7058791416588981, 0.6516278728280701, 0.5439557772403532, -0.1501727016245239, -0.6123889148364534, -0.5689736937784633, -0.24886568135317974, 0.006646714543906658, -0.2402770958388258, -0.43412529010357986, 0.09647825316766605, 0.03305107710649189, -0.11009983411669845, 0.10502997174004956, 0.20310443697829675, 0.008277786454213076, -0.04545052814458061, -0.027249472501282797, -0.010030819885451802, -0.0005784510003275041, -0.01657589246574504, -0.07246885360209905, -0.07168259265783877, 0.004654152229090689, 0.46913400908786396, 0.5188418317778821, 0.6025883194692364, 0.36018275512333725, 0.3286543281646232, 0.3906320997029661, 0.08534780149426836, -0.08213806111981413, -0.6378292684242349, -0.3842168245724158, -0.402169365237532, -0.2099917847982821, -0.365726107871669, -0.3635439355425884, -0.19233461194995352, -0.19248147228192639, -0.08583808375143041, 0.16730904633876986, 0.03364700931665187, -0.05839640591899597, -0.011619255303315625, -0.01363093147931727, -0.0019643268646426545, 0.012329960235835578, -0.0025987265789347964, -0.05938798979393016, -0.032543133894258766, 0.12404245315139366, 0.27076730755635964, 0.26948547429803443, 0.3011555642221607, 0.021651580129747855, 0.1532875074195906, 0.15447147885991055, 0.03476675629551722, -0.2807447451135951, -0.20610903477215137, -0.21963949753941067, -0.3352665679627632, -0.16066213393299825, -0.12030668353402496, -0.29474449892646676, -0.11080508025814385, 0.05290543141134546, -0.13459946932582045, 0.09790497768155222, 0.01642987700952443, -0.036193271480569486, 0.011082098194151839, 0.004344050979010308, 0.004173299518779959, 0.006615546335479101, -0.0009704049804288497, 0.013998335102717958, 0.06768457314744393, 0.15822332560278535, 0.007366413125175385, 0.07897959943112451, 0.3288754330746268, -0.13054819199503243, -0.06612538402547934, -0.31514679444522564, -0.2798106077538855, -0.059516784741262624, -0.07177626584358505, -0.06292279358779027, -0.42718002614965334, -0.25865088985492934, -0.31999307271568334, -0.41956014916063383, -0.012661233591592009, -0.11907098778053264, -0.16554871840988208, 0.022596002681435544, 0.011676421897786853, -0.08301755799634357, -0.04539450370479577, -0.0015997796948705961, -0.006674372833698039, 0.003008051901230333, 0.0008066949694808621, 0.012863517749618936, 0.10288449323685266, 0.09899181440109517, -0.05698250037790513, 0.05159799776757954, 0.11324337934165767, -0.03482788513381941, -0.16358508515898598, 0.19816579192443018, 0.1432331962491141, -0.06223901172442451, -0.03138500031736778, -0.12689062787407926, -0.2125758104737338, -0.054882212904270165, -0.33591280860387673, -0.42089476444496343, -0.26240900322239535, -0.13569719993330104, -0.14264161398476433, 0.08739347482449662, 0.09220398541184116, -0.027441642862026813, -0.033881393489792695, 0.0023695132122233545, -0.003916630440602777, -0.008768620068136777, 0.003273302316133171, 0.02802046996461003, 0.10016163518023986, 0.07742869641246748, -0.017488965612559575, -0.22690284664479135, -0.10883242173878142, 0.11758209372938896, -0.09019853602479494, 0.2325414765126381, 0.3752592629036025, -0.022943255319590388, 0.030239076905034627, -0.07358385495417087, -0.10447391161641767, -0.2819245923731431, -0.16914482111022971, -0.2101694467183819, -0.24667937575862545, -0.1475586207975591, -0.0982220979168728, -0.011147975151761632, 0.05167918643745738, 0.03901223389705541, -0.004769451380576394, -0.00402566300802272, -0.006729582746973925, 0.012466949025344776, 0.004937034824889929, 0.02788340662828196, 0.06571351177747031, 0.11371653143415592, -0.004536258346699841, -0.10803311144607894, -0.03572666363752296, -0.05713769220544652, -0.1261452943611783, 0.07141831635333251, 0.10118411124587219, 0.14912063534921738, -0.0720506096367669, -0.12533670545865508, -0.05694213057216313, 0.07077079563190017, -0.28235422285488504, -0.2502330362737274, -0.12829194667401192, 0.01646823478060681, -0.14259764381052856, -0.08758905281180536, 0.04862761747199757, 0.004493499145074603, 0.0052316706536438065, 0.0004191533426297023, -0.005743974041789719, 0.000983277880605132, -0.00826036892750224, -0.008418863046697705, -0.002242295036312794, -0.015188656131304094, 0.17281298214213106, 0.20103240960182422, 0.24597576373783656, 0.08797581596349024, -0.02438883809675885, 0.23825387743228937, 0.08605048721528229, -0.08359409307083611, 0.08106604327288193, 0.16752273288395095, 0.07051930800211854, 0.1330014893391773, 0.1167396918909045, 0.10715488936955439, 0.19192970602258083, 0.13410173210178694, -0.017018006443856867, -0.07618480640836847, 8.900874566308419e-05, -0.011789308793632844, 0.00735248643248529, -0.001911585195307125, 0.001555049753697769, -0.0031948582455263133, -0.0028544875373122734, -0.005769596382038807, 0.008541774595051104, 0.03010223412344548, 0.12797190042164033, 0.16166071970846616, 0.1483854917559698, 0.06585906734306607, -0.005987743446767566, 0.1825644009907801, 0.1753918559495142, 0.21448662891728573, 0.23871273565973328, 0.3095233679386608, 0.021114271460810605, 0.13526667078248342, 0.13644649729774957, 0.15348970502838488, 0.05881254708928188, 0.05255148456360309, -0.04986761235215082, -0.0430958441488285, 0.006273675998814778, 0.003441074791820623, 0.004790767052916821, -0.012035800112825538, -0.0002515821231332563, -8.881822611021261e-05, 0.01791170956646173, 0.011196843369002858, 0.01628083641596034, 0.011473432297939847, -0.016028532485815095, 0.005167767239454532, 0.010242487015743344, 0.012370570400816567, 0.012115422600572884, 0.017062082335717633, 0.04969100783672831, 0.05755998220059818, -0.023807388324271164, 0.05265674263931849, 0.02889397601383625, -0.008529574442245624, -0.007935927907505903, 0.06459898517970471, -0.004525838355340485, -0.025439782012623455, -0.055657219592383324, -0.04415892451033158, -0.0029478139085999332, -0.003206563546652597, -0.01292454905480846, 0.004067561791407619, 0.008030863185000828], [-0.006716428000064336, 0.011777060785164592, 2.3829973679248006e-05, 0.001391174456491347, 0.002651532529862617, -0.001776892640001777, 0.0062222439562741065, -0.007373668296406785, -0.002730450249542034, -0.0049300837359271335, 0.0016959265575599088, 0.004414118316946794, -0.006730826661605625, -0.017129302047464892, -0.017248658291871558, -0.014546183912916047, -0.002314829702225524, -0.005022782852382731, -0.002494639459126723, -0.005321262107258468, -0.013340889214243402, -0.004729418876635415, 0.005759907742698241, 0.00022723644439614306, -0.011397134934413126, 0.0030427717312670535, -0.0056935250753444204, 0.010378511056775324, -0.002597828346634621, 0.011867804000531846, 0.0048528979309476585, 0.005390044443077064, 0.004760577820384919, 0.003669875442863624, -0.0012772253150223614, -0.010159159445691396, -0.01164521857662364, -0.0016783589910959712, -0.027241483016626256, -0.013645179570116985, -0.03496355532617908, -0.029410819617366683, -0.023134951433798023, -0.045983009338858155, -0.007999417845943001, -0.00602244101972247, -0.016437618635406954, -0.013174220147540418, -0.025858430093412238, -0.01106312947533868, -0.004034618356557372, -0.002378987850992015, -0.000990629029027256, 0.01566178889182423, 0.009086322237142395, -0.0036543448421373736, -0.003701857124376438, 0.002127679781232406, -0.008645527391305613, -0.0005120775478878862, 0.0031525690619854715, 0.0037742445198199336, -0.020956467073276724, -0.04198348850883054, -0.045713300368370985, -0.06669125590606678, -0.1721839609189959, -0.17726689926010578, -0.17549022246553442, -0.18489429328874527, -0.1963079337640527, -0.22162185520491415, -0.12483183133430716, -0.002443865429399262, 0.0417536509565129, -0.04105079861864283, -0.062012942276692545, -0.03984191582179641, -0.03953839090758043, -0.01943334337579968, 0.006212971129417446, 0.0038320426980404682, -0.006338002437408159, -0.0038417239977780286, -0.014013411852256656, 0.0051411876940851515, -0.006682155777682421, -0.0032236703337503248, 0.0029260293091376214, -0.013600201432681907, -0.0339232317629819, -0.0451989675008511, -0.04410887642259618, 0.003292456480919976, -0.07719707555735296, -0.15039600532228106, -0.21082881835641923, -0.2895905430621842, -0.23995307199845356, -0.16183986810282053, -0.10469269584562053, 0.016999390721737506, -0.07276906113081309, -0.08273741175476745, -0.12998413955695934, -0.09457067183252192, -0.03569200844721245, -0.011540710132871857, 0.03282441452162805, -0.007047045775974552, 0.008199375489201471, -0.006583396930969906, -0.0033666039860211576, 0.005876395231992663, -0.004478293839068594, -0.006923136924566546, 0.0028701758968374632, -0.028695846156746065, -0.0590001591700278, -0.030285242246531775, -0.022989278471576512, 0.11350685262213596, 0.0029035037999617123, 0.130985268747112, 0.22422527292503355, 0.11795450837018326, 0.1487852938963404, 0.19374816801075456, 0.1974655142825406, 0.3765518844596717, 0.3375485671701991, 0.27454658979568664, 0.3156435712858882, 0.29074583236034196, 0.21800818615734294, 0.14863105557367723, 0.1332326541539875, -0.0017281467507118393, 0.011714957584827995, 0.0012305728677395266, 0.013089093638273555, 0.013198675537847211, 0.005302442118229891, -0.009240484227112523, -0.01788511257064689, -0.006945507112677672, -0.0005281481582961832, 0.07431053384264477, 0.019506037217029537, -0.07700363691596261, 0.044091517144044565, 0.23947630553615212, 0.3091492216060444, -0.01156298411093963, -0.09853395839668012, -0.13989507062604642, -0.07618006053899512, 0.426441888214242, 0.5791795226536496, 0.5096485202881978, 0.5204763075704293, 0.4528687776214961, 0.46595997904442976, 0.26378222162777293, 0.1656405853115298, 0.04628650196991552, -0.019289657810190524, 1.862078140559817e-05, 0.005584377909619796, 0.006745217846786357, -0.01138480582877553, -0.01932064337837459, 0.021180044073017282, 0.1399599165400956, 0.10676281676836549, 0.059037909704021486, 0.06194399356055824, 0.03321058419070354, 0.1077197216364699, -0.03892716416736527, 0.2210798600271552, -0.00377218972138844, -0.38011817593854197, -0.704422256563557, -0.35609563945981126, 0.010808389718376861, -0.1401710669812431, 0.5196205270720441, 0.5091157930704863, 0.25321429299790976, 0.37902882416235206, 0.5080117257424147, 0.35230071355780096, 0.13179240557690533, 0.04555106598868356, 0.03588867155659441, 0.00746150196062993, 0.00133388239269638, 0.006325635881740535, -0.0006448615337867355, 0.01002629858555746, 0.17265743239757816, 0.07368547780075387, 0.0903467193202763, 0.18955019132505657, 0.1382570530471526, 0.051534266488530406, 0.03211371404382541, 0.0984833055410598, -0.0856602288062696, -0.5253747884739769, -0.7152160794684174, -0.06081909909045676, 0.49066304323959403, 0.6468851806165719, 0.7817170466323097, 0.5295074316593016, 0.4095051571163948, 0.4051692221384865, 0.37673525016146764, 0.37709674165928525, 0.1885473380788512, 0.10096342387592219, 0.011132529981363501, -0.002132407801371979, 0.0015024842271163285, 0.010755475294351157, 0.018872579974194767, -0.06176412740252147, 0.08695561048003045, 0.15008841132957462, 0.20483587726624028, -0.015035039838066483, -0.013774762832977757, 0.107345633487948, 0.17187936525827754, 0.3593685368236228, 0.1279823357002848, -0.5633141198069256, -0.5178097473550259, 0.47762465240841673, 0.45678080839096097, 0.5109254790573545, 0.44442756791829807, -0.026738581203303986, 0.14554160974687722, 0.20681007680759092, 0.07301654143816276, 0.2642232258973575, 0.2984753502948436, 0.027228579726157796, -0.00243911059203663, -0.003043088432707209, 0.0070333213340248195, 0.0033648657932839163, -0.0461826695647934, -0.0877725317628368, 0.0669954286616558, -0.09229659691020305, -0.3013654772191263, -0.06583330872326025, 0.09424586123467259, 0.04524813954447324, -0.23661422781499586, -0.17273819989173927, -0.3370711103122803, -0.8640218607595636, -0.2472177316266008, 0.5311805880437384, 0.24095490493168947, 0.04736731924491895, -0.03670614249300806, -0.07141257244031153, 0.10019956581849647, 0.05449394210110579, 0.15846999783326665, 0.2882479921831292, 0.20021465770102642, 0.08876218201575463, -0.030221705349820976, -0.003462934405587983, 0.011594814306214687, 0.00260873830345238, -0.09780986744546458, 0.05155044112979584, 0.022771046220385355, -0.24449303277603832, -0.2486875919057288, 0.009052976037899644, -0.10705388013483975, 0.044064654326652776, -0.15222692751732023, -0.534790520755678, -0.747648226118781, -0.5951286105693055, 0.2225938616120733, 0.26304393150417726, 0.29226046480565043, 0.013747835862825162, -0.25167099241411955, -0.03145493674261145, -0.0087556854096394, 0.2896590809121671, 0.3070422636111097, 0.3753135170502542, 0.1565249639413941, 0.07107378242279794, 0.006166434479893908, 0.013823918825086743, 0.006032769862982793, -0.010947581002154743, -0.018517667541758445, 0.012425600622286564, -0.14924335169719474, -0.2884813360094277, -0.19479596090932164, -0.24240020017666286, -0.29432525844272545, -0.03502408173948749, -0.21273621972967355, -0.2497713302636202, -0.29481426583528914, -0.18971242270008967, -0.11310548734056292, 0.16667971011417795, 0.055371377275420956, 0.04843180393378375, -0.12476241890467038, -0.33783644423688197, -0.3023081885522089, -0.04677697280263871, 0.1598345937327088, 0.26551950699650184, 0.19523976089980485, 0.079906582625335, 0.019665516743189736, -0.0017201397865932552, -0.004856424109335787, 0.009169999048394774, 0.005630686578846649, -0.13821650984782494, -0.11664778518526746, 0.0008434606154007243, -0.29099931740462937, -0.33990095203681076, -0.41579940178097574, -0.0919381104304578, -0.3078883625436777, -0.29072295447583024, -0.004453861397363521, -0.16937620452725854, -0.27901656499128746, -0.2022703473382225, 0.019880478028779288, -0.01706646704330533, -0.11189253122410833, -0.14448194934919517, -0.10306467132602164, -0.28585649458325757, -0.22333362260851194, 0.19497954447740923, 0.13507670297905483, 0.05268089711134611, -0.01769287238327703, -0.005472034184919806, 0.0018764488426218778, -0.012653817298022436, -0.03358670021266625, -0.0955101957928131, -0.07298453909020743, -0.11630125430403677, -0.25687838219917497, -0.06300688075327081, -0.19796296231744046, -0.07981504673307405, 0.20992080141022892, 0.18006107267543794, 0.13326953966707067, -0.11546196450523231, -0.023094700378809244, -0.5030881308314176, -0.3344320121637312, -0.1852377484580402, -0.31365646324657537, -0.1775316145196596, -0.15245968594517512, -0.11272647011264517, -0.19911745193557762, -0.006716589425779719, 0.1456522052955743, 0.045488407036687946, 0.012341064762983668, 0.007250368868294828, -0.0120135899342674, -0.002968577874074214, -0.07628058292981223, -0.018966442812453247, 0.10309532798649602, -0.32055429627041737, -0.3208490685657035, -0.40202250871691275, -0.1249729655640971, -0.06226251720997385, 0.4392304297056208, 0.3450790652103505, 0.0011465404078491834, 0.17079915601838086, -0.0007903638343490114, -0.3263842620679229, 0.019125897692913337, -0.1464998823762477, 0.09206536593335721, -0.011469945965216105, 0.13791339758788726, -0.15967666096954808, -0.12039292626704541, 0.009292369388570703, -0.030518346778954004, 0.02264724963552224, 0.011506539439046623, 0.008879500258959224, 0.00972651610987268, 0.017496459165635716, -0.025413435009050342, 0.00047349519174135407, -0.006305266160879631, -0.32404331832302125, -0.06366508534544213, -0.3859679232387888, 0.009374764968594108, 0.14930812421589518, 0.10725413308013122, 0.29204726511934176, 0.11144677322437241, -0.1328881506171574, -0.09934730328741637, -0.3167531419509998, -0.17716383790143608, 0.0887374707650983, 0.1258705393478212, -0.187908601033987, 0.0509632349595538, -0.04311011077363009, 0.035879085374410716, -0.07869964979567631, -0.11210528826364459, 0.034635183435262715, -0.010775281401482605, 0.004048321775670687, -0.0009535602573841116, 0.01737570050776656, 0.019536866914043, -0.03591012461758894, -0.03931587580770848, -0.2517515149530736, -0.01288699052575768, 0.19971227781364953, 0.2104654014129357, 0.06933807443723218, 0.03591729442299972, 0.2911764709207317, 0.1615967907128739, -0.19404244820831462, 0.22588575512542927, -0.049551331808300264, 0.15961588289721432, 0.031244209639911053, 0.16012363103939675, -0.07974230218873062, -0.027125317406582732, -0.02932464082643, 0.04784663120404346, -0.08021164420580443, -0.09876260220067823, 0.013352508657086608, 0.013564639541354197, -0.009328642719825716, 0.00490535508720063, 0.019168918252736516, 0.08395444589618888, 0.16294033675409153, 0.11582892553967442, -0.21443004969345159, 0.04025332619637851, 0.011944361769138571, 0.0428183735799813, 0.009387212544597462, 0.20006018015181132, 0.1188672609005491, -0.0003804840011395237, -0.11283048453376018, -0.17284387803643414, -0.14902525458788712, 0.19493737744241835, 0.06333185865343235, 0.2809299193819178, 0.008140171818770796, -0.04237291622418128, -0.05621824643639844, 0.02171746001943741, 0.15110653411281896, -0.0339063912962201, 0.014089607627960571, 0.016197548175308076, -0.0023383864087322603, -0.00913986528090306, 0.01339120982168274, 0.10915106352047439, 0.21886296474654607, 0.22318167685827658, 0.14759725368341903, -0.02714041819667941, -0.028561037347737156, 0.27499925410689674, 0.012135993516753566, -0.04812999727268474, 0.2191678520419298, -0.12883558631972244, -0.18733436249701185, -0.13889335638009653, -0.20518010828011715, -0.04659131503330988, 0.04887553937410376, 0.10934584926538385, 0.05285275358000886, 0.12447869280701536, 0.11442694127072614, 0.1950527567416929, 0.2834249596883548, -0.036876314757624616, 0.002089316920526062, -0.017841367510626413, -0.0021353104389753197, 0.003532338599610525, 0.025917294981681993, 0.10634100960196807, 0.21586091002067045, 0.45628097880185897, 0.3887061007578669, -0.02641542766251437, 0.23143568463063988, 0.33660443162642706, 0.1784174115698437, -0.04634038527424821, -0.03390729834201895, 0.2040368551449217, -0.10968911133024946, -0.06852495044547788, -0.2432141995154507, 0.18589976413526024, -0.03283817286153574, -0.11540393213357873, 0.27231593717275293, 0.3730220629413105, 0.24608546328778103, 0.2447750401685335, 0.2671352189159765, 0.08334042607315047, 0.014676496368947226, 0.012775334971749448, -0.007300801838147722, 0.0263875023873217, 0.008484044880285192, 0.0790292024265246, 0.15140200806874252, 0.37052256933636013, 0.597132303608619, 0.5937599202787276, 0.6067648767372186, 0.6269880759353946, 0.419804071487024, 0.10128756668662196, 0.08346195793515193, 0.03286127550071134, -0.4177857667995857, 0.21176055509707264, -0.27540878797168955, 0.07430292595256816, -0.15850376616645226, 0.027699548470947175, 0.4132240481732993, 0.49949678093478805, 0.41593351433490633, 0.32058592067722, 0.12268516948755852, 0.08880959263906378, -0.010914311031395644, -0.0017381150946605378, -0.005159645425345875, -0.008112074893826553, 0.0018371825520929984, 0.0098356337091734, 0.08625722111732803, 0.4019023959489581, 0.5101589037010869, 0.4836065654427018, 0.5663031451293702, 0.45198136686060775, 0.2534883995229554, 0.3418617185322722, -0.08908111387763984, 0.20260906788430008, -0.05895440381464931, 0.22130229012528235, -0.05892695072559979, 0.057340384566284076, -0.11684346094293113, 0.24821212485645783, 0.32990082801601506, 0.4552153971702039, 0.38828518581891613, 0.175489691571284, 0.07669545742624072, 0.10231182637281117, 0.006631342381418934, -0.005277807728334867, 0.00977121223606123, -0.017075624978143352, 0.018761066691636717, -0.00959102188256154, 0.04905561630088781, 0.2684742372135355, 0.42641185907493984, 0.44063812400940783, 0.3367244078151404, -0.01285959266736937, 0.07726906265767415, 0.40225942706219686, 0.3476812732846125, 0.4243003104734761, 0.2718218061593319, 0.3551997411607699, 0.2203234860577661, 0.22044126314648485, 0.28473523436111836, 0.3617978007988942, 0.11713808775977948, 0.39361913224321554, 0.27691390761169876, 0.04487415433273501, 0.03148950159999829, 0.11975979379628077, 0.019241638458777566, 0.0003278322407892154, 0.006602728447379332, -0.0007789900837390671, 0.019296470719620342, 0.01646145723898091, 0.03317301247513473, 0.03509999405489162, 0.1369969140389646, 0.08750268914715001, 0.2562488776025501, 0.21258636277890372, 0.2863092498075799, 0.3333358428366414, 0.3895019818519695, 0.4649252307213752, 0.31184590579752836, 0.4429673225919402, 0.5927734926554461, 0.24433861173879443, 0.48407002159320967, 0.05878992201205496, -0.04246015161641757, 0.12932798757108016, 0.00916053152412912, -0.11062124777627697, -0.09526737931857138, 0.10455707333242423, 0.015133274219256759, 0.00529936992026997, 0.012013100934431946, -0.009507351483325838, 0.02631187022543871, 0.0380367931740012, -0.06339026716210416, -0.14759161658669054, -0.14163446265826604, -0.1955206352556505, -0.21282359447214327, -0.13258241178036773, -0.04276745534914197, -0.018951864024385402, 0.20631678541922766, 0.5174341265220916, 0.45135548669108144, 0.12841711188092894, 0.31430354677293226, -0.13809861674563323, 0.15344610640473078, -0.17873325103394508, -0.370687769684421, -0.2288105586602887, -0.19493345121352876, -0.16695746176782406, -0.011187490150680539, 0.029583131459810577, -0.013387321071933337, -0.0033213259465392636, 0.0023039483314413107, 0.004734210316979338, -0.007753341141406444, -0.003451828504250868, -0.12429525789199454, -0.3205700771107749, -0.4135003657686045, -0.39259588404674706, -0.4511666324845606, -0.3883684521628875, 0.04951131252958565, 0.03707212603828868, -0.2616023922612901, 0.004084034538641123, -0.052621978542800554, -0.01755200156030634, 0.25039191817349277, 0.1965592493702865, 0.02709552512721414, -0.17404823168340447, -0.3223707238628902, -0.2530298744172747, -0.13214669237632778, -0.027348848223664467, 0.02509543915062398, -0.005794579265206781, 0.01162015776864429, -0.004968337758234445, 0.009451339827825755, -0.010135071232774047, 0.013431239683116316, 0.003903446119080184, -0.04185568754473669, -0.10293766710044107, -0.1844781663164317, -0.17073630386468788, -0.15207497257838046, -0.22716676459945748, -0.24030920837426267, -0.07003779491331628, -0.00940647498398217, -0.16485645521300804, -0.3182287066113793, -0.2945440200654014, -0.2705572863287391, -0.2138710715119471, -0.30910824461722736, -0.14855919401951284, -0.17416411787343594, -0.14723657893629696, -0.025694889223739702, -0.004500226386269508, 0.01583274499347131, 0.014215594641151666, 0.00170311007743731, 0.00176866920023035, 0.009254882410809089, 0.004911810700168267, -0.011581253359013484, -0.0062676184590199635, 0.008488065586260625, -0.003974181606542732, 0.0005703891142354315, -0.025029326101773178, -0.014798201408961377, 0.006707123107825698, -0.020259189185389635, -0.016873004956311225, -0.004542010970748144, 0.013850386658393313, -0.021056450816726874, -0.013698704056331263, -0.01763125494590472, -0.00308360461264025, -0.0724508511344173, -0.03341070548899001, -0.005915204977381694, -0.0109292398891622, -0.012994042610767767, -0.00598507740675707, -0.011128938130125263, 0.003160015608326339, -0.00927351122243054, 0.012312504998198439], [0.00816174061930327, 0.0042565997596292465, -0.011866264498557644, 0.003567126505545871, 0.0008057529505425006, -0.0013243797156740197, 0.01458168407923467, 0.010327687804552711, -0.0077196399651085715, 0.006968125064256124, 0.0077459701155647405, 0.002149212862236258, -0.01694088448107997, -0.00789778502603034, -0.01616167924050438, 0.007259173552026998, 0.010103065752317265, 0.019653733518534312, -0.0013083092895558365, 0.009228199968200635, 0.0035273574636065933, 0.004552748751956486, 0.0023710787842937332, 0.006216013024599923, -0.005442744979225904, -0.003963668446702096, -0.004246705374738569, 0.0011449104101783015, -0.00136768474255515, -0.015392468909961186, 0.003938623398950395, 0.002096773895771238, -0.00295798472643999, 0.015379904322709886, -0.015251869150107171, -0.01217876954478782, -0.004789776052241032, -0.011747455341898751, -0.04222218769549503, -0.04752807385552009, -0.03861134748591132, -0.03965111584494608, -0.03045424411398999, -0.0297026297087485, -0.05034935713136497, -0.020983273953123507, -0.017833279572481164, -0.027383833309321377, -0.033789978064048876, -0.012303808701117198, -0.01645898007218346, -0.00023576815610802177, 0.004284564346552762, -0.00041103242281308953, -0.0019998864893604282, 0.0018834143970587562, -0.007074839408408758, -0.018945136485239777, 0.0022870640888519554, -0.0007028016714833564, -0.0060665136407992565, -0.0014980003030786524, -0.02162048275380448, -0.047904076642259194, -0.043270808701907734, -0.07025852168054234, -0.23134870932823287, -0.11244028209021052, -0.11555192297514583, -0.14964836500607062, -0.1154082879312788, -0.082636988371968, -0.13320262842330605, -0.1242551945146215, -0.10896302082340942, -0.12616171971297535, -0.0545641425720006, -0.04058677065238228, -0.01922689395801611, -0.03679847461213097, -0.004081565706064087, -0.015379206137080033, -0.0075386406964752396, 0.003587759094432864, 0.01662459654528314, -0.0008625085351061984, 0.005221100178670107, -0.0017425977999423325, 0.005509631910210297, 0.015962271668996133, -0.0703764699238647, -0.09559218226931315, -0.038761740391138735, -0.09680118246437722, -0.30749876859673225, -0.16439200092913614, -0.1253632101810394, -0.17889276257624495, -0.22675922460212558, -0.20363512944043716, -0.21518759805458781, -0.04014619475584467, -0.0001384365961159049, -0.1294916031910118, -0.06353804266086564, -0.008082423598114438, 0.008207448187495208, -0.004392578324408732, -0.04378545459901191, 0.01566907791444587, 0.002497120426066962, 0.007921217970065331, -0.005433142316754136, 0.006735561153342031, -0.002700340054721227, 0.01040722598663403, 0.0034490875912766084, 0.05026404666687715, -0.0742011885927934, -0.07718849989598775, 0.02379208943183376, 0.05382378236957525, -0.1676399597472012, -0.06339564172181651, 0.014002302455051718, 0.013401728119613458, 0.06211577159776038, 0.03339595484812105, -0.10311437485829808, -0.1527374459531541, -0.14124789287209313, -0.0460212508050097, 0.21159913428758392, 0.015479514809811046, -0.03902094029164812, -0.04711333854879186, -0.0507037851162195, 0.05080937210265938, 0.0012968408903616538, -0.010750281488247047, 0.00026057687348439386, -0.006649912335200304, 0.0044840796568579346, 0.023628396773509735, 0.09147207273340992, 0.12561649482483103, 0.04889390881891822, 0.09401264974370649, 0.06440091019929856, -0.11322707897531546, -0.095753665400047, 0.11463515078330368, -0.009636835865327292, -0.09595527698974189, 0.027726842510579264, 0.20048887731808782, 0.07757753259349025, -0.14074772991430406, 0.1561788147937128, 0.05575583954380573, -0.04599916459648997, 0.15694918049249026, -0.07862573726634006, 0.025300805360466652, 0.07398152900218782, 0.08319627728904375, -0.027691250199490775, -0.0017664526251655452, -0.014224429584388123, -0.01104427697526951, -0.0018773235274133927, 0.04018009113953847, 0.0882170068925624, 0.09024500967953848, 0.11117287955310379, 0.19146968923006247, 0.12750407788361015, -0.06020040968513208, 0.001778319445589788, -0.04549597352264549, -0.22220384410504926, 0.013030721695474647, -0.011211976098820811, 0.09930774241849055, 0.27067457122688443, -0.18916810576747986, -0.08038951550605972, -0.22351849835658502, -0.095836149805652, 0.0980437725469113, -0.19529345860031327, 0.058925345486719974, -0.024576615517247526, 0.07483592750822173, -0.05340545583761164, -0.026430413788630168, 0.004437843886461797, -0.021301574964722163, 0.018458791142504434, 0.07797244392622747, 0.14436532637757435, 0.07670486539989034, 0.13703035171293243, 0.16177859875609676, 0.22942391846648422, 0.11796859320724766, -0.1954936017196935, 0.0033361622370321436, -0.11009323368914983, 0.21839325280123373, 0.03796749033724608, -0.047055667574736934, 0.01603657181627162, -0.37922385900030264, -0.24611381142302172, -0.03653587932978674, 0.022420105353392093, -0.022571524782319056, -0.019131564255320338, 0.04666515221755135, 0.018275515181668145, -0.10850121742854489, -0.05639047105555627, -0.011469928139642153, -0.010074411525711794, 0.005039028340808161, 0.02646592230768193, 0.07248407081160994, 0.15039761963595102, 0.20160707630872102, 0.2072427453908108, 0.2455555234095648, 0.16410500444938683, 0.02560879456001053, 0.013186270586971175, 0.18071130142122452, 0.18861468470538797, 0.23567866919892236, 0.06541668048098699, 0.11854167847121644, -0.20829388947441582, -0.346511145267359, 0.015350381394322222, -0.06753208347968354, -0.047327296433559526, -0.19555557257473213, -0.036237344345823035, -0.06888563359105306, -0.15960261169512893, -0.09362625300309363, -0.03252211717681315, 8.966145690856579e-05, 0.004171326934512193, -0.007508585829043104, 0.007220089416206385, 0.05305356208914733, 0.08531432502858363, 0.21032648507986668, -0.052240416214917935, -0.03627503711842914, -0.18117260471465257, 0.13580869456587133, 0.2733513396275173, 0.3586650330437596, 0.08716972017661162, 0.16736288980738798, 0.3074051572795315, 0.3529956538383248, 0.07428065067525165, 0.15975316739898304, -0.008876378302631995, -0.2430103641592108, -0.3688101537036212, -0.22996123362635432, -0.08272192617118773, -0.06986040839000857, -0.2793347356963712, -0.18495471541134414, -0.04827424821742221, 0.01863227973008475, 0.00046953015192456013, 0.008052761247548704, -0.004272136136206722, -0.011105745407986718, -0.05962644154181574, -0.03301676933839412, -0.10544974932416726, 0.025390720737578552, 0.1831359096962585, 0.13453523948403248, 0.08108553577635884, 0.03701395853699051, -0.15310184274785837, -0.0725450400884757, -0.16525022985737778, -0.09337834560519355, 0.1530753932088837, 0.2788525211244541, 0.22604776902005996, 0.0807621445750229, -0.16919822002706456, -0.24783141340174375, -0.24331017181746406, -0.4605555081884482, -0.4186466052828476, -0.2578791679517501, -0.05173896174188352, -0.014788489403073328, 0.006291182474574296, 0.016439845610156687, -0.013547783629052505, -0.011618239744620128, -0.2218892832029542, -0.21868909802688688, -0.1694019222341808, 0.15878675244608223, 0.22907821853481583, 0.14863959469538401, 0.16934417560195192, -0.0167706125724821, 0.12291071982613146, -0.17847095414485797, -0.2052881090804917, 0.33400588217374316, 0.47650949969190864, 0.35184151875121217, 0.38631880762938703, 0.22188137452028567, 0.046232280963898406, -0.3954642991418278, -0.427115073992572, -0.6370830259899471, -0.3857138571966642, -0.1810759364524551, -0.03967581678664948, 0.0014972402644959435, 0.011343033491636623, 0.0014520982031922083, -0.0062661808487132434, -0.011876703439651231, -0.25164937283846234, -0.25271278044196044, -0.34321475630423065, -0.09663005710341502, -0.05294177819771346, -0.09733639217560486, -0.1072915179800445, -0.20708878825596563, 0.0357472553192956, -0.2250205952992499, -0.08874911331230642, 0.2684708535545015, 0.4253234585151401, 0.39688540589753896, 0.7200917531654178, 0.5085959702523978, -0.08035991160964762, -0.5157112498837744, -0.5698172887881159, -0.410161674646052, -0.13121012331851845, -0.06847488369900005, -0.03373224875814079, 0.007921698604950785, 0.006142175442757175, -0.015172390073209389, -0.005115550038041443, -0.026791250977740627, -0.1841635523325834, -0.23154927187374294, -0.1688613149580647, 0.10148338924513295, -0.003526323879636685, 0.025068863858717445, -0.22519121916288323, -0.06711653515820852, -0.14090555238797042, 0.03631190975569596, 0.15882801226594237, 0.2694423189029936, 0.3979063099692363, 0.6373071671731222, 0.6429458859176183, 0.31419653318514457, -0.24798719280213224, -0.4440098552968573, -0.23927779336496097, -0.19445363423033712, -0.07671066623486691, 0.0012826357722650983, 0.043673610679334215, 0.020475779943793477, -0.006629518849548962, 0.004454568746223262, 0.010188319859873592, -0.01355737640482727, 0.07137646462326254, 0.04526512616862892, -0.10178283232144668, 0.05216446096055883, -0.032040561924187715, -0.270914521795722, -0.33337964484610605, -0.21859488853794773, -0.07721068456318587, 0.28480570279497236, 0.3050851924393964, 0.21036801428057617, 0.4350852345154969, 0.5572399747720905, 0.6262120747216575, 0.2699188856610342, -0.5726710237109919, -0.3909484415368045, -0.21429974169168656, -0.074044112048345, 0.03953664932967328, 0.09117525147705824, 0.04873749603846336, -0.002469760573304606, -0.0019067937081946693, -0.015927554492030264, 0.011093730033917375, -0.005561830523356889, 0.052013534851467015, -0.13740342867490823, -0.22576760588892603, -0.23217368465964147, -0.011667707138995563, 0.05952731623437921, -0.21110103299760838, -0.17687610636306644, -0.14027223451959822, 0.37789802669604544, 0.20539383810167522, 0.26046957083466993, 0.3558764126151888, 0.481182893756308, 0.02663801410839691, -0.2968431608354376, -0.6000034163133118, -0.0889278482098332, -0.03379391695336191, 0.017048257824684002, -0.021855261192849907, 0.08056051181943574, 0.08290439460337905, 0.01191587986402876, 0.00158847208220185, 0.010357754809069012, -0.015686308507810356, -0.05923269128446658, -0.10570071789622149, -0.22605347404434137, -0.1883666907299398, 0.0478741814165156, 0.10417173610036233, 0.09255515946860847, 0.00863262082296784, -0.08083987705534294, 0.031335596310340434, 0.1712168066556785, 0.567324807424919, 0.4912042449908786, 0.5113699887354135, 0.12215649591705209, -0.049466499543520094, -0.2867751820815537, -0.42203327464566714, -0.09888415293340157, 0.10053841812634601, 0.1220904556399641, 0.04530102624908119, 0.12984816807581956, 0.09597962435665715, -0.0012952858002987263, 0.007300157796544172, 0.0024419737519724687, 0.01149715802594413, -0.05936471282682525, -0.1294268987007049, -0.08493952422088635, -0.24431198834219625, -0.14093701894375474, 0.024472153299578803, -0.10356401703454597, 0.08401263193077962, 0.1788319220425473, 0.3708596511050608, 0.36355673290741525, 0.5111527401167564, 0.255540911284622, 0.007167291936231991, -0.2392686609668509, -0.3843417863162774, -0.35391800665710976, -0.5937483656448473, -0.291706237808547, -0.09932228888036392, -0.07127624127835858, 0.045960163593100296, 0.15941428058224957, 0.06592210686160432, 0.0034777036090386077, 0.002212472985791429, -0.0014278350718859116, -0.010855828626313584, 0.042523526056744455, -0.0074521294640361255, -0.18590721433096494, -0.25610044710712615, -0.14198550413723787, 0.1496300608158815, 0.06878852099812621, 0.10153167941570686, 0.09067129347881316, -0.09305856137819118, 0.22931628825476552, 0.3096457268021014, -0.08510082107309822, -0.3039590691288956, -0.32143428520935974, -0.28837254971987436, -0.1903785310284506, -0.2499891108029703, -0.2913467911193497, -0.1972320768733603, -0.22922722183827265, 0.029144203250663445, -0.0015484977223692077, 0.005324184745071984, -0.0041793877344733065, -0.003404046865705165, -0.009080819236648137, -0.020660728651565118, 0.1212183417497206, 0.07806093535022351, -0.1815234138401213, -0.13137595235227645, -0.12425724697611641, -0.061925945562552154, -0.09550185920615822, 0.03699316960653166, -0.3406597411153633, -0.4763316985908907, -0.20669097293733527, 0.08826159237649848, 0.04715244098249577, 0.05715612440880942, -0.3081008542378147, -0.2551166577731743, -0.07431171037233743, -0.15522234515987435, -0.19954906397701658, -0.18616062887951423, -0.18016499442631081, -0.06783936722656049, -0.02142281512505323, 0.01564170106950503, -0.010576563554631506, 0.00229845284112136, 0.0011838910949382101, -0.016387340078783535, 0.1720958103271847, 0.10143621981956538, -0.1753080904329731, 0.10157915943111408, 0.06296170069994922, -0.1256225200657039, -0.22712107852598692, -0.1563075079255752, -0.2202676695693511, -0.18902434879148028, -0.23730332576113677, -0.08288659789813643, -0.0039611905333167274, 0.15953864397174822, -0.1799955098399008, -0.1333212678310594, 0.0001689436205897656, -0.0027422838934049298, -0.013564498095352309, -0.07292675784645168, -0.07823488282740759, 0.008146101336797955, -0.014013007319961, 0.01375690018481208, 0.00316376997525603, 0.0071358132955214254, 0.01003452882817197, 0.012655719483278819, 0.10437682969488005, -0.06351359759514394, 0.0091568785047214, -0.05574367088661769, -0.12548906403168414, 0.1019040657186729, -0.025565282804733944, -0.01686343164618664, -0.2177507785257948, -0.24428854995254248, -0.19250562140117403, -0.12260705553485596, -0.031238399814155656, 0.2913470610441575, -0.13037098048975845, -0.031291020586416786, 0.0942794901723374, -0.0023754779248442276, -0.024288191900275362, -0.030656206289124785, 0.04382368682418748, 0.04752999243198244, 0.000402069470339251, 0.008060062121456874, 0.011036758619104248, -0.004368039011534696, -0.0002517533238079135, -0.005127909474310696, 0.0690990610495658, -0.05688299609703941, 0.035162308157167, 0.12422176696818192, -0.06607284953876101, -0.03979193602652684, -0.20148084054444376, -0.12302383764896961, -0.06407790831231917, -0.21762765317049793, -0.19615263685648443, -0.061632675717952924, -0.15738821244165507, -0.00907919655777441, 0.18649357703268207, 0.12697199757072156, 0.07575940826705249, 0.10281245804779024, -0.02344380797193692, -0.06451968660287202, -0.018073801508057402, 0.04930826117824063, 0.021421569158305495, 0.007028551426472622, 0.004248941298372335, -0.012761650017623033, 0.011433176858852508, -0.004522558898285832, 0.017325461767905462, -0.06874597426031527, -0.1446717952720391, -0.0773454916580602, 0.09306162951454772, -0.11552225540172714, -0.24268804529285953, -0.23930333236884696, -0.013496297591613216, -0.1571578790486422, -0.11614409849456372, -0.19847865085973063, -0.11249205040885726, -0.2515371059531439, 0.17967544118762432, 0.0599367046098284, 0.035912782721771244, 0.051095724058935935, 0.09286969524354555, -0.0663616108377901, -0.05532087636249325, -0.02178670060872756, -0.022578998402270376, 0.01031707117860062, 0.00017036380768293313, -0.004102436615446555, -0.009572369563251004, 0.01072992747102968, -0.006397504955502403, 0.04040005909667072, 0.005715607785792115, 0.03123532855519316, -0.01506746666525857, 0.045915439075003665, -0.1794835467404604, -0.01369037361348017, 0.07435162074529532, -0.2527381146807464, -0.07692456043970124, -0.11299538524868868, -0.25560837422838595, -0.08633673257180399, -0.18697491830366328, -0.0877797673896011, 0.030475330551868962, -0.018087424671373503, 0.06181035192744734, 0.06514025544098237, 0.055429904201231624, 0.026659438158750083, 0.0045030340123041615, 0.005678477786726723, 0.003261917999183489, -0.0055330591827982304, -0.0007391490168327357, -0.01722072438092644, -0.021068942185144334, 0.028496392789411133, 0.0667691327822766, 0.12370477862927558, 0.138814671655266, 0.04250200974293296, -0.05068635037725444, -0.21713629596709322, -0.25176706837821783, -0.2548084432925993, -0.22614032285723565, -0.043915375361766276, -0.22479073596243834, -0.1321725535099042, -0.08928285917924947, -0.07910074314630099, -0.04269456206117078, 0.040870610855133174, -0.034351821057160885, -0.01405234474789845, -0.006411786497106893, -0.021790523286663928, 0.006380097725326214, -0.0006711111828894555, 0.005031735090456359, -0.004499797249470524, -0.013132010903242322, -0.005660007805176903, -0.0038733783931544966, 0.025217640769794675, -0.0160602300373139, 0.029476257074571226, 0.0465849526232492, 0.05353578301122112, 0.13239427018158112, 0.12223671305980785, -0.0035535648995746343, -0.08457191568544664, -0.14105671099349223, -0.11113709850902874, -0.11469360735735655, -0.008597679680777705, 0.07567364534950186, 0.06865391185557211, -0.003049687517449854, -0.01682256361234435, -0.02762126947417491, -0.007592474766658292, 0.0004661506395345144, 0.0041450555456091775, 0.006657249994241177, -0.0008089003232109416, 0.012162444937109895, -0.006345230454300113, -0.0019211455322602224, -0.009552040212916361, -0.006687712442608516, 0.00259089475329693, -0.00866803055461366, 0.0009019440467671962, 0.0022417240434451993, -0.02188225127893934, 0.005551549707145465, 0.004918597042744321, 0.03396809381922992, 0.03420880119245785, 0.03522150564791479, 0.026576011624149066, 0.018339340350845765, 0.030499108923952398, 0.05502639148888509, 0.047755154768060866, 0.012214880619313475, 0.01117580011403152, 0.00537480192868229, 0.006095343807930673, -0.003930121261662798, -0.0028736000243410886, 0.014922230356659034, -0.0026449733794217823, -0.0028757123173226524], [-0.003908914003397268, -0.011563370480494125, 0.0034777330503791507, -0.008684280419006115, 0.011499016299744917, 0.005566777645188205, -0.014202277026605396, -0.006075041626537011, -0.004751378393974885, -0.013413391890748335, 0.0032105897386482084, -0.0008200891144416414, 0.002741566168228411, -0.005852205453104941, -0.005572564531435548, 0.010958674545462012, -0.007657852987317571, 0.004147292194293958, -0.008402798658185292, -0.002703263562012321, -0.003349222149420545, -0.015039927742194535, 0.013106937662139299, -0.01495555542021315, -0.008735324130461082, 0.000617740896002983, -0.004645530003293929, 0.007667391090089286, -0.006136406483925852, -0.006976659123226698, 0.003414394205560934, -0.0069809011177205844, -0.011428497682022467, 0.005064699731768729, -0.001244608013923096, 0.006767863066241513, 0.009667779975147266, -0.005951392803876273, -0.0040529461582482825, 0.00533146163354663, 0.0028683451489557588, 0.0007813413689132831, 0.03083628432454305, 0.036438925167466635, 0.021658773739811475, -0.0018832977303185321, -0.006127141023846929, -0.005361802647313146, 0.004066886335979229, 0.004313900929354555, -0.01114601090848162, 0.007151634208802377, 0.010617077519782117, 0.0016412036895035271, -0.008199386334292107, 0.00044473883039296166, 0.0035761038218811757, 0.002127468462768067, -0.003126029563782914, 0.021481215070889324, 0.0061569640352943985, -0.00530915441474305, -0.006911109935306706, 0.018989291478514077, 0.0028956739484074204, 0.008338436895666174, 0.0024864768631999027, -0.018059584311824885, 0.01834193207065443, 0.04461362762082816, 0.12498942854397832, 0.20705777024481206, 0.15327270312118457, 0.07767179474251623, 0.034621241513438844, 0.015255275383532758, 0.0033765230447493867, 0.026616872514066983, 0.01923780633841042, 0.0014680020224202, -0.003930084040142653, 0.005414894464159672, 0.019850934255049302, -0.0001273436339134481, 0.0013201543982903727, -0.0012495985282613452, -0.008433937187279878, 0.011852056267215179, -0.0070314331640973235, -0.019597327382967402, -0.013370528093126848, -0.034091739880415174, -0.0872742976615148, -0.04001177377571712, -0.033026115436574716, 0.055707923448234775, 0.1925247695763307, 0.14145356080154223, 0.07704695172950334, 0.11279741545943463, 0.13302649407302627, 0.05451735948697799, 0.004784204653660551, 0.2649678010816624, 0.07065082925887498, -0.05218850337935906, -0.009285800481138383, 0.010323853203232905, 0.032071902103616004, -0.012620839486496909, -0.002067807585454309, 0.0014228326570379327, -0.004382072987647247, -0.003865247682872139, -0.010195382256521213, 0.0004884258338939935, -0.011811632639051764, -0.030300794059201993, -0.008904026870965087, -0.1631427129476726, -0.1153756124863245, -0.09679087929423819, -0.23959301944526368, -0.2863232296679048, -0.1891290074727357, -0.16491074863267136, -0.2858933379549557, -0.11344861700183773, -0.03936030084918952, 0.23862867278544986, -0.0287371552542505, -0.06325383778654392, -0.05134156110848206, 0.04175935359009098, 0.1593083437649524, 0.040310734744013144, -0.16043845653674446, -0.03600768443550552, -0.012457889374891196, 0.0020937177973094755, 0.002645399537129627, 0.011772158335797965, 0.0072296522044819, 0.002546282225992149, -0.04088363450844906, -0.018612927863063605, 0.007015386485651257, -0.22349198484140684, -0.08416882276274391, -0.13517004443965616, 0.01192818032533264, -0.1330390383776743, -0.21081567754079072, -0.1143815844062028, 0.027056053076753888, 0.005110985758949351, 0.04510362312906487, 0.34293253701362547, 0.3208891015446093, 0.024761213651546345, -0.148386343872629, 0.2348179373497304, 0.19307441595628144, 0.30033186396433126, -0.06719741465554553, -0.0712782061754187, -0.027390132363525856, -0.005784423712960273, 0.014561441637501477, -0.01006364503329707, -0.02664017598737872, -0.01436923112396009, 0.03227377505916531, -0.003473074320115146, 0.08366332176885036, 0.03918087843035971, -0.1338152282794308, -0.05713502092392607, -0.04137385155216391, -0.2868616163134993, -0.03571516659595574, -0.11558574966000504, 0.1985621846917067, -0.20691255173617046, 0.2528689875854044, 0.11289724219834782, 0.3291479718016868, -0.09425282543272867, -0.011027546566808781, 0.31124462740130393, 0.050101034525174316, -0.16087453899019213, -0.3285402437242933, -0.14348090331223926, -0.059115466574876215, -0.030694368200563583, -0.013168709949994188, 0.0017329023544960676, -0.0003781514878752966, -0.02270269549663795, 0.03512915741146844, -0.02172486457387828, 0.1997637597833249, 0.11025535087550872, -0.0480123987295216, 0.06414211765446484, -0.05119342778076293, 0.05294176142019432, -0.25021966062549705, -0.26066240250184636, 0.09004012556900352, -0.12017791349522712, -0.0012914007358765143, 0.18194056742335526, 0.05198242533458944, 0.15835382115016322, -0.20667802228581142, -0.007964727431290272, 0.16066258731641078, -0.18408178862519425, -0.4626837120002189, -0.29648916074739523, -0.09350037290805452, -0.01000590720695636, 0.011049848038893799, 0.0026061955975746364, -0.00816722092549258, -0.06576624020201038, -0.0006948247595991744, -0.03637974143199132, -0.12822005199127193, -0.27429881225920666, -0.22308682336332675, -0.09488911331335041, -0.07968125568255811, 0.021202577855229096, -0.2686908981260031, -0.3449267073532899, 0.1331610254093787, 0.09141591270165553, 0.21329373426081202, 0.3461955285949539, -0.019177066954564424, 0.07891241442188056, -0.05583173468818559, -0.043144366318788, -0.06235657877787099, -0.2448614565984297, -0.5438038279180144, -0.35911184162890397, -0.13025261391683413, -0.050110313346094865, 0.010991969780189507, -0.005020795779616986, -0.035405772787365834, -0.05491317568513104, 0.010396105958948493, 0.029028063198992923, -0.11271307728576176, -0.26986612420177875, -0.14494186530547554, -0.20172657887965498, 0.13184674070931207, -0.19246441682520002, 0.0674403350832094, 0.051475834526695075, -0.12523469386102365, -0.08264349484790608, 0.29851935075774516, -0.10982159279697346, 0.048579801913202034, 0.06273258965104507, -0.23037922388160814, -0.19426624374988127, -0.16681104089688695, -0.20873378657329675, -0.47552066827546224, -0.38321074765629504, -0.10892764605205804, -0.00482442420518177, -0.00041570932747274293, 0.02156389429850598, 0.021890693832244162, 0.06589547388079553, -0.11484901504280791, -0.10534137319945032, -0.24360682650213197, -0.28293916634611327, 0.037157101520845844, -0.05976039268236597, -0.11480340009203463, -0.18294268596212748, -0.18970491918038196, -0.18279847549511474, -0.5374899892033367, -0.36587288329340556, 0.230074399588878, 0.4838486263775684, 0.14744113034197337, 0.04664132594063157, -0.15800030163101036, -0.09883506054260878, -0.15269333680664732, -0.17157757187043285, -0.48790896463956757, -0.2650534157107235, -0.0897609334054334, -0.0011604267246926097, 0.0022066292798602442, -0.012582645618058268, -0.019374217599736208, 0.06871633018440837, -0.12171635532345158, -0.19597586138549944, -0.15355899059441544, -0.29456156576711284, -0.20677277869486468, -0.14593614786313075, -0.23810687940484543, -0.2715306941429647, -0.4428956162564443, -0.1876283347120324, -0.7186868562073416, -0.41080068879242804, -0.28608644675880035, -0.09665330133720186, 0.2493608260258726, 0.21263309661095803, -0.055571977189724675, 0.1006762332169621, -0.10423408530446529, -0.18457488400512784, -0.2674363101611644, -0.1732440141509534, -0.10396122790522251, -0.006948760612586177, -0.0003804654231926139, 0.005407628298008685, 0.0032492551443162585, 0.09660016671569706, 0.0024197296793458905, -0.28185420107968207, -0.15027568820846066, -0.42040104168221337, -0.22619478813506783, -0.09443726603490406, -0.39395754582457837, -0.25887021543636596, -0.10159002784953555, -0.24993427910739657, -0.37692557837668966, -0.6205735086632185, -0.5533729675039737, -0.21115008821227535, 0.2372476875227495, 0.05344160921207915, 0.010772460558023986, 0.2868234265151313, 0.0862420968399606, -0.010557679191773493, 0.05137526504658685, 0.02875966991335757, -0.09745171185752381, 0.014457178625721177, 0.005859202714001264, -0.010922808195089225, 0.004971004997626947, 0.09091227797453952, 0.17253868877369527, -0.18567981724849997, -0.21578507546263276, -0.295225471646361, -0.40552509060529884, -0.2646089815486367, -0.06316785971604565, -0.29503258304851526, -0.35590406409904685, -0.021541322408619893, -0.10705674662115504, -0.40290768180617736, -0.6699377427896688, -0.16690969348204068, -0.14010345301073146, -0.053083997441908164, -0.11660838103110159, 0.040733368096186814, -0.015051601008650821, 0.18650815301630258, 0.13641929209648654, 0.06959724750474601, 0.005558552099778717, 0.029326802964165462, 0.004690851608541362, -0.011742999480170586, -0.007778902053356632, 0.06114845963467039, 0.423920317192303, 0.1330772618805052, 0.19947667186784637, 0.3502285008974374, -0.2860991271852991, -0.1802334731395792, -0.28397710581886015, -0.13261584674390933, 0.08386328545591805, -0.07468310153780114, -0.11327812133782685, -0.45729453179100016, -0.5637492875503245, -0.31152863208286186, -0.023541251736196377, 0.012978410585760077, 0.12383790351471959, -0.06081255421217468, 0.009043796996257646, 0.12005864417195178, 0.07389841882322594, 0.18470184035182463, 0.05861672872121325, 0.0035341035369257645, -0.005087015989456212, -0.016974397486545754, -0.027975370257787582, 0.0004780348367270779, 0.505597188847021, 0.614377969039146, 0.3851197827388978, 0.37615936011490797, 0.3987809485092473, -0.14312079624107088, -0.2103137417634015, -0.11048019836864699, -0.0814340569042086, -0.14541942572039812, -0.5119693514801025, -0.4492001952659785, -0.4704705969427974, -0.3355023991608887, -0.12229298630224218, -0.11580399168195553, 0.1399815191847726, 0.10387194429567317, -0.12319931166190758, 0.035591644681378716, 0.08516768266196975, 0.1869660562741029, 0.07283770803848369, 0.0070281722407065615, -0.006922986893684125, -0.016688255438589997, -0.05585011475679363, -0.011698611954582432, 0.4003832271759202, 0.5907110889105078, 0.3690872597832716, 0.4718653993135968, 0.4516587015698611, 0.13951838101248265, 0.14252459651869198, -0.09578081017179439, -0.07461979353734455, 0.16199295214447051, -0.20111568704901228, -0.36273611023368013, -0.37913323775238744, 0.044077573825244416, 0.27745715616273053, 0.23445914756812095, 0.3975261594495339, 0.2741814059327857, 0.07237156491837722, -0.050285425154819735, 0.02781088999786177, 0.24939429195316334, 0.08271110832371309, -0.002211108427831289, -0.0026688179810114, 0.020561419574379156, -0.04654071322845719, 0.024241915955014796, 0.2981875771857652, 0.3976817676411969, 0.15133678352115387, 0.24422420834665937, 0.3917980929437124, 0.569570312807375, 0.5718041093816436, 0.14353556823909122, 0.30253848344276835, 0.13522495194490536, -0.24025952187532607, -0.11998377095773079, -0.18053819570197213, 0.2530405248790407, 0.387921973457017, 0.4587332092264205, 0.27269219299786324, 0.11501573300915288, 0.17737649636299563, -0.1969400715910418, -0.20862284199207368, 0.29473956225193276, 0.020190161668072054, 0.02906157589190339, -0.009113136966831626, 0.00016507225401336462, -0.03655275094765101, 0.021261628518503467, 0.2540501976715355, 0.0009287861710824422, -0.026320229757917018, 0.01706338774421762, -0.05928122399947643, 0.3033882144178589, 0.583032290260075, 0.35228150016613236, 0.38015225522597557, 0.14869587968836312, -0.21315573368895116, -0.309558190758562, 0.2391809068355637, 0.3992716092497766, 0.1997274986290191, 0.11749158345359641, 0.06991441020936595, 0.030487399212827324, 0.1552845028589, 0.06669047532038992, 0.02346767254054703, 0.2799478684658241, 0.032857220865570136, 0.011178595930936331, 0.0035399578291335117, 0.005198131133647023, -0.010708923888829679, 0.027625670583146803, 0.10633479362568928, -0.20032181412351568, 0.12154982892412047, 0.16817728652651204, 0.06252181895810298, 0.24881097688035517, 0.24035683268796054, 0.6673216037098534, 0.6290395283410953, 0.28950278434897436, -0.350701579061599, 0.008423291252918226, 0.2946173318758709, 0.16002492628545245, 0.29710413635212113, -0.041425583391703553, 0.007185041863801486, 0.05602352063608669, 0.1885715439414256, 0.03648454969367141, 0.20374200140331705, 0.1988850026361376, 0.05754915782000455, 0.007742265029871513, -0.007889679256169143, -0.002871811762786535, 0.017267673918187208, -0.002282824181448576, 0.03635906960542077, 0.09079461636106591, 0.11516572609333564, 0.24603649374700334, 0.04732674965193065, 0.29318144149020947, 0.30220877996198076, 0.6604364084021909, 0.6516311336491405, -0.15179048082362123, -0.38917846750955504, -0.11877943343100653, 0.24465890952093253, 0.09237120162616559, 0.14610447086310246, 0.06164164918778551, 0.09794902191590425, 0.16560790004696999, 0.20230303888041573, 0.22848001616255512, 0.2552457321255309, 0.08011536346627862, 0.023316945671155456, 0.008535508604778997, -0.00197770059930168, 0.0034182268620312536, -0.004418141907286683, 0.036128285850607636, -0.10982646755952045, 0.20897817341324987, 0.04363241694379903, -0.0357663526115902, -0.04573894581110753, 0.16233927086525235, 0.212395575914447, 0.3050083409539856, 0.3667019475058863, 0.2918736169664436, -0.001243381584601823, -0.14513801348924468, 0.19801245189237512, 0.0026392840253909285, 0.08095362810329956, 0.30743011639693846, 0.17579032513948825, 0.1192702829350127, 0.19735221905100037, 0.39915643274980284, 0.24186121781724604, 0.026505997783870052, 0.02331623352963004, -0.013598469645028885, 0.009592538185479697, 0.002177369500560954, 0.002675162567444519, 0.012060415181492033, -0.12082016380366874, 0.23289341334772132, 0.0854280376037401, -0.08851318782064083, 0.19685121490486962, 0.2236982070207174, -0.18884342179565142, 0.06163830402412527, -0.05814232077348138, -0.14579268263099382, 0.05707052134000049, -0.1452050564082207, 0.16398101208281043, 0.10096505835000878, 0.3414183456260271, 0.1337409701033287, 0.3229711753993987, 0.3345143331480288, 0.32431703789174615, 0.1883022028105186, 0.020299218492425074, -0.004772508089493785, 0.0013210266377149439, -0.005942859021613506, 0.009850161989289926, -0.005686166634391618, 